-9.943706914782524109e-03
-7.424763590097427368e-02
-4.380860179662704468e-02
-1.013183686882257462e-02
2.001596428453922272e-02
1.878159306943416595e-02
8.020970970392227173e-03
5.364085361361503601e-02
2.402599900960922241e-02
1.110208872705698013e-02
5.522585660219192505e-02
2.933053299784660339e-02
7.776391226798295975e-03
-1.286351028829813004e-02
1.925638131797313690e-02
1.156643107533454895e-01
1.246674545109272003e-02
-3.812688961625099182e-02
-5.134610086679458618e-02
-5.248398706316947937e-02
5.284290760755538940e-03
-5.318156629800796509e-02
-1.831481466069817543e-03
-4.215345531702041626e-02
-5.416364874690771103e-03
-3.141655400395393372e-02
-4.327302053570747375e-02
3.899784525856375694e-03
-5.955715104937553406e-02
7.838994264602661133e-03
-4.535285010933876038e-02
1.880721887573599815e-03
-6.225951761007308960e-02
-4.356800019741058350e-02
7.073913514614105225e-02
-5.393016338348388672e-02
2.502183429896831512e-02
3.601977229118347168e-02
1.841613836586475372e-02
-3.555937483906745911e-02
-6.696009659208357334e-04
5.513799563050270081e-02
2.399257570505142212e-02
1.425619143992662430e-02
-6.658664438873529434e-03
-3.083514235913753510e-02
-4.559275507926940918e-02
-7.765722461044788361e-03
-3.848164575174450874e-03
-3.793257102370262146e-02
2.756678499281406403e-02
-3.786583617329597473e-02
7.393142674118280411e-03
1.614920474821701646e-04
3.586846170946955681e-03
3.383909165859222412e-02
-1.750067248940467834e-02
-6.317308545112609863e-02
-5.353864654898643494e-02
-1.675191521644592285e-02
1.184818521142005920e-02
1.549649331718683243e-02
-4.002042487263679504e-02
-1.975227706134319305e-02
-4.302579909563064575e-02
-3.236928209662437439e-02
-8.998958021402359009e-02
-4.641387611627578735e-03
4.696657881140708923e-03
-3.674567490816116333e-02
7.164523005485534668e-03
-6.330822408199310303e-02
-6.043351441621780396e-02
-2.693600207567214966e-02
1.087738480418920517e-02
-3.466766700148582458e-02
1.318526361137628555e-02
-4.044495895504951477e-02
-8.522210642695426941e-03
7.244870066642761230e-03
-4.317720234394073486e-02
-6.593817844986915588e-03
-1.426136773079633713e-02
-1.329773478209972382e-02
6.709897890686988831e-03
-4.123609885573387146e-02
-9.615196846425533295e-03
-4.468080401420593262e-02
-4.602588340640068054e-02
-1.425455603748559952e-02
-4.566083848476409912e-02
-4.391874745488166809e-02
4.020355176180601120e-03
-6.252454221248626709e-02
-4.184371500741690397e-04
8.921363390982151031e-03
1.136276777833700180e-02
-6.019279360771179199e-02
-5.380782485008239746e-02
2.116559306159615517e-03
-4.553740471601486206e-02
-4.958961158990859985e-02
-4.382561892271041870e-02
-2.772216126322746277e-02
-9.367947466671466827e-03
-1.645734347403049469e-02
-4.946490749716758728e-02
1.186375878751277924e-02
-4.629269242286682129e-02
