-5.409666802734136581e-03
2.825012803077697754e-02
-1.836724206805229187e-02
1.094084307551383972e-01
-3.070282191038131714e-02
4.075251147150993347e-02
6.663523614406585693e-02
-7.102274149656295776e-02
1.259921640157699585e-01
8.216976374387741089e-02
1.558525301516056061e-02
-3.644783515483140945e-03
-1.205537766218185425e-01
-1.319063454866409302e-01
-5.222082883119583130e-02
1.180310323834419250e-01
-1.688926070928573608e-01
-2.566444575786590576e-01
2.841715812683105469e-01
7.234735786914825439e-02
-3.812045603990554810e-02
5.881807208061218262e-02
-1.139109581708908081e-01
-2.114184945821762085e-02
-1.156841665506362915e-01
1.172972843050956726e-01
1.236605569720268250e-01
2.336840704083442688e-02
1.359034627676010132e-01
-3.284060209989547729e-02
2.014059014618396759e-02
6.909521669149398804e-02
-8.420433849096298218e-03
-8.562135696411132812e-02
-1.744968593120574951e-01
3.469821438193321228e-02
-1.944762319326400757e-01
2.421426326036453247e-01
1.025000959634780884e-01
-4.970914125442504883e-02
-1.193047687411308289e-01
1.101698912680149078e-02
-3.021769598126411438e-02
-5.410144850611686707e-02
-4.715413227677345276e-02
-2.761986479163169861e-02
-2.052561342716217041e-01
1.874339431524276733e-01
-9.998827427625656128e-02
-3.104303404688835144e-02
5.268343165516853333e-02
2.553915381431579590e-01
-1.053414270281791687e-01
-1.917671859264373779e-01
-9.679469466209411621e-02
3.014682233333587646e-01
2.322372607886791229e-02
-2.502354979515075684e-01
1.255688965320587158e-01
8.091964572668075562e-02
4.841185174882411957e-03
1.708441525697708130e-01
-1.444925665855407715e-01
3.165948390960693359e-01
2.253518849611282349e-01
-4.733496904373168945e-02
1.244239211082458496e-01
4.790541529655456543e-02
-1.333925426006317139e-01
1.394510567188262939e-01
9.970103204250335693e-02
-2.607209607958793640e-02
1.964743733406066895e-01
-5.920592695474624634e-03
3.923238813877105713e-02
3.408442810177803040e-02
-8.595899492502212524e-02
2.274745702743530273e-01
3.109144605696201324e-02
-1.858854293823242188e-01
6.019300967454910278e-02
2.549224197864532471e-01
-9.025284671224653721e-04
2.412794083356857300e-01
3.090960159897804260e-02
-2.563768029212951660e-01
-1.273951679468154907e-01
7.439409941434860229e-02
-1.115659475326538086e-01
3.090018779039382935e-02
1.613326072692871094e-01
1.928296834230422974e-01
1.184845268726348877e-01
-3.528729081153869629e-02
2.036771029233932495e-01
1.757279783487319946e-01
-2.727937418967485428e-03
2.170046865940093994e-01
1.487189233303070068e-01
3.094196552410721779e-03
-1.473516672849655151e-01
-4.394473880529403687e-02
6.513693928718566895e-02
3.756605088710784912e-02
-1.352310925722122192e-01
2.941289544105529785e-01
3.394928574562072754e-02
-5.850055068731307983e-02
-1.749831885099411011e-01
