1.412197202444076538e-01 2.386322245001792908e-03 -4.798180237412452698e-02 1.723862806102260947e-05 -2.250648289918899536e-01 -9.226942062377929688e-02 -9.482279419898986816e-02 2.561491914093494415e-03 -1.203636303544044495e-01 8.372975885868072510e-02 -8.387725055217742920e-02 3.531244397163391113e-02 -2.056448012590408325e-01 -1.492040157318115234e-01 -4.184784740209579468e-02 1.962922662496566772e-01 -8.396494388580322266e-02 8.814760297536849976e-02 -1.366012096405029297e-01 -1.364668309688568115e-01 1.784737966954708099e-02 -8.851302415132522583e-02 -1.535805761814117432e-01 8.378855139017105103e-02 -4.357041791081428528e-02 6.047623977065086365e-02 1.679463535547256470e-01 2.990966662764549255e-02 -5.194887891411781311e-02 -1.200881153345108032e-01 8.275132626295089722e-02 -1.064085494726896286e-02 -2.200133726000785828e-02 -1.324815005064010620e-01 -6.405396014451980591e-02 1.470925062894821167e-01 4.051491618156433105e-03 8.304972201585769653e-02 -1.882862001657485962e-01 -3.691367059946060181e-02 1.040010899305343628e-02 -2.060746960341930389e-02 -8.121608942747116089e-02 3.881847113370895386e-02 -2.487553469836711884e-02 -4.045905079692602158e-03 1.071005612611770630e-01 -4.985940083861351013e-02 -1.340354233980178833e-01 -1.620546430349349976e-01 -1.528338193893432617e-01 -1.152374818921089172e-01 -7.710698246955871582e-02 -1.590899825096130371e-01 3.910589590668678284e-02 1.538736522197723389e-01 1.349227130413055420e-01 1.511483490467071533e-01 -8.356456644833087921e-03 -1.367134004831314087e-01 -1.973342150449752808e-01 7.519931066781282425e-03 -1.303348392248153687e-01 -6.823508441448211670e-02 1.981900259852409363e-02 4.417280107736587524e-02 -4.149539023637771606e-02 4.539001733064651489e-02 1.524774879217147827e-01 1.875425502657890320e-02 -7.824127376079559326e-02 9.792930213734507561e-04 -6.722770631313323975e-02 -6.410848349332809448e-02 -7.617899775505065918e-02 -1.699988842010498047e-01 2.140272110700607300e-01 6.032077595591545105e-03 8.146082051098346710e-03 -8.003396540880203247e-02 -2.899775654077529907e-02 1.550974100828170776e-01 -1.618389487266540527e-01 9.363193064928054810e-02 1.218646019697189331e-01 -2.087273597717285156e-01 -6.130662187933921814e-02 -2.135834842920303345e-02 -5.284899100661277771e-02 -1.619914770126342773e-01 1.140390858054161072e-01 -7.023464888334274292e-02 -9.497638791799545288e-02 1.504144966602325439e-01 -2.138598356395959854e-03 -1.437858045101165771e-01 1.827048808336257935e-01 -1.009196937084197998e-01 -1.189985200762748718e-01 9.726330637931823730e-02 8.319696784019470215e-02 -1.356652230024337769e-01 -1.988074369728565216e-02 1.216051355004310608e-01 9.181780368089675903e-02 -6.476401537656784058e-02 1.640211343765258789e-01 3.413876146078109741e-02 -1.735700815916061401e-01
1.061346381902694702e-01 -1.170773431658744812e-01 1.288255006074905396e-01 -2.956331707537174225e-02 1.140039712190628052e-01 2.353776060044765472e-02 6.842384487390518188e-02 1.077775061130523682e-01 5.148207023739814758e-02 -3.406911715865135193e-02 -3.347504884004592896e-02 9.074556082487106323e-02 1.881858557462692261e-01 1.616026312112808228e-01 -7.756167650222778320e-02 2.759949117898941040e-02 8.162127435207366943e-02 -1.288711428642272949e-01 2.100324183702468872e-01 1.075285747647285461e-01 9.031470865011215210e-03 9.875898808240890503e-02 9.120332449674606323e-02 7.359109818935394287e-02 -3.270624950528144836e-02 9.765677899122238159e-02 -6.378422677516937256e-02 4.598589614033699036e-02 -4.047929123044013977e-02 1.195738837122917175e-01 -2.914890944957733154e-01 1.649744063615798950e-02 -1.046666651964187622e-01 -1.551510244607925415e-01 -7.375977933406829834e-02 -1.901560872793197632e-01 8.697076141834259033e-02 -1.377187967300415039e-01 -1.154172867536544800e-01 -1.334475874900817871e-01 2.931860275566577911e-03 -2.256974205374717712e-02 1.133828163146972656e-01 -1.118131354451179504e-01 1.598535925149917603e-01 -1.668092757463455200e-01 1.045410186052322388e-01 1.233638897538185120e-01 7.543421536684036255e-02 7.485812902450561523e-02 -1.476513296365737915e-01 1.296029388904571533e-01 -5.621696263551712036e-02 1.899435520172119141e-01 -1.569929271936416626e-01 -1.583234593272209167e-02 -1.472551673650741577e-01 1.029454246163368225e-01 4.995595291256904602e-02 -1.306374743580818176e-02 6.373772025108337402e-02 -7.395519316196441650e-02 -1.393824368715286255e-01 7.151912152767181396e-02 8.070977777242660522e-02 2.913004718720912933e-02 1.307834684848785400e-01 -4.914661869406700134e-02 1.011934354901313782e-01 3.027322236448526382e-04 -1.656251549720764160e-01 2.411833778023719788e-02 6.522613111883401871e-04 1.086291894316673279e-01 1.355682611465454102e-01 5.870073288679122925e-02 -1.509758979082107544e-01 -1.606796532869338989e-01 -5.575267225503921509e-02 5.866577848792076111e-02 -5.276480317115783691e-02 -1.234821453690528870e-01 -2.387406863272190094e-02 -1.052429974079132080e-01 -5.673952773213386536e-02 1.204780489206314087e-01 -7.780852168798446655e-02 -1.045613884925842285e-01 -6.883792579174041748e-02 -1.214592605829238892e-01 1.632088422775268555e-01 4.037331789731979370e-02 7.695944607257843018e-02 5.356263741850852966e-02 1.194251030683517456e-01 -6.174588575959205627e-02 -2.375997006893157959e-01 1.291396170854568481e-01 1.079041510820388794e-01 7.914262823760509491e-03 4.402905330061912537e-02 -6.216972693800926208e-02 -1.514445543289184570e-01 -2.007787525653839111e-01 3.808593377470970154e-02 -4.880940914154052734e-02 6.702558696269989014e-02 -8.658636361360549927e-02 1.634776741266250610e-01
7.500603049993515015e-02 -6.502027809619903564e-02 1.632771641016006470e-02 -5.790439993143081665e-02 1.010773479938507080e-01 -1.524754017591476440e-01 1.125312224030494690e-01 1.508099883794784546e-01 1.356990635395050049e-01 1.189618259668350220e-01 -1.264934688806533813e-01 1.083353385329246521e-01 1.930304318666458130e-01 9.976624697446823120e-02 -1.448442600667476654e-02 7.293222844600677490e-02 4.183739423751831055e-03 -1.290971040725708008e-01 2.280549108982086182e-01 5.856518074870109558e-02 1.004357933998107910e-01 1.523674130439758301e-01 7.106646895408630371e-02 8.262995630502700806e-02 -6.498826295137405396e-02 -9.424739331007003784e-02 1.330031007528305054e-01 1.922641968121752143e-04 -1.159625276923179626e-01 -3.003231063485145569e-02 -5.791459232568740845e-02 -1.044148132205009460e-01 9.840175509452819824e-02 -1.012777239084243774e-01 -1.259949803352355957e-01 -1.761926561594009399e-01 9.568385034799575806e-02 -1.343801803886890411e-02 -5.564888566732406616e-02 3.134485706686973572e-02 -7.209568470716476440e-02 6.354052573442459106e-02 4.430070891976356506e-02 -5.391493439674377441e-02 1.168917194008827209e-01 1.215645298361778259e-01 -9.462291747331619263e-02 -2.231675200164318085e-02 3.290162608027458191e-02 2.085596472024917603e-01 -1.675691008567810059e-01 -2.767375670373439789e-02 -1.628663204610347748e-02 1.354249417781829834e-01 -6.336004007607698441e-03 5.522702634334564209e-02 -6.255269795656204224e-02 1.280770748853683472e-01 7.521146535873413086e-02 -3.728995844721794128e-02 2.055215090513229370e-02 -9.076056629419326782e-02 1.503671519458293915e-02 9.928156435489654541e-02 -1.042359024286270142e-01 1.062375456094741821e-01 -1.193725988268852234e-01 -2.764746360480785370e-02 -2.393896132707595825e-02 -1.498748511075973511e-01 1.052690744400024414e-01 3.639394044876098633e-02 2.199360169470310211e-02 1.378031671047210693e-01 1.362444907426834106e-01 1.976957917213439941e-02 1.398831158876419067e-01 -5.724033340811729431e-02 1.073378920555114746e-01 7.006309181451797485e-02 1.285833269357681274e-01 -1.335572600364685059e-01 -3.576321899890899658e-02 -1.789676547050476074e-01 -5.523681268095970154e-02 -1.906597055494785309e-02 7.124739885330200195e-02 -7.590162009000778198e-02 1.144584715366363525e-01 -4.234784469008445740e-02 1.004976630210876465e-01 7.486416399478912354e-02 6.203453615307807922e-02 -7.584055513143539429e-02 2.061857432126998901e-01 8.850756287574768066e-02 2.533132396638393402e-02 -1.059240400791168213e-01 -1.207830533385276794e-01 -9.301260113716125488e-02 1.896792352199554443e-01 -9.756079874932765961e-03 7.858902215957641602e-02 -1.246290951967239380e-01 -1.388466358184814453e-01 1.757008433341979980e-01 4.035529494285583496e-02 -1.452422887086868286e-01 2.485050857067108154e-01
-1.393137574195861816e-01 -4.951106011867523193e-02 1.668915152549743652e-01 1.997194886207580566e-01 -7.280781865119934082e-02 -6.112501025199890137e-02 2.976948209106922150e-02 -9.360975772142410278e-02 1.385900229215621948e-01 -6.128499284386634827e-02 -1.750708222389221191e-01 -1.215645968914031982e-01 7.600536942481994629e-02 -2.824576944112777710e-02 3.809402510523796082e-02 -9.030286967754364014e-02 1.265368908643722534e-01 7.395686954259872437e-02 5.633644759654998779e-02 -6.064635887742042542e-02 -1.241533532738685608e-01 2.171083688735961914e-01 5.621978268027305603e-02 5.683609843254089355e-02 7.908963412046432495e-02 -5.743583291769027710e-02 4.682655259966850281e-02 8.644711226224899292e-02 -2.288198024034500122e-01 -4.980048164725303650e-02 -1.092867106199264526e-01 8.042499423027038574e-02 -1.196490153670310974e-01 -1.314448714256286621e-01 -9.670707583427429199e-02 1.207806095480918884e-01 -9.136719256639480591e-02 1.070616468787193298e-01 -1.362896561622619629e-01 4.057458415627479553e-02 -1.506784558296203613e-02 1.652924567461013794e-01 1.383613348007202148e-01 -1.452879458665847778e-01 -1.444385200738906860e-01 -4.761264845728874207e-02 -3.546110913157463074e-02 -1.796627789735794067e-01 -2.496624588966369629e-01 -1.133119016885757446e-01 -1.253788769245147705e-01 7.643687725067138672e-02 7.771420478820800781e-02 -9.707566350698471069e-02 8.812245726585388184e-02 5.267872661352157593e-02 1.924368739128112793e-01 -7.285388559103012085e-02 -1.404354274272918701e-01 -1.389765888452529907e-01 -5.260232463479042053e-02 5.967236682772636414e-02 4.378591850399971008e-02 -8.697357960045337677e-03 1.155388802289962769e-01 8.936026692390441895e-02 4.856393486261367798e-02 -4.641594365239143372e-02 1.801342219114303589e-01 -4.256582260131835938e-02 -1.522088516503572464e-02 2.308404743671417236e-01 -2.754795849323272705e-01 -1.658153384923934937e-01 9.137389808893203735e-02 -4.223179444670677185e-02 1.368385106325149536e-01 -2.613599412143230438e-02 -5.078550428152084351e-02 -7.953419536352157593e-02 6.809440255165100098e-02 3.664227947592735291e-02 -4.849782958626747131e-02 -1.113573163747787476e-01 1.686721891164779663e-01 -1.168066263198852539e-01 8.108104765415191650e-02 -1.099799945950508118e-01 -1.597261428833007812e-01 -3.715383633971214294e-02 7.914421707391738892e-02 -6.258397363126277924e-03 1.502900123596191406e-01 -7.459886372089385986e-02 -5.777777731418609619e-02 -6.391240656375885010e-02 6.328289210796356201e-02 1.303104460239410400e-01 -2.144365571439266205e-03 -3.397892415523529053e-02 2.958303317427635193e-02 8.980705402791500092e-03 -9.203993529081344604e-02 -2.914264798164367676e-02 -3.252598270773887634e-02 -1.837431192398071289e-01 4.105486348271369934e-02 -6.475667003542184830e-03 -2.048255950212478638e-01
9.762347489595413208e-02 -4.541611671447753906e-02 -9.055788069963455200e-02 -4.736220091581344604e-02 1.257384270429611206e-01 -7.808313518762588501e-02 1.506972014904022217e-01 -3.115466609597206116e-02 9.511270374059677124e-02 -5.390796437859535217e-02 1.306796669960021973e-01 4.066574946045875549e-02 7.438508421182632446e-02 -3.424907103180885315e-02 -1.236521229147911072e-01 -1.131955161690711975e-01 -1.095325872302055359e-01 -5.844521149992942810e-02 -2.001705206930637360e-02 6.907626986503601074e-02 1.442095786333084106e-01 8.163999766111373901e-02 1.013562604784965515e-01 -5.169051140546798706e-02 1.435564644634723663e-02 8.023616857826709747e-03 -1.526549179106950760e-02 -1.375801265239715576e-01 -2.300443686544895172e-02 -2.516911365091800690e-02 -2.443994432687759399e-01 -1.362613141536712646e-01 1.270956099033355713e-01 7.115811854600906372e-02 -3.218649327754974365e-02 9.876294434070587158e-02 1.819768697023391724e-01 6.165467575192451477e-02 -1.582502424716949463e-01 -2.114694863557815552e-01 -1.307578235864639282e-01 2.752948738634586334e-02 -1.385856121778488159e-01 2.295792102813720703e-02 1.424448639154434204e-01 -1.756700873374938965e-02 -1.108515411615371704e-01 1.792442202568054199e-01 -3.172503784298896790e-02 2.072075605392456055e-01 1.178721338510513306e-02 -1.744437962770462036e-01 -4.085620120167732239e-02 -7.012433558702468872e-02 1.527749150991439819e-01 1.102177202701568604e-01 -4.051556810736656189e-03 -6.585319340229034424e-02 -1.211767867207527161e-01 3.361502289772033691e-02 1.774762012064456940e-02 1.453120857477188110e-01 6.299838423728942871e-03 -2.953853085637092590e-02 -2.635402046144008636e-02 1.194809526205062866e-01 -1.599240899085998535e-01 5.055867508053779602e-02 -1.743731945753097534e-01 7.275970280170440674e-02 2.349838800728321075e-02 2.843353711068630219e-02 3.065475821495056152e-02 1.457973867654800415e-01 1.771944612264633179e-01 1.790442317724227905e-01 1.460558176040649414e-01 -6.919212639331817627e-02 5.333695560693740845e-02 1.034533157944679260e-01 1.664547026157379150e-01 -6.955357640981674194e-02 -1.067683920264244080e-01 -1.022497415542602539e-01 7.379630208015441895e-02 2.283695712685585022e-02 -8.551366627216339111e-02 8.687578141689300537e-02 -5.362716689705848694e-02 1.854694038629531860e-01 -1.220805291086435318e-02 1.539616137742996216e-01 2.817864529788494110e-02 1.401810646057128906e-01 2.272712886333465576e-01 -1.025445461273193359e-01 -1.061092689633369446e-02 1.642688959836959839e-01 1.265927255153656006e-01 4.246436059474945068e-02 1.545781195163726807e-01 8.301210403442382812e-02 5.303293466567993164e-03 -1.101713813841342926e-02 2.780730719678103924e-04 7.845892012119293213e-02 8.914637379348278046e-03 3.817306831479072571e-02 4.781298339366912842e-02
-2.115842700004577637e-02 -1.430343091487884521e-01 3.919311240315437317e-02 -4.402647167444229126e-02 8.944144845008850098e-02 -1.503781080245971680e-01 -2.566589042544364929e-02 2.305348590016365051e-02 -5.707214400172233582e-02 -1.913339197635650635e-01 -1.728306561708450317e-01 1.747187525033950806e-01 -2.992823347449302673e-02 -1.216966379433870316e-02 7.695577573031187057e-03 -1.239378750324249268e-01 1.426780819892883301e-01 -5.517253652215003967e-02 1.364902853965759277e-01 -1.253624111413955688e-01 1.303262561559677124e-01 1.315571367740631104e-01 -4.990392178297042847e-02 1.573768705129623413e-01 1.268112361431121826e-01 8.060453087091445923e-02 1.096614375710487366e-01 -2.258397638797760010e-01 1.845292598009109497e-01 1.609525233507156372e-01 -1.099374592304229736e-01 1.277960371226072311e-02 -9.452266246080398560e-02 -2.569491416215896606e-02 -3.927687555551528931e-02 -6.391482800245285034e-02 1.661030203104019165e-01 -1.172909215092658997e-01 -1.307292282581329346e-01 -7.001224160194396973e-02 1.230245642364025116e-02 -1.376901119947433472e-01 1.737288981676101685e-01 -7.113671302795410156e-02 5.167400836944580078e-02 -7.446271926164627075e-02 -1.120595540851354599e-02 7.659911364316940308e-02 -6.738641858100891113e-02 1.947485208511352539e-01 1.076348349452018738e-01 4.696221277117729187e-02 4.798875376582145691e-02 9.095364063978195190e-02 -5.785395577549934387e-02 -1.516836136579513550e-01 9.010017663240432739e-02 -2.009309083223342896e-01 -6.207782775163650513e-02 -7.451220601797103882e-02 -9.171875566244125366e-02 4.431004077196121216e-02 1.349098086357116699e-01 2.433677017688751221e-02 -1.674610823392868042e-01 3.875166550278663635e-02 -6.296310573816299438e-02 -1.283066868782043457e-01 5.934307351708412170e-02 -7.929418236017227173e-02 3.393896669149398804e-02 -9.134145081043243408e-02 -9.695670567452907562e-03 -7.435738295316696167e-02 8.561182022094726562e-02 1.345487087965011597e-01 -4.036816582083702087e-02 -8.082149177789688110e-02 1.287432760000228882e-01 2.032898068428039551e-01 9.519964456558227539e-02 2.137753739953041077e-02 1.556048914790153503e-02 -1.277360767126083374e-01 6.975502520799636841e-02 -4.623576626181602478e-02 1.256503313779830933e-01 1.605731546878814697e-01 1.847600378096103668e-02 -2.805299684405326843e-02 -2.125450037419795990e-02 -9.428521245718002319e-02 -1.071559488773345947e-01 -4.182991385459899902e-02 9.252419322729110718e-02 7.419241964817047119e-02 -2.071558833122253418e-01 1.431341916322708130e-01 1.237081661820411682e-01 -1.313415449112653732e-02 6.189056485891342163e-02 1.081583350896835327e-01 4.986272659152746201e-03 -2.006372362375259399e-01 -1.403329372406005859e-01 -7.964938879013061523e-02 -1.538065820932388306e-01 -2.138713598251342773e-01 6.047543138265609741e-02
3.877530619502067566e-02 -5.975604429841041565e-02 2.373525314033031464e-02 1.631718873977661133e-02 2.964287763461470604e-03 -6.658330559730529785e-02 3.460844978690147400e-02 -2.009771764278411865e-01 -1.742926687002182007e-01 8.056429028511047363e-02 -1.505872607231140137e-01 2.714285068213939667e-02 3.491274267435073853e-02 -5.178324505686759949e-02 -3.951520472764968872e-02 9.831905364990234375e-02 -5.884413793683052063e-02 -1.982054859399795532e-02 -8.653976023197174072e-03 6.074130162596702576e-02 -4.778143391013145447e-02 -1.006446853280067444e-01 -1.440493315458297729e-01 -3.579183295369148254e-02 -1.024329885840415955e-01 -1.688435822725296021e-01 -2.189716137945652008e-02 -6.073853466659784317e-03 1.715989708900451660e-01 -9.122068434953689575e-02 -5.557010322809219360e-02 -3.473949804902076721e-02 -1.766197979450225830e-01 -1.050783619284629822e-01 4.806057550013065338e-03 -4.024277627468109131e-02 -7.723633944988250732e-02 1.602041423320770264e-01 -1.600295901298522949e-01 1.396409422159194946e-01 -1.062344089150428772e-01 -6.564672291278839111e-02 1.582029759883880615e-01 8.181342482566833496e-02 1.063907295465469360e-01 -1.051223278045654297e-02 3.152853623032569885e-02 6.512119621038436890e-02 7.806434482336044312e-02 -5.303660035133361816e-02 -7.051839958876371384e-03 -2.245606621727347374e-03 1.386245936155319214e-01 1.657428778707981110e-02 3.527867421507835388e-02 1.747131114825606346e-03 -8.839219063520431519e-02 7.278643548488616943e-02 1.779350787401199341e-01 -1.186390444636344910e-01 1.150569692254066467e-01 4.541167523711919785e-03 -6.719488650560379028e-02 1.669230908155441284e-01 -4.155017808079719543e-02 -9.357072412967681885e-02 1.210997775197029114e-01 -1.256445795297622681e-01 5.988257937133312225e-03 9.162443131208419800e-02 5.976233631372451782e-02 -1.096373237669467926e-02 -2.518959939479827881e-01 -1.657567173242568970e-01 -1.453055739402770996e-01 2.816718071699142456e-02 -1.994062960147857666e-01 1.033944264054298401e-02 -5.107569694519042969e-02 -7.649112492799758911e-02 -6.639115512371063232e-02 1.393073797225952148e-01 2.221948839724063873e-02 1.319097429513931274e-01 5.963047221302986145e-02 1.542373299598693848e-01 1.425000000745058060e-02 -2.344147711992263794e-01 9.030175954103469849e-02 -8.150306344032287598e-02 4.427048563957214355e-02 8.151561021804809570e-03 1.481123566627502441e-01 -2.520967461168766022e-02 -2.632116079330444336e-01 7.805209606885910034e-02 -2.793466299772262573e-02 -1.661137938499450684e-01 -1.324453949928283691e-01 -6.020336225628852844e-02 -1.517926901578903198e-01 -1.283617019653320312e-01 3.384234756231307983e-02 5.607319250702857971e-02 9.565585851669311523e-02 -1.218753680586814880e-01 -2.406456321477890015e-02 9.254415333271026611e-02 -3.131707385182380676e-02
-1.490569263696670532e-01 -3.096134588122367859e-02 -9.159947931766510010e-02 3.394753485918045044e-02 1.406136006116867065e-01 -1.264798492193222046e-01 -6.155694276094436646e-02 -6.201647222042083740e-02 -8.247866481542587280e-02 -7.897523045539855957e-02 -4.244289547204971313e-02 -5.902560800313949585e-02 -4.343517124652862549e-02 1.150082349777221680e-01 -1.368616819381713867e-01 -2.235281616449356079e-01 -9.228081256151199341e-02 -3.233708557672798634e-04 1.044999733567237854e-01 1.043344587087631226e-01 1.059988811612129211e-01 -3.060171194374561310e-02 -1.165725216269493103e-01 -8.732368052005767822e-02 -2.993409149348735809e-02 5.666822567582130432e-02 -1.033118516206741333e-01 1.523884534835815430e-01 -4.131220653653144836e-02 1.275358200073242188e-01 1.935484260320663452e-01 1.253969669342041016e-01 -1.427020728588104248e-01 -1.170646697282791138e-01 1.084891632199287415e-01 -1.060628220438957214e-01 1.430259495973587036e-01 1.794951707124710083e-01 9.829637408256530762e-02 1.970524638891220093e-01 -9.551488608121871948e-02 -1.651362776756286621e-01 5.849748104810714722e-02 1.753897815942764282e-01 -5.850222706794738770e-02 7.503278553485870361e-02 -1.028356403112411499e-01 -5.890416353940963745e-02 -1.740522682666778564e-01 2.982362732291221619e-02 -1.405522078275680542e-01 -1.090971529483795166e-01 -1.228238120675086975e-01 1.746007949113845825e-01 1.297992467880249023e-01 1.746014058589935303e-01 -1.314889192581176758e-01 -1.249246895313262939e-01 1.644421070814132690e-01 -1.429594755172729492e-01 1.051877960562705994e-01 1.241599097847938538e-01 -1.762650161981582642e-02 -7.691048830747604370e-02 -1.345584094524383545e-01 -6.234117597341537476e-02 -1.268985867500305176e-01 2.502285316586494446e-02 1.409247070550918579e-01 1.710020750761032104e-01 -2.608259208500385284e-02 -9.411474317312240601e-02 7.747490704059600830e-02 2.828064374625682831e-02 1.252059936523437500e-01 1.739476323127746582e-01 -5.922104790806770325e-02 1.371133476495742798e-01 2.239210344851016998e-02 -1.137170270085334778e-01 -1.149886548519134521e-01 1.335197538137435913e-01 -1.384244114160537720e-01 -1.233291625976562500e-01 -3.165374975651502609e-03 -6.113529205322265625e-02 1.202547773718833923e-01 -9.689110517501831055e-02 1.185698434710502625e-01 -1.372366398572921753e-01 -7.502408325672149658e-02 -2.106041274964809418e-02 7.185639441013336182e-02 1.207609772682189941e-01 1.669721677899360657e-02 1.708645969629287720e-01 3.527968004345893860e-02 -1.328610628843307495e-01 -1.247467547655105591e-01 -1.880658417940139771e-01 -1.763117164373397827e-01 -9.491963684558868408e-02 -5.666110664606094360e-02 -8.225497603416442871e-02 1.052806600928306580e-01 7.714595645666122437e-02 1.128263548016548157e-01 -1.181336585432291031e-02 4.434388130903244019e-02
-3.795089572668075562e-02 9.667934849858283997e-03 -3.086159471422433853e-03 -8.812578767538070679e-02 1.147459447383880615e-01 5.849421024322509766e-02 9.277828782796859741e-02 -6.200985237956047058e-02 4.030106216669082642e-02 4.976106807589530945e-02 8.067256957292556763e-02 -8.546740561723709106e-02 -2.795884152874350548e-03 1.254225373268127441e-01 -1.879962235689163208e-01 -1.366075873374938965e-01 -1.038214936852455139e-01 9.423421323299407959e-02 -2.138649225234985352e-01 5.216666311025619507e-02 -1.666242778301239014e-01 -8.215036243200302124e-02 -6.920863687992095947e-02 -3.497096523642539978e-02 1.529906243085861206e-01 8.921118080615997314e-02 -2.006838321685791016e-01 -2.667105942964553833e-02 1.056823059916496277e-01 1.197799742221832275e-01 -5.625823512673377991e-02 -9.251014888286590576e-02 -6.251397728919982910e-02 -1.050973078235983849e-03 6.482908874750137329e-02 1.946550048887729645e-02 -7.823977619409561157e-02 1.317715346813201904e-01 2.064202539622783661e-02 -5.059367045760154724e-02 -5.323679000139236450e-02 1.090122610330581665e-01 -9.113949537277221680e-02 2.507501281797885895e-02 -6.676856428384780884e-02 -1.469431966543197632e-01 -7.736182957887649536e-02 -1.368640661239624023e-01 -8.224530518054962158e-02 -6.222560629248619080e-02 -2.219998463988304138e-02 1.038045585155487061e-01 -1.154222562909126282e-01 1.950567215681076050e-02 -2.608239464461803436e-02 7.297153025865554810e-02 1.152190342545509338e-01 -9.325201809406280518e-02 8.710724115371704102e-02 -4.665771126747131348e-02 5.491237714886665344e-02 1.431545801460742950e-02 1.067540943622589111e-01 -5.047276988625526428e-02 -7.391204684972763062e-02 -7.877039164304733276e-02 -9.927695244550704956e-02 -1.336651295423507690e-01 1.087577175348997116e-02 1.439300328493118286e-01 -2.914644964039325714e-02 -2.384530156850814819e-01 -2.230101525783538818e-01 4.365152120590209961e-02 -5.851273238658905029e-02 6.388287246227264404e-02 -7.689127326011657715e-02 7.139229029417037964e-02 5.695273727178573608e-02 -1.425902396440505981e-01 7.089805603027343750e-02 -1.049719005823135376e-01 9.118842333555221558e-02 6.839168071746826172e-02 1.273041516542434692e-01 -1.092295125126838684e-01 5.478165298700332642e-02 -1.588108986616134644e-01 -3.456375375390052795e-02 1.920709572732448578e-02 5.669016018509864807e-02 -1.546082049608230591e-01 9.050623327493667603e-02 2.873004972934722900e-02 -2.083052396774291992e-01 -1.717822998762130737e-02 8.726368844509124756e-02 -1.651542335748672485e-01 -9.320537000894546509e-02 -3.296653972938656807e-03 4.137650877237319946e-02 -1.941440976224839687e-03 -8.564037829637527466e-02 -1.236183941364288330e-01 1.365135014057159424e-01 -1.435535401105880737e-01 8.479057252407073975e-02 -1.743602193892002106e-02 -1.250735074281692505e-01
5.700875073671340942e-02 3.771464899182319641e-02 1.134173721075057983e-01 2.126254886388778687e-01 1.056361123919487000e-01 -1.378427911549806595e-02 7.778232544660568237e-02 -3.480054065585136414e-02 3.219265490770339966e-02 1.414153724908828735e-01 -3.659853711724281311e-02 -1.305369287729263306e-01 7.167253643274307251e-02 8.577702194452285767e-02 1.037073582410812378e-01 -1.561326384544372559e-01 -1.011188775300979614e-01 -9.749626368284225464e-02 -3.274752572178840637e-02 1.097190156579017639e-01 -1.114469841122627258e-01 -2.049032598733901978e-02 -7.713752985000610352e-02 -3.041570261120796204e-02 5.909464880824089050e-02 8.353208005428314209e-02 -4.688567668199539185e-02 6.023105606436729431e-02 2.725395001471042633e-02 -2.167312242090702057e-02 -2.270840108394622803e-01 -7.004283368587493896e-02 1.271963566541671753e-01 -2.105562388896942139e-02 4.433208703994750977e-02 1.865288019180297852e-01 -1.075615435838699341e-01 1.094996780157089233e-01 -1.213603913784027100e-01 1.780616044998168945e-01 1.237004548311233521e-01 4.792265594005584717e-02 1.050737723708152771e-01 -3.178801620379090309e-03 2.116138674318790436e-02 -1.031914502382278442e-01 -1.762903034687042236e-01 -1.080726906657218933e-01 1.380874514579772949e-01 -1.373806148767471313e-01 1.379773318767547607e-01 -2.237963257357478142e-03 -1.529245674610137939e-01 -8.386460691690444946e-02 1.416333913803100586e-01 -5.039555206894874573e-02 1.862664520740509033e-01 -1.435340791940689087e-01 -1.749537587165832520e-01 2.417322481051087379e-03 5.186085030436515808e-02 1.664023287594318390e-02 1.623429656028747559e-01 -6.885286420583724976e-02 -8.607169985771179199e-02 9.232626296579837799e-03 1.407677587121725082e-02 -8.215463161468505859e-02 7.044724375009536743e-02 1.249789446592330933e-02 1.689662635326385498e-01 -1.241726451553404331e-03 -1.117941439151763916e-01 -1.410409659147262573e-01 1.251956373453140259e-01 -1.303792446851730347e-01 3.053329885005950928e-02 1.541685662232339382e-03 -5.806826055049896240e-02 -3.887460380792617798e-02 7.760690059512853622e-03 1.058301627635955811e-01 1.018912419676780701e-01 7.788430154323577881e-02 6.298873573541641235e-02 -1.510204970836639404e-01 8.958659321069717407e-02 -1.734255701303482056e-01 3.945544362068176270e-02 3.501259535551071167e-02 -3.361191600561141968e-02 9.289617091417312622e-02 1.072714105248451233e-01 1.048963218927383423e-01 3.482682257890701294e-02 5.849885195493698120e-02 -1.429370045661926270e-01 -1.140899211168289185e-01 8.450824767351150513e-02 1.209302246570587158e-01 8.456944674253463745e-02 -1.459034234285354614e-01 -9.719397127628326416e-02 -1.801201552152633667e-01 -2.066972851753234863e-02 -9.520214051008224487e-02 -3.123177029192447662e-02 5.449005216360092163e-02 5.270495265722274780e-02
3.313331305980682373e-02 4.730490595102310181e-02 6.881552189588546753e-02 1.785222589969635010e-01 -1.004612222313880920e-01 1.455816030502319336e-01 3.289684280753135681e-02 -1.350524127483367920e-01 -7.627863436937332153e-02 -6.628389656543731689e-02 4.134902358055114746e-02 -9.578374773263931274e-02 -9.328950941562652588e-02 1.349302232265472412e-01 -1.612688452005386353e-01 1.664447337388992310e-01 5.336128640919923782e-03 -1.124604884535074234e-02 -1.182138398289680481e-01 3.094987012445926666e-02 -3.555105999112129211e-02 4.767479375004768372e-02 1.179677620530128479e-01 6.535180658102035522e-02 -5.175613611936569214e-02 -9.959310293197631836e-02 -1.784518659114837646e-01 1.984069943428039551e-01 -7.006579637527465820e-02 -1.305344402790069580e-01 1.908963024616241455e-01 -3.144510090351104736e-02 2.572164870798587799e-02 -5.883715115487575531e-03 1.245472133159637451e-01 1.511283814907073975e-01 -1.716310679912567139e-01 -7.403995096683502197e-02 7.837779819965362549e-03 1.921749413013458252e-01 -1.283175349235534668e-01 1.091756895184516907e-01 -1.047380045056343079e-01 9.665384888648986816e-02 -7.721196115016937256e-02 -9.703385084867477417e-02 -4.061066731810569763e-02 -6.425160169601440430e-02 -1.954779773950576782e-02 -2.100425511598587036e-01 1.981469839811325073e-01 -2.097523212432861328e-02 1.331652700901031494e-01 1.008437499403953552e-01 1.768606342375278473e-02 -6.271884590387344360e-02 -1.185144484043121338e-01 8.226898312568664551e-02 -7.452843338251113892e-02 5.490107089281082153e-02 1.123746037483215332e-01 -5.774526670575141907e-02 -1.022671014070510864e-01 -1.823281794786453247e-01 -1.748023331165313721e-01 7.843890786170959473e-02 3.442776575684547424e-02 5.513937026262283325e-02 6.292818114161491394e-03 1.398998498916625977e-01 -4.692780971527099609e-02 1.704834699630737305e-01 -9.211228787899017334e-02 -1.815420389175415039e-01 -1.891635209321975708e-01 9.028699994087219238e-02 -1.300962828099727631e-02 1.375610828399658203e-01 -1.661249995231628418e-01 -1.212169453501701355e-01 -1.230018436908721924e-01 8.299203962087631226e-02 6.641748547554016113e-02 -4.315719753503799438e-02 -1.567624695599079132e-02 5.162789300084114075e-02 -5.964612215757369995e-02 -1.030464693903923035e-01 -1.646470427513122559e-01 -1.094978079199790955e-01 -1.467234045267105103e-01 7.234635204076766968e-02 8.429677784442901611e-02 -4.095065593719482422e-02 -1.694085150957107544e-01 -9.385343641042709351e-02 1.697741895914077759e-01 -9.648003429174423218e-02 9.518372267484664917e-02 -6.207477301359176636e-02 1.478964239358901978e-01 -1.083330512046813965e-01 2.929052803665399551e-03 -2.310130372643470764e-02 3.147245571017265320e-02 -2.446996979415416718e-02 6.079435348510742188e-02 -8.145448565483093262e-02 -5.274795740842819214e-02
9.295526146888732910e-02 -1.495917979627847672e-02 -1.142694726586341858e-01 -1.793419569730758667e-01 -1.040598154067993164e-01 -3.565868362784385681e-02 1.335303634405136108e-01 1.458804123103618622e-02 -8.474671840667724609e-02 1.186072975397109985e-01 -2.348411642014980316e-02 1.066565811634063721e-01 1.666593104600906372e-01 1.773390173912048340e-02 7.211292535066604614e-02 1.016331225400790572e-04 4.456976428627967834e-02 1.056685894727706909e-01 -1.454901248216629028e-01 -3.491975739598274231e-02 1.334669291973114014e-01 7.116437703371047974e-02 -1.052158847451210022e-01 -1.868399605154991150e-02 -1.143131628632545471e-01 4.469400271773338318e-02 1.526708751916885376e-01 1.413734555244445801e-01 8.841509371995925903e-02 -7.438453380018472672e-03 -8.586613088846206665e-02 7.241676002740859985e-02 -1.350399553775787354e-01 2.721170149743556976e-02 1.567817181348800659e-01 -1.057896949350833893e-02 5.620905756950378418e-02 5.694842711091041565e-02 -1.237914338707923889e-01 -6.750012747943401337e-03 -1.205273717641830444e-01 -5.641086027026176453e-02 -1.471373951062560081e-03 -1.218725442886352539e-01 3.749034553766250610e-02 5.560797080397605896e-02 1.576326638460159302e-01 -7.455006241798400879e-02 -4.459447413682937622e-02 -1.281888037919998169e-01 -1.767402291297912598e-01 1.272014379501342773e-01 8.401189744472503662e-02 -1.396855264902114868e-01 1.029099598526954651e-01 -5.857149511575698853e-02 -8.782498538494110107e-02 -1.240493077784776688e-02 -2.982589602470397949e-02 -1.609505340456962585e-02 -1.885457187891006470e-01 1.423407346010208130e-01 5.608373880386352539e-02 1.132580861449241638e-01 1.448767334222793579e-01 1.335542649030685425e-02 1.163802668452262878e-01 1.380027458071708679e-02 -7.226058095693588257e-02 -3.270542621612548828e-02 5.071948748081922531e-03 -2.883758246898651123e-01 2.314649373292922974e-01 -1.188037842512130737e-01 6.839786190539598465e-03 3.452372923493385315e-02 8.682291954755783081e-02 -1.504455357789993286e-01 -1.487793028354644775e-01 -1.993761956691741943e-01 -1.894063316285610199e-03 -1.055879890918731689e-01 1.043858453631401062e-01 1.180709078907966614e-01 -4.846962541341781616e-02 -7.477914541959762573e-02 -1.043204367160797119e-01 1.348285228013992310e-01 9.704443626105785370e-03 3.007385134696960449e-02 -1.214672178030014038e-01 -1.705966144800186157e-01 1.286884769797325134e-02 -7.164200395345687866e-02 -2.377644740045070648e-02 -1.203441247344017029e-01 1.441648453474044800e-01 5.353481322526931763e-02 -1.206592991948127747e-01 -1.627493649721145630e-01 -1.669470518827438354e-01 -1.442348361015319824e-01 4.402776062488555908e-02 7.818248122930526733e-03 1.869823969900608063e-02 -1.145493015646934509e-01 -5.594460666179656982e-02 9.288611263036727905e-02 -1.182131990790367126e-01
1.362182646989822388e-01 8.391232788562774658e-02 -8.990295976400375366e-02 -1.511545628309249878e-01 -3.253893181681632996e-02 2.231855317950248718e-02 1.741274148225784302e-01 5.211602151393890381e-02 1.194206997752189636e-01 1.315020173788070679e-01 5.214851349592208862e-02 2.166625559329986572e-01 -1.169242709875106812e-01 -1.665233448147773743e-02 1.029417961835861206e-01 1.777798086404800415e-01 1.043339893221855164e-01 6.979415565729141235e-02 -7.128559798002243042e-02 1.314219981431961060e-01 1.450287699699401855e-01 -8.137582242488861084e-02 -2.436120761558413506e-03 5.702080205082893372e-02 4.785589501261711121e-02 1.023404374718666077e-01 1.074281558394432068e-01 1.719913631677627563e-01 1.253695785999298096e-01 5.589583143591880798e-02 2.721139192581176758e-01 -4.864431545138359070e-02 3.467476926743984222e-03 -1.171529758721590042e-02 1.584526896476745605e-01 -1.434710174798965454e-01 1.361637264490127563e-01 1.614480018615722656e-01 -4.764196928590536118e-03 1.637029577977955341e-03 5.024408176541328430e-02 9.013234078884124756e-02 -2.285296656191349030e-02 1.176715791225433350e-01 2.730197086930274963e-02 2.855078317224979401e-02 1.289137452840805054e-01 1.447086483240127563e-01 1.687095165252685547e-01 2.229724377393722534e-01 -1.133377552032470703e-01 1.206617504358291626e-01 -1.623992174863815308e-01 1.642008572816848755e-01 7.634238898754119873e-02 -1.146941706538200378e-01 -7.848992198705673218e-02 3.482109308242797852e-02 -1.251263730227947235e-02 5.497717484831809998e-02 1.828140392899513245e-02 -6.516967713832855225e-02 4.386844858527183533e-02 -2.117297612130641937e-02 -6.589020788669586182e-02 2.053343132138252258e-02 1.884657330811023712e-02 1.212960779666900635e-01 -1.802803426980972290e-01 1.929088979959487915e-01 9.654649347066879272e-02 -2.945840358734130859e-02 2.331161797046661377e-01 1.452430784702301025e-01 1.744069606065750122e-01 1.470790952444076538e-01 2.358092740178108215e-02 -4.321129247546195984e-02 6.699945032596588135e-02 4.582185298204421997e-02 4.828324168920516968e-02 -1.195086762309074402e-01 -9.477904066443443298e-03 1.682618558406829834e-01 -7.832375913858413696e-02 -7.489308714866638184e-02 -8.212750405073165894e-02 8.392351865768432617e-02 -3.442014381289482117e-02 1.449167281389236450e-01 -4.190653190016746521e-02 -2.601397596299648285e-02 -2.378792501986026764e-02 1.464141905307769775e-01 9.278436005115509033e-02 -5.345560610294342041e-02 2.455528266727924347e-02 -1.162121891975402832e-01 9.619420021772384644e-02 -5.027466267347335815e-02 -1.397328674793243408e-01 -3.122149594128131866e-02 -8.557640761137008667e-02 -3.624777868390083313e-02 -1.696830056607723236e-02 -1.170123443007469177e-01 -3.514172509312629700e-02 -1.006568670272827148e-01 1.885908097028732300e-01
-1.292624175548553467e-01 -1.432616822421550751e-02 -7.852035015821456909e-02 -2.444478496909141541e-02 1.447558254003524780e-01 -4.859358072280883789e-02 -1.528158187866210938e-01 -1.135705262422561646e-01 1.798567324876785278e-01 1.611726172268390656e-02 6.381435692310333252e-02 3.378570079803466797e-02 1.235966309905052185e-01 -8.558920770883560181e-02 -4.756399989128112793e-02 -3.348831087350845337e-03 1.969282515347003937e-02 2.430109530687332153e-01 -9.420064091682434082e-02 -1.454527527093887329e-01 -1.496628224849700928e-01 -6.778113543987274170e-02 -7.474976032972335815e-02 -7.092470675706863403e-02 -4.557001963257789612e-02 2.081711404025554657e-02 1.433092448860406876e-02 3.195396438241004944e-02 -1.517973095178604126e-01 -1.311700344085693359e-01 4.237949550151824951e-01 5.844093859195709229e-02 -1.709683686494827271e-01 7.840083539485931396e-02 3.715690970420837402e-02 -1.294445246458053589e-01 8.732054382562637329e-02 1.859817951917648315e-01 -5.171619728207588196e-02 -9.672527015209197998e-02 -7.657343149185180664e-02 1.513181328773498535e-01 1.413132548332214355e-01 -1.991336792707443237e-02 -3.489760309457778931e-02 5.634047091007232666e-02 -7.061854749917984009e-02 -2.566022984683513641e-02 -1.893501169979572296e-02 -1.750799566507339478e-01 -6.192300468683242798e-02 1.781487278640270233e-02 -1.252631843090057373e-01 7.655781507492065430e-02 -7.151028513908386230e-02 -1.648628115653991699e-01 1.839977949857711792e-01 3.567838296294212341e-02 1.529311835765838623e-01 -9.931537508964538574e-02 1.228047087788581848e-01 -3.676452487707138062e-02 -1.318340599536895752e-01 -2.129997685551643372e-02 1.017633974552154541e-01 9.089446067810058594e-02 -1.480011194944381714e-01 1.471487283706665039e-01 -1.169035285711288452e-01 8.908876776695251465e-02 4.881130158901214600e-02 -7.022149860858917236e-03 -2.277848124504089355e-02 -1.570874750614166260e-01 6.205479800701141357e-02 -1.294738650321960449e-01 1.459782421588897705e-01 -9.262331575155258179e-02 2.938754856586456299e-02 3.526536375284194946e-02 -4.514227807521820068e-02 6.737172603607177734e-02 6.751400977373123169e-02 -2.087834663689136505e-02 3.101164847612380981e-02 1.626550555229187012e-01 -1.185392066836357117e-01 2.158215828239917755e-02 -1.499793119728565216e-02 -1.391825079917907715e-01 5.334436520934104919e-02 -4.012482240796089172e-02 5.726654827594757080e-02 6.723821163177490234e-02 3.285130113363265991e-02 3.993402794003486633e-02 2.456567138433456421e-01 1.095266044139862061e-01 -1.229740083217620850e-01 -1.146395131945610046e-01 -1.427658051252365112e-01 6.465779989957809448e-02 -1.305581629276275635e-01 -2.289686538279056549e-02 4.251938685774803162e-02 -1.079099718481302261e-02 -6.052746903151273727e-03 -6.028370931744575500e-02 4.485042765736579895e-03
3.148336894810199738e-03 -8.862052112817764282e-02 -5.212369188666343689e-02 1.425758451223373413e-01 1.862736195325851440e-01 -1.701989620923995972e-01 -3.605376183986663818e-02 1.189476847648620605e-01 -5.264481157064437866e-02 -3.611004725098609924e-02 1.615223139524459839e-01 5.099232122302055359e-02 -1.340171694755554199e-01 3.998187184333801270e-02 -1.483952105045318604e-01 9.040286391973495483e-02 5.081324651837348938e-02 -3.494851663708686829e-02 -4.319324716925621033e-02 6.888592988252639771e-02 -3.263400495052337646e-02 1.252384390681982040e-02 1.053704991936683655e-01 1.128055807203054428e-02 -7.466273009777069092e-02 1.227687001228332520e-01 -1.891648024320602417e-01 2.211594581604003906e-02 8.819375932216644287e-02 1.014222875237464905e-01 1.255613714456558228e-01 1.549617201089859009e-01 4.294941201806068420e-02 6.025408580899238586e-02 1.666851341724395752e-01 -1.007607430219650269e-01 -2.513502165675163269e-02 1.509523838758468628e-01 -1.032057702541351318e-01 -1.941592618823051453e-02 1.851360797882080078e-01 -9.351842105388641357e-02 2.132001705467700958e-02 5.379276722669601440e-02 6.464854814112186432e-03 1.865395009517669678e-01 7.290188968181610107e-02 -6.479530781507492065e-02 2.875671386718750000e-01 7.866226881742477417e-02 -5.368823930621147156e-02 -8.327563852071762085e-02 -1.094790697097778320e-01 -4.066457599401473999e-02 1.269152760505676270e-01 -9.662074595689773560e-02 1.246181279420852661e-01 -1.089991927146911621e-01 -6.361698359251022339e-02 -1.279496103525161743e-01 7.624670118093490601e-02 -9.444549679756164551e-02 2.184340730309486389e-02 -4.605900868773460388e-02 -9.969644248485565186e-02 -1.467392444610595703e-01 -4.078930243849754333e-02 7.119771093130111694e-03 -1.223655045032501221e-01 -3.140836209058761597e-02 2.647237852215766907e-03 4.942724853754043579e-02 5.215313285589218140e-02 -2.199105732142925262e-02 -3.980825468897819519e-02 -1.520653534680604935e-02 2.133263275027275085e-02 -3.930738940834999084e-02 -7.784953806549310684e-03 -2.358781248331069946e-01 -9.462143480777740479e-02 -6.815742701292037964e-02 -5.231566727161407471e-02 1.200847402215003967e-01 6.848737597465515137e-02 8.598197251558303833e-02 -5.595058575272560120e-02 -1.131610199809074402e-01 -7.204496860504150391e-02 9.499122388660907745e-04 1.127252727746963501e-01 -3.780731186270713806e-02 -4.380114004015922546e-02 -1.072576493024826050e-01 2.432012930512428284e-03 5.068203806877136230e-02 1.166710034012794495e-01 5.870621651411056519e-02 1.000822931528091431e-01 -2.299212850630283356e-02 -9.390037506818771362e-02 1.222502738237380981e-01 6.946497410535812378e-02 1.625008136034011841e-01 -3.549530729651451111e-02 -1.234355866909027100e-01 -9.273340692743659019e-04 1.599446088075637817e-01 -2.506996691226959229e-01
-1.399517804384231567e-02 -5.863873288035392761e-02 1.051943972706794739e-01 -1.472078412771224976e-01 -1.850274950265884399e-01 1.077008470892906189e-01 3.187683969736099243e-02 1.677597500383853912e-02 7.479412853717803955e-02 -7.944469898939132690e-02 -8.445835113525390625e-02 9.091023355722427368e-02 8.055617660284042358e-02 -7.595837116241455078e-03 -6.249024346470832825e-02 1.864117756485939026e-02 -1.094521209597587585e-01 -1.654947698116302490e-01 4.471354559063911438e-02 -1.201507002115249634e-01 7.906460016965866089e-02 -2.727826824411749840e-03 -3.235255554318428040e-02 3.083441965281963348e-02 -3.758101537823677063e-02 6.961683183908462524e-02 8.300708606839179993e-03 1.704003848135471344e-02 -1.831441968679428101e-01 7.638356834650039673e-02 -2.134747356176376343e-01 -5.019035935401916504e-02 -6.603073328733444214e-02 9.366853535175323486e-02 1.557675004005432129e-01 -1.329236924648284912e-01 -1.110083656385540962e-03 -1.677217185497283936e-01 1.175723001360893250e-01 6.714871525764465332e-02 -1.135609745979309082e-01 4.108177125453948975e-02 1.989017426967620850e-02 1.382451504468917847e-01 -1.178430318832397461e-01 -1.075240820646286011e-01 -1.106240302324295044e-01 -3.142327070236206055e-02 -1.363166719675064087e-01 9.673973917961120605e-02 -4.271335154771804810e-02 1.276152729988098145e-01 -9.785807691514492035e-03 -1.696653664112091064e-01 -6.018652766942977905e-02 1.526509784162044525e-02 -1.146459728479385376e-01 1.066603697836399078e-02 -1.886319220066070557e-01 9.196681529283523560e-02 6.875947117805480957e-02 1.178044900298118591e-01 -1.509007066488265991e-01 5.456018820405006409e-02 1.557380110025405884e-01 1.226819232106208801e-01 -7.032362371683120728e-02 1.245391815900802612e-01 4.049852956086397171e-03 -3.784788399934768677e-02 6.279068440198898315e-02 -4.004222899675369263e-02 -1.343467384576797485e-01 -5.078761279582977295e-02 8.886934071779251099e-02 3.116317326202988625e-03 1.802219450473785400e-01 -2.443921379745006561e-02 5.820664763450622559e-02 2.837280631065368652e-01 -1.055759787559509277e-01 -2.578274905681610107e-02 1.697704195976257324e-01 -2.254041433334350586e-01 1.199178844690322876e-01 -8.564155548810958862e-02 -6.226563826203346252e-02 6.991042289882898331e-03 -5.777348298579454422e-03 1.666577309370040894e-01 -1.192957460880279541e-01 -1.115288957953453064e-01 -1.954520344734191895e-01 -1.318097114562988281e-01 -5.598398391157388687e-03 5.750821903347969055e-02 -2.004131823778152466e-01 -1.179806068539619446e-01 7.064594328403472900e-02 8.034513890743255615e-02 2.092048078775405884e-01 -5.116830766201019287e-02 6.728945299983024597e-03 -9.837927669286727905e-02 -1.669299602508544922e-01 1.568786650896072388e-01 7.126971334218978882e-02 4.721459373831748962e-02 -1.573190540075302124e-01
-1.145853847265243530e-02 6.110708229243755341e-03 -4.722687881439924240e-03 -1.154790148138999939e-01 5.379245057702064514e-02 6.290084868669509888e-02 5.730952601879835129e-03 5.055033415555953979e-02 -1.109974309802055359e-01 7.871004194021224976e-02 6.798925995826721191e-02 5.609676986932754517e-02 1.964237689971923828e-01 8.961544372141361237e-03 -8.907034248113632202e-02 -6.688476353883743286e-02 -1.211609169840812683e-01 1.777531206607818604e-01 1.121272444725036621e-01 4.751018807291984558e-02 -1.155685335397720337e-01 7.666760683059692383e-02 1.440071165561676025e-01 1.110069733113050461e-02 -1.140785887837409973e-01 -6.828545778989791870e-02 -1.574740111827850342e-01 9.742926806211471558e-02 2.667427062988281250e-01 -7.878583669662475586e-02 2.299321591854095459e-01 1.380099356174468994e-01 7.328552752733230591e-02 1.556736081838607788e-01 1.486266255378723145e-01 1.239833328872919083e-02 1.304441243410110474e-01 1.770649850368499756e-01 -1.477288752794265747e-01 -4.311162233352661133e-02 1.164751779288053513e-02 -1.316483020782470703e-01 -9.045436233282089233e-02 -1.476442627608776093e-02 -8.922057598829269409e-02 2.137932553887367249e-02 1.103400886058807373e-01 -1.206243261694908142e-01 -3.393056988716125488e-02 1.630354374647140503e-01 1.091274842619895935e-01 -1.255178898572921753e-01 -3.537683561444282532e-02 -3.213980793952941895e-02 -6.824572384357452393e-02 -8.846000581979751587e-02 -4.601801186800003052e-02 3.052728995680809021e-02 1.367229372262954712e-01 1.374668255448341370e-02 -4.487536102533340454e-02 -1.213430017232894897e-01 -6.992132216691970825e-02 2.982662059366703033e-02 -2.790267020463943481e-02 6.095034256577491760e-02 -9.026733040809631348e-02 -1.023903861641883850e-01 -9.774529188871383667e-02 4.949729517102241516e-02 4.492249712347984314e-02 -1.515993624925613403e-01 -7.297103852033615112e-02 1.401765942573547363e-01 -7.628405839204788208e-02 1.478050649166107178e-01 -1.012592241168022156e-01 -1.588935963809490204e-02 -6.938631832599639893e-02 5.958992242813110352e-02 -5.892764404416084290e-02 -8.614390343427658081e-02 -1.938202232122421265e-02 1.748288124799728394e-01 -1.120578944683074951e-01 8.200887590646743774e-02 6.032076105475425720e-02 1.996828615665435791e-01 -2.130022039636969566e-03 -1.268715113401412964e-01 7.014695554971694946e-02 -5.303664878010749817e-02 -9.928804822266101837e-03 -1.015188843011856079e-01 9.439051151275634766e-02 1.382503192871809006e-02 2.160065025091171265e-01 5.162035301327705383e-02 -1.032160148024559021e-01 -4.117796942591667175e-02 -1.576108932495117188e-01 -9.566683322191238403e-02 9.062479436397552490e-02 -8.858264982700347900e-02 -7.710936665534973145e-02 1.128949876874685287e-02 -1.018206924200057983e-01 7.397436350584030151e-02 2.310135364532470703e-01
1.680758297443389893e-01 2.037084847688674927e-01 4.979840293526649475e-02 2.909102663397789001e-02 1.170117594301700592e-02 -9.753794968128204346e-02 9.368640184402465820e-02 6.251984834671020508e-02 3.766237199306488037e-02 9.050149470567703247e-02 1.496045440435409546e-01 2.939280308783054352e-02 1.090294867753982544e-01 -1.640447415411472321e-03 -1.100132763385772705e-01 -1.526184231042861938e-01 -4.110146313905715942e-02 1.316372901201248169e-01 1.162690892815589905e-01 -9.270739555358886719e-02 -1.040227785706520081e-01 -2.311407029628753662e-02 -1.559727638959884644e-01 5.159404128789901733e-02 1.100363489240407944e-02 -3.295639157295227051e-02 -9.371120482683181763e-02 1.266389787197113037e-01 -1.102694869041442871e-01 1.167571470141410828e-01 5.976549983024597168e-01 1.083397213369607925e-02 -6.811336427927017212e-02 -1.188938468694686890e-01 -1.281374990940093994e-01 -4.992535710334777832e-02 1.506010591983795166e-01 -1.046773418784141541e-01 -1.466595276724547148e-04 1.681899130344390869e-01 -4.220717400312423706e-02 -1.580973528325557709e-02 -7.246847450733184814e-02 -7.785902917385101318e-02 -1.256742924451828003e-01 -6.025848910212516785e-02 -4.434603825211524963e-02 -1.150147803127765656e-02 1.671475619077682495e-01 2.693049013614654541e-01 1.268884688615798950e-01 -1.147927567362785339e-01 -6.892391294240951538e-02 -8.594854921102523804e-02 1.048115789890289307e-01 -1.097687333822250366e-01 -8.902592211961746216e-02 -4.157821089029312134e-02 1.439760327339172363e-01 9.297708421945571899e-02 9.950953722000122070e-02 -7.902671396732330322e-02 7.913011312484741211e-02 1.274244785308837891e-01 -1.762961596250534058e-02 1.340348087251186371e-02 4.175753518939018250e-02 -9.939258545637130737e-02 8.336963504552841187e-02 2.334222048521041870e-01 -3.512774407863616943e-02 1.563032343983650208e-02 1.673199236392974854e-01 1.324819028377532959e-01 -1.494129598140716553e-01 9.317143261432647705e-02 1.335973292589187622e-01 -8.279179781675338745e-02 -1.513393223285675049e-01 -1.918157041072845459e-01 2.659571357071399689e-02 -5.397873371839523315e-02 7.042406499385833740e-02 1.806575208902359009e-01 9.643531590700149536e-02 2.213833481073379517e-01 1.013776883482933044e-01 3.533210605382919312e-02 -2.231441624462604523e-02 1.313365995883941650e-01 8.304174989461898804e-02 -9.840007126331329346e-02 2.193471044301986694e-01 1.953247040510177612e-01 1.387923359870910645e-01 1.011538133025169373e-01 1.842230260372161865e-01 -1.055560111999511719e-01 -1.714018918573856354e-02 2.146083116531372070e-02 -1.877976059913635254e-01 8.152122050523757935e-02 4.505690932273864746e-02 -5.396265536546707153e-02 1.735001653432846069e-01 6.320405518636107445e-04 -9.112926572561264038e-02 1.883404850959777832e-01 1.999338120222091675e-01
4.986744746565818787e-02 -1.079064831137657166e-01 3.837168961763381958e-02 -1.056985482573509216e-01 -1.992126554250717163e-01 -1.606271415948867798e-01 9.124314039945602417e-02 -2.270633727312088013e-02 9.400863945484161377e-02 -1.567373275756835938e-01 -6.333813071250915527e-02 -2.169000655412673950e-01 1.300499588251113892e-02 1.485326141119003296e-01 -8.877956867218017578e-02 -1.876426935195922852e-01 8.213968575000762939e-02 -2.068448998034000397e-02 -1.376685202121734619e-01 3.015265800058841705e-02 -1.155235692858695984e-01 -5.742199718952178955e-02 -7.560146600008010864e-02 -4.403677955269813538e-02 1.115342378616333008e-01 -1.420207470655441284e-01 -6.780585646629333496e-02 4.734028875827789307e-02 6.151265650987625122e-02 1.084561124444007874e-01 -5.989530086517333984e-01 -1.947637647390365601e-01 9.068125486373901367e-02 -6.165178492665290833e-02 -6.387878954410552979e-02 -1.498708277940750122e-01 3.280648589134216309e-02 -8.084975183010101318e-03 1.586663126945495605e-01 1.749699562788009644e-01 -3.088946826756000519e-02 -7.065518200397491455e-02 -1.072305068373680115e-01 -1.581275910139083862e-01 -8.819761872291564941e-02 6.166918203234672546e-02 -9.692766517400741577e-02 8.786959946155548096e-02 -9.368855506181716919e-02 -2.285110652446746826e-01 -7.185688614845275879e-02 -1.004749014973640442e-01 -4.889504238963127136e-02 7.571659982204437256e-02 5.221591889858245850e-02 -5.411120504140853882e-02 2.828325331211090088e-02 -1.752228885889053345e-01 -1.756582111120223999e-01 3.375525027513504028e-02 1.047290638089179993e-01 -1.557068247348070145e-02 -1.287886649370193481e-01 -9.094072133302688599e-02 -5.946983024477958679e-02 1.019790098071098328e-01 2.363964170217514038e-02 -1.090997979044914246e-01 -8.475240319967269897e-02 6.627368181943893433e-02 2.063640952110290527e-02 5.499168485403060913e-02 -2.195635437965393066e-01 2.396967634558677673e-02 -1.540310382843017578e-01 -9.794781357049942017e-02 5.922262091189622879e-03 7.516760379076004028e-02 1.171902492642402649e-01 9.830179065465927124e-02 -8.739283680915832520e-02 -1.390917133539915085e-02 -1.031901128590106964e-02 -5.472193658351898193e-02 1.587188988924026489e-01 -4.037600010633468628e-02 -2.204394666478037834e-03 -1.174080669879913330e-01 9.435905516147613525e-02 6.258115917444229126e-02 -8.958473056554794312e-02 1.423546206206083298e-02 -1.568168215453624725e-02 -1.321457140147686005e-02 -2.314076572656631470e-01 3.895597532391548157e-02 -1.746398210525512695e-01 -1.680856347084045410e-01 3.444817662239074707e-02 2.372019141912460327e-01 -7.423829287290573120e-02 -1.496830284595489502e-01 1.488528549671173096e-01 -1.544105857610702515e-01 1.114353835582733154e-01 8.947006613016128540e-02 -2.015421399846673012e-03 8.837462216615676880e-02 -1.756158620119094849e-01
-8.150296658277511597e-02 1.572699993848800659e-01 -4.342722520232200623e-02 1.430937498807907104e-01 -2.968506142497062683e-02 -3.740946948528289795e-02 -4.558207094669342041e-02 3.806227073073387146e-02 6.147705763578414917e-02 -5.241062864661216736e-02 -1.447407305240631104e-01 5.880936235189437866e-02 -1.071334034204483032e-01 2.318194694817066193e-02 -2.527229860424995422e-02 -1.369437854737043381e-02 3.669518744572997093e-03 3.058322938159108162e-03 7.730539143085479736e-02 1.296885162591934204e-01 -1.727392673492431641e-01 1.788379848003387451e-01 -3.816920891404151917e-02 -1.654578559100627899e-02 8.977249264717102051e-02 6.207025144249200821e-03 -9.788408875465393066e-02 -1.103827357292175293e-01 1.180979087948799133e-01 -1.975194178521633148e-02 -9.073305875062942505e-02 -4.221739992499351501e-02 -1.058031469583511353e-01 -2.895386703312397003e-02 -3.546794876456260681e-02 -1.186808347702026367e-01 -1.274524778127670288e-01 2.433783747255802155e-02 -8.194960653781890869e-02 2.085768245160579681e-02 2.054149657487869263e-02 -2.358764968812465668e-02 -1.211394518613815308e-01 -2.002044022083282471e-02 -9.118033573031425476e-03 -1.556661874055862427e-01 1.336296945810317993e-01 -1.737851649522781372e-01 -1.002407744526863098e-01 -1.595480889081954956e-01 1.224385946989059448e-01 -1.358373165130615234e-01 -8.768686652183532715e-02 -1.258032321929931641e-01 8.835536241531372070e-02 -2.400372736155986786e-02 -4.035149514675140381e-02 1.181925758719444275e-01 -6.934870779514312744e-02 4.791411757469177246e-02 1.971649229526519775e-01 6.383892148733139038e-02 1.634491793811321259e-02 -1.007577478885650635e-01 -1.058757677674293518e-01 -1.251192390918731689e-01 7.145774364471435547e-02 1.852807253599166870e-01 -8.634876459836959839e-02 -5.249504372477531433e-02 -4.644521977752447128e-03 -1.527942568063735962e-01 -2.139619588851928711e-01 -1.718614846467971802e-01 -1.516983099281787872e-02 -1.785165965557098389e-01 -1.401097029447555542e-01 1.699590981006622314e-01 1.709829717874526978e-01 4.654641728848218918e-03 -2.053895033895969391e-02 -3.980248793959617615e-02 1.319766789674758911e-01 1.330489665269851685e-01 9.126696735620498657e-03 -7.135800085961818695e-03 9.439975023269653320e-02 -1.899246424436569214e-01 4.230136796832084656e-02 -8.888750523328781128e-02 -1.466178447008132935e-01 -5.448557436466217041e-02 5.170056596398353577e-02 -1.371583342552185059e-01 3.281247988343238831e-02 1.302482485771179199e-01 -5.490563437342643738e-02 8.731417357921600342e-02 4.837588965892791748e-02 1.546654999256134033e-01 -7.773140817880630493e-02 9.396588802337646484e-02 -2.413316443562507629e-02 8.510468900203704834e-02 -5.012075975537300110e-02 -1.035432890057563782e-02 7.152323424816131592e-02 8.931867033243179321e-02 -1.465528160333633423e-01
6.164050102233886719e-02 7.729964703321456909e-02 1.626197695732116699e-01 7.041264325380325317e-02 1.351350247859954834e-01 -2.920484729111194611e-02 -1.309040039777755737e-01 -1.250513792037963867e-01 1.290610134601593018e-01 -3.309085965156555176e-02 1.486076265573501587e-01 -2.337496541440486908e-02 3.856673091650009155e-02 -4.249908030033111572e-02 1.018329039216041565e-01 1.268225349485874176e-02 -4.889199137687683105e-02 -2.825281582772731781e-03 -3.009318932890892029e-02 -6.700226664543151855e-02 -1.335002109408378601e-02 -2.535463310778141022e-02 -8.294104039669036865e-02 -3.797952458262443542e-02 5.699495971202850342e-02 1.535769253969192505e-01 1.239414289593696594e-01 -6.040214374661445618e-02 -6.305011361837387085e-02 1.099902093410491943e-01 -4.094719514250755310e-02 1.371481865644454956e-01 1.404195576906204224e-01 1.429538428783416748e-01 -1.540773808956146240e-01 1.632854938507080078e-01 1.062321364879608154e-01 1.102173700928688049e-01 3.339999914169311523e-02 8.406905829906463623e-02 1.383148729801177979e-01 1.161872372031211853e-01 -4.288492351770401001e-02 4.157491773366928101e-02 5.585088953375816345e-02 -1.407539844512939453e-01 6.828892976045608521e-02 -3.855999559164047241e-02 -7.523629814386367798e-02 1.174136623740196228e-01 -1.249049603939056396e-02 1.812298223376274109e-02 1.428236514329910278e-01 -1.151054054498672485e-01 -4.302070289850234985e-02 1.088370457291603088e-01 7.745313632767647505e-05 -3.268717601895332336e-02 2.003074437379837036e-02 -8.042020350694656372e-02 5.410309880971908569e-02 -1.385364532470703125e-01 -1.286097466945648193e-01 -1.163183078169822693e-01 1.748747080564498901e-01 -6.734131276607513428e-02 -1.282011531293392181e-02 9.869416058063507080e-02 4.167826846241950989e-02 -4.504325985908508301e-02 1.533110886812210083e-01 2.122936695814132690e-01 -9.152961522340774536e-02 -9.626323729753494263e-02 -2.437581121921539307e-02 4.519311338663101196e-02 -3.854014724493026733e-02 9.022516012191772461e-02 -7.410178333520889282e-02 -1.643949653953313828e-03 6.395949982106685638e-03 -6.645499169826507568e-02 9.068915247917175293e-02 8.799468725919723511e-02 -8.846426010131835938e-02 -3.822625428438186646e-02 1.680197939276695251e-02 1.372881829738616943e-01 1.001657471060752869e-01 2.852423861622810364e-02 2.794685773551464081e-02 4.275566339492797852e-02 8.005696535110473633e-02 -8.252054452896118164e-02 9.388810396194458008e-02 1.679621785879135132e-01 -2.080425061285495758e-02 -1.236347779631614685e-01 -8.631148189306259155e-02 -6.029152870178222656e-02 1.636072695255279541e-01 -1.826967000961303711e-01 9.201110340654850006e-03 -2.602283470332622528e-02 -6.962509453296661377e-02 1.022687777876853943e-01 1.073429137468338013e-01 -1.548931002616882324e-01 -2.918058447539806366e-02
-9.596239030361175537e-02 -1.386591047048568726e-01 1.294429302215576172e-01 -1.197076663374900818e-01 -6.279217451810836792e-02 6.425226479768753052e-02 -9.219002723693847656e-02 6.086067482829093933e-02 -1.426856964826583862e-01 1.035806313157081604e-01 -1.384714245796203613e-01 7.366416603326797485e-02 -1.494573894888162613e-02 -1.413700282573699951e-01 -8.667586743831634521e-02 1.974427141249179840e-02 1.418514698743820190e-01 6.541094277054071426e-03 -1.600266098976135254e-01 1.552851032465696335e-02 -9.017436951398849487e-02 -1.180054545402526855e-01 -1.357671916484832764e-01 -9.893416613340377808e-02 -3.354493156075477600e-02 -1.128919124603271484e-01 1.175596565008163452e-01 -1.216768771409988403e-01 -5.256908014416694641e-02 5.156885087490081787e-02 -9.761291742324829102e-02 1.801825463771820068e-01 1.148198172450065613e-01 -6.466494500637054443e-02 -1.067780777812004089e-01 1.318550705909729004e-01 -1.362855136394500732e-01 5.139559507369995117e-03 6.554810702800750732e-02 -1.451618373394012451e-01 1.768506169319152832e-01 -1.384046077728271484e-01 -2.893111295998096466e-02 -1.139092072844505310e-01 1.891484558582305908e-01 9.797986596822738647e-02 -5.632017552852630615e-02 -1.260431259870529175e-01 3.049650043249130249e-02 -1.559976041316986084e-01 -1.184897795319557190e-01 1.362870782613754272e-01 -1.498421840369701385e-02 -5.164449289441108704e-02 8.270230889320373535e-02 4.018755163997411728e-03 4.085373878479003906e-02 -7.015640288591384888e-02 -9.583122096955776215e-03 -1.430494636297225952e-01 -5.667838454246520996e-02 -1.713458895683288574e-01 1.079444438219070435e-01 -1.493069622665643692e-02 7.446579635143280029e-02 -6.387841701507568359e-02 1.038259565830230713e-01 -1.405126601457595825e-01 -7.743257284164428711e-02 8.054696023464202881e-02 4.136050865054130554e-02 -2.823729813098907471e-01 1.757819354534149170e-01 -8.293728530406951904e-02 7.163990288972854614e-02 4.140748083591461182e-02 -1.539738476276397705e-01 -2.000445276498794556e-01 -7.649231702089309692e-02 -2.179866135120391846e-01 2.150532230734825134e-02 2.409495599567890167e-02 -1.151785030961036682e-01 1.985719501972198486e-01 5.180467665195465088e-02 -1.370382905006408691e-01 1.065039187669754028e-01 1.235197484493255615e-01 -4.206631705164909363e-02 1.751752793788909912e-01 -1.447173953056335449e-01 -1.567475199699401855e-01 1.355105489492416382e-01 -1.680102348327636719e-01 -1.001030132174491882e-01 1.337035931646823883e-02 -3.057601861655712128e-02 -1.203784644603729248e-01 -7.329953834414482117e-03 -1.278162188827991486e-02 -2.079299539327621460e-01 -1.240735948085784912e-01 4.157782718539237976e-02 8.148702979087829590e-02 4.717237129807472229e-02 5.381570383906364441e-02 1.136416122317314148e-01 2.887808158993721008e-02 -3.798479586839675903e-02
-1.336231827735900879e-01 1.183139532804489136e-01 1.372359134256839752e-02 1.189736053347587585e-01 -5.717056617140769958e-02 -2.936429530382156372e-02 8.502254635095596313e-02 -3.708035498857498169e-02 5.488442629575729370e-02 2.513067796826362610e-02 5.126424133777618408e-02 -1.267324946820735931e-02 6.653145700693130493e-02 6.837635487318038940e-02 -1.040411964058876038e-01 8.957256376743316650e-02 2.194541320204734802e-02 1.303672343492507935e-01 6.134923920035362244e-02 -6.122478097677230835e-02 -8.001682907342910767e-02 1.147760078310966492e-01 7.661084830760955811e-02 1.503916233777999878e-01 -3.939076140522956848e-02 1.310547888278961182e-01 1.190003901720046997e-01 -1.343970596790313721e-01 4.237029328942298889e-02 -1.264172643423080444e-01 1.385654956102371216e-01 8.991299569606781006e-02 6.570369005203247070e-02 -9.665802121162414551e-02 -2.921696566045284271e-02 4.160303622484207153e-02 1.256076395511627197e-01 6.502874940633773804e-02 1.677943319082260132e-01 -1.539343595504760742e-01 2.007612586021423340e-01 -1.776476949453353882e-01 9.025722742080688477e-02 -1.453352570533752441e-01 -4.092727787792682648e-03 4.815640673041343689e-02 1.141345947980880737e-01 1.795759201049804688e-01 1.966921091079711914e-01 -3.565781936049461365e-02 5.511810258030891418e-02 1.015325635671615601e-01 -2.568275481462478638e-02 1.344369649887084961e-01 -2.528758160769939423e-02 -6.000155210494995117e-02 7.100992649793624878e-02 -1.649126559495925903e-01 8.124548941850662231e-02 7.285320200026035309e-03 2.757494524121284485e-02 -1.458971202373504639e-01 -2.162657491862773895e-02 9.301478415727615356e-02 -1.404200792312622070e-01 8.895640820264816284e-02 4.698007926344871521e-02 1.485749036073684692e-01 -1.784852743148803711e-01 9.628138691186904907e-02 -1.574312448501586914e-01 -9.074640274047851562e-02 -7.705276459455490112e-02 -2.331136353313922882e-02 1.520598977804183960e-01 1.038813963532447815e-01 1.171670034527778625e-01 1.112543344497680664e-01 1.291737407445907593e-01 -9.363234788179397583e-02 1.151765882968902588e-02 -3.290771692991256714e-02 9.704194962978363037e-02 -1.224435642361640930e-01 -1.351876705884933472e-01 1.203294843435287476e-01 -2.770804241299629211e-02 1.929066479206085205e-01 -1.097418889403343201e-01 8.599340915679931641e-02 -8.087668567895889282e-02 -1.508623957633972168e-01 -1.947679556906223297e-02 -1.427945122122764587e-02 2.646103501319885254e-01 9.147296100854873657e-02 7.084267586469650269e-02 -1.041969284415245056e-01 -1.006422415375709534e-01 -1.219386979937553406e-01 3.582510352134704590e-02 5.969490110874176025e-02 1.059999614953994751e-01 3.257451206445693970e-02 -7.425274699926376343e-02 -1.613540388643741608e-02 -3.153650462627410889e-02 -6.784074008464813232e-02 6.527507212013006210e-04
1.869348250329494476e-02 -3.242354467511177063e-02 -3.495506197214126587e-02 -5.814934894442558289e-02 1.211037784814834595e-01 -5.158357787877321243e-03 8.207590132951736450e-02 1.211151480674743652e-02 2.259230427443981171e-02 2.460261806845664978e-02 7.469280064105987549e-02 1.024532020092010498e-01 -2.196319252252578735e-01 -6.031447276473045349e-02 -1.102505326271057129e-01 4.750920925289392471e-03 9.135395288467407227e-02 1.326168775558471680e-01 -2.059822380542755127e-01 -1.393554806709289551e-01 -1.176393702626228333e-01 -8.261654525995254517e-02 -1.105771660804748535e-01 -3.939954563975334167e-02 -9.629889577627182007e-02 -1.153774932026863098e-01 7.912157475948333740e-02 -1.442062854766845703e-02 2.168368697166442871e-01 -1.055152043700218201e-01 5.321791023015975952e-02 6.048300862312316895e-02 -4.822702147066593170e-03 8.523380011320114136e-02 -1.386442184448242188e-01 -1.071155965328216553e-01 -1.395267397165298462e-01 1.714916825294494629e-01 -2.082991413772106171e-02 -3.993135690689086914e-02 -3.321646153926849365e-02 2.906468510627746582e-02 8.294549584388732910e-02 1.487690210342407227e-01 -4.643187299370765686e-02 8.907731622457504272e-02 1.881321370601654053e-01 -7.241239398717880249e-02 1.622710675001144409e-01 -1.073992461897432804e-03 8.992347866296768188e-03 -4.114123433828353882e-02 8.174307644367218018e-02 6.375060230493545532e-02 1.277246028184890747e-01 1.147027462720870972e-01 -4.352111741900444031e-02 -1.247477680444717407e-01 5.473116412758827209e-02 -9.319435805082321167e-02 5.047903954982757568e-02 -5.410104990005493164e-02 -1.466985940933227539e-01 -1.028445083647966385e-02 1.501333862543106079e-01 1.015748605132102966e-01 -1.207375898957252502e-01 -1.241318508982658386e-01 5.787231028079986572e-02 9.586504846811294556e-02 -6.059689074754714966e-02 -1.946954429149627686e-01 1.509420573711395264e-01 -1.032208427786827087e-01 -1.274385750293731689e-01 -1.341607719659805298e-01 -5.139042064547538757e-02 5.189356580376625061e-02 -1.769572943449020386e-01 -2.951731383800506592e-01 6.314614322036504745e-03 -7.770941406488418579e-02 -1.174532100558280945e-01 -6.194420531392097473e-02 -1.604495495557785034e-01 -1.641557961702346802e-01 -7.486264687031507492e-03 4.992347955703735352e-02 -1.153288781642913818e-01 3.987492993474006653e-02 1.628482490777969360e-01 -1.294654160737991333e-01 1.278054565191268921e-01 -1.659211218357086182e-01 2.265959791839122772e-02 -1.890183836221694946e-01 -1.128988191485404968e-01 9.089026600122451782e-02 -9.691570699214935303e-02 -1.061076819896697998e-01 -7.041006535291671753e-02 1.725641894154250622e-03 -1.649545878171920776e-01 -8.727711625397205353e-03 -7.728926092386245728e-02 1.272166222333908081e-01 9.145335108041763306e-02 -7.686655223369598389e-02 -1.164794713258743286e-02
7.980663329362869263e-02 -9.019472450017929077e-02 1.519184559583663940e-01 -7.112655788660049438e-02 1.114693935960531235e-02 -3.145364299416542053e-02 1.806613355875015259e-01 4.977465048432350159e-02 9.794595092535018921e-02 -1.077704429626464844e-01 6.771500408649444580e-02 -1.961804926395416260e-02 2.047774493694305420e-01 1.521933376789093018e-01 1.082502007484436035e-01 -8.888760209083557129e-02 9.640035778284072876e-02 1.079501360654830933e-01 -4.268364980816841125e-02 -9.438207000494003296e-02 -4.202269390225410461e-02 -9.674406796693801880e-02 -6.328196078538894653e-02 -1.236768215894699097e-01 1.699921786785125732e-01 -8.144437521696090698e-02 -1.435218658298254013e-02 1.752396970987319946e-01 2.040422409772872925e-01 -1.165955141186714172e-01 9.449864923954010010e-02 -4.746888950467109680e-02 1.508219689130783081e-01 -6.164444983005523682e-02 1.117469370365142822e-01 -7.522998005151748657e-02 5.151128768920898438e-02 1.485405862331390381e-01 1.484505981206893921e-01 -1.185136437416076660e-01 8.667379617691040039e-02 7.635211199522018433e-02 1.791672855615615845e-01 1.365397274494171143e-01 -2.390114124864339828e-03 -1.374859549105167389e-02 -7.143981754779815674e-02 1.187064424157142639e-01 1.412437409162521362e-01 1.306929737329483032e-01 -4.999869316816329956e-02 -7.692341506481170654e-02 -1.926142536103725433e-02 1.373863518238067627e-01 1.500574350357055664e-01 -2.169518172740936279e-02 -7.227447628974914551e-02 1.312395036220550537e-01 5.792876705527305603e-02 2.657544426620006561e-02 -4.676177725195884705e-02 1.462321132421493530e-01 2.361812070012092590e-02 8.951993659138679504e-03 1.182408407330513000e-01 6.094549223780632019e-02 9.733079350553452969e-04 -1.012518331408500671e-01 5.348060745745897293e-03 -3.097214270383119583e-03 1.049629375338554382e-01 -1.478721853345632553e-02 -2.516004815697669983e-02 -1.971272379159927368e-02 8.687787503004074097e-02 -1.383007783442735672e-02 7.325743883848190308e-02 -9.751670807600021362e-02 -1.026236936450004578e-01 1.414792239665985107e-02 -6.931855529546737671e-02 -1.368673294782638550e-01 9.375690668821334839e-02 -7.076388597488403320e-02 6.350930780172348022e-02 1.744372099637985229e-01 -5.387705750763416290e-03 1.041878610849380493e-01 7.221727073192596436e-02 8.375711739063262939e-02 1.583625227212905884e-01 -1.935273110866546631e-01 -3.804142121225595474e-03 1.405776198953390121e-02 9.227607399225234985e-03 1.097615510225296021e-01 4.794403910636901855e-02 3.999904915690422058e-02 7.841389626264572144e-02 8.534170687198638916e-02 3.205290809273719788e-02 -4.709299653768539429e-02 3.356218710541725159e-02 6.985247880220413208e-02 1.290700137615203857e-01 5.438841506838798523e-02 -1.346778124570846558e-01 6.157588679343461990e-03 1.285925507545471191e-01
6.574090570211410522e-02 1.748131364583969116e-01 -9.499631822109222412e-02 -5.598567798733711243e-02 4.475412517786026001e-02 -8.207894861698150635e-02 -7.960711419582366943e-02 1.269765645265579224e-01 -1.923864148557186127e-02 6.421326845884323120e-02 -1.580435484647750854e-01 -9.221141040325164795e-02 -2.362020313739776611e-02 5.631492659449577332e-02 9.244158864021301270e-02 -7.759331166744232178e-02 1.108082830905914307e-01 1.160138994455337524e-01 -5.031891912221908569e-02 -8.337515592575073242e-02 -1.898171007633209229e-01 2.204823344945907593e-01 7.420893013477325439e-02 1.149711310863494873e-01 -1.192005649209022522e-01 -1.745825447142124176e-02 -1.361758559942245483e-01 -9.187503904104232788e-02 -1.900942623615264893e-01 -2.721916511654853821e-02 -3.041327297687530518e-01 7.639765739440917969e-03 2.090618200600147247e-02 -1.094829589128494263e-01 1.040673442184925079e-02 -5.016697943210601807e-02 4.801730625331401825e-03 -5.720603838562965393e-02 9.896831959486007690e-02 2.207452654838562012e-01 -9.925411641597747803e-02 1.222641579806804657e-02 -8.822138607501983643e-02 -1.237763389945030212e-01 -1.664561480283737183e-01 5.304192379117012024e-02 -1.710301935672760010e-01 -5.920207127928733826e-02 -4.336532950401306152e-02 -1.574151962995529175e-01 9.119222313165664673e-02 7.886353880167007446e-03 1.635178476572036743e-01 -1.097409501671791077e-01 1.827710121870040894e-02 -6.067556887865066528e-02 -6.689665466547012329e-02 6.865814328193664551e-02 -1.600758433341979980e-01 -3.134817583486437798e-03 1.821335256099700928e-01 1.745872199535369873e-01 -5.999995023012161255e-02 -2.014879286289215088e-01 6.270599365234375000e-02 -1.623053848743438721e-01 -9.319397620856761932e-03 -2.953816577792167664e-02 -1.032658889889717102e-01 -1.778223365545272827e-01 -4.052113369107246399e-02 1.407686173915863037e-01 -1.905607432126998901e-01 8.295604586601257324e-02 -1.309970319271087646e-01 -8.294314146041870117e-02 7.745224982500076294e-02 -4.918855149298906326e-03 -7.108807563781738281e-02 2.496881037950515747e-01 -1.088280901312828064e-01 -2.090582065284252167e-02 1.744439750909805298e-01 -1.231526136398315430e-01 1.882804781198501587e-01 -1.166062429547309875e-01 -2.024708092212677002e-01 -2.585957348346710205e-01 1.909791864454746246e-02 1.128452718257904053e-01 -1.495378017425537109e-01 6.788677722215652466e-02 9.498010575771331787e-02 -3.392163664102554321e-02 2.639857120811939240e-03 -9.608678519725799561e-02 1.034135520458221436e-01 3.338624164462089539e-02 -6.287517398595809937e-02 -6.944458931684494019e-02 1.863014101982116699e-01 -1.435811351984739304e-02 -3.033450990915298462e-02 -1.820683777332305908e-01 -4.853449016809463501e-02 -1.989190429449081421e-01 -1.254207342863082886e-01 -1.119148805737495422e-01 -1.293204165995121002e-02
1.080210357904434204e-01 1.463881582021713257e-01 -1.124538183212280273e-01 -1.089181378483772278e-01 -1.201864778995513916e-01 -4.287496954202651978e-02 1.625634543597698212e-02 -7.603676617145538330e-02 -7.324577867984771729e-02 9.434133023023605347e-02 8.792959153652191162e-02 -1.749840565025806427e-02 -1.281184554100036621e-01 -4.022030159831047058e-02 -6.578774005174636841e-02 -2.383622378110885620e-01 4.771022871136665344e-02 -4.872884601354598999e-02 -6.454136222600936890e-02 -9.808967262506484985e-02 -1.201949715614318848e-01 1.527657657861709595e-01 8.082503825426101685e-02 -3.213583678007125854e-02 -8.960551768541336060e-02 -1.259698718786239624e-01 7.659356296062469482e-02 9.189870208501815796e-02 2.994011528789997101e-02 -7.357567548751831055e-02 -2.076164335012435913e-01 1.097872331738471985e-01 -1.220660135149955750e-01 -1.192664876580238342e-01 -1.223257556557655334e-01 9.054690599441528320e-03 -1.631642878055572510e-01 1.185076385736465454e-01 3.324921010062098503e-03 5.969384685158729553e-02 -1.881639212369918823e-01 1.018959283828735352e-02 3.903186693787574768e-02 -1.612935215234756470e-01 1.073397323489189148e-01 5.179643258452415466e-02 -3.151530399918556213e-02 -2.375499904155731201e-01 -2.018809467554092407e-01 -8.728271722793579102e-02 -1.266158223152160645e-01 -3.732160851359367371e-02 3.657586500048637390e-02 5.244404822587966919e-02 2.198473922908306122e-02 -9.311752021312713623e-02 1.451670974493026733e-01 1.128378361463546753e-01 -7.646755129098892212e-02 -4.900179430842399597e-02 1.712796278297901154e-02 -9.243820607662200928e-02 -1.746697723865509033e-01 1.588053628802299500e-02 -5.038481205701828003e-02 -9.599143266677856445e-02 -3.795270994305610657e-02 -8.554438501596450806e-02 1.656717211008071899e-01 -1.539694219827651978e-01 6.081759184598922729e-02 -1.146825104951858521e-01 -3.254379332065582275e-01 7.978259027004241943e-02 -2.457043528556823730e-02 -6.711036711931228638e-02 1.494658440351486206e-01 1.309288889169692993e-01 9.264857321977615356e-02 2.127845734357833862e-01 9.454270452260971069e-02 -4.946221411228179932e-02 6.976662576198577881e-02 -2.255790680646896362e-02 -1.397125720977783203e-01 1.469325572252273560e-01 -8.971288800239562988e-02 -1.253975033760070801e-01 5.997226759791374207e-02 8.413423597812652588e-02 -1.415419429540634155e-01 1.833425760269165039e-01 -5.153996869921684265e-02 -1.439542770385742188e-01 -1.122325286269187927e-01 -1.091382652521133423e-01 9.296613186597824097e-02 -4.906243085861206055e-02 4.229907691478729248e-02 -4.252393171191215515e-02 5.055075883865356445e-02 -1.210420057177543640e-01 -6.572710722684860229e-02 -1.412690877914428711e-01 -1.224442943930625916e-01 -1.599415540695190430e-01 -1.394918113946914673e-01 2.084966748952865601e-02 -3.678396716713905334e-02
5.529399588704109192e-02 -1.384333521127700806e-01 -3.858275711536407471e-02 1.251828819513320923e-01 -1.468437016010284424e-01 -1.532730087637901306e-02 1.910044997930526733e-01 -1.067498698830604553e-01 1.379627436399459839e-01 -4.539515078067779541e-02 -2.163112512789666653e-04 1.062830071896314621e-02 2.799386158585548401e-02 4.078517481684684753e-02 2.462396398186683655e-02 -5.946395546197891235e-02 -8.848570287227630615e-02 2.250779978930950165e-02 1.035885363817214966e-01 4.080643504858016968e-02 -1.123344004154205322e-01 -1.294952183961868286e-01 1.981444656848907471e-01 -1.007297113537788391e-01 -9.922351455315947533e-04 -1.426253318786621094e-01 4.258526861667633057e-02 -1.941965222358703613e-01 -3.539906069636344910e-02 1.475798338651657104e-01 -2.466144859790802002e-01 -1.937939971685409546e-01 -1.613995060324668884e-02 -5.479484051465988159e-02 -1.521230340003967285e-01 1.103742942214012146e-01 1.154794692993164062e-01 -1.211796179413795471e-01 3.450303152203559875e-02 -1.814513057470321655e-01 -9.040778875350952148e-02 -6.787733733654022217e-02 1.347163766622543335e-01 -1.446314007043838501e-01 1.580761075019836426e-01 -1.829059273004531860e-01 -1.746164858341217041e-01 9.507969021797180176e-02 -5.101681500673294067e-02 6.903479248285293579e-02 -1.201369315385818481e-01 -6.107366830110549927e-02 1.022428870201110840e-01 1.781651526689529419e-01 2.290392480790615082e-02 1.145412996411323547e-01 -1.480769813060760498e-01 -6.308731436729431152e-02 -6.216845288872718811e-02 1.588442027568817139e-01 -1.659187823534011841e-01 -9.267188608646392822e-02 4.504847154021263123e-02 4.126837104558944702e-02 -1.082111671566963196e-01 -8.246869593858718872e-02 -7.670086622238159180e-02 -7.421622425317764282e-02 -1.490008085966110229e-02 3.876784071326255798e-02 1.414905339479446411e-01 1.030451245605945587e-02 4.193906486034393311e-02 -1.128911972045898438e-01 -5.966465175151824951e-02 -1.050704792141914368e-01 2.110290229320526123e-01 -1.172311007976531982e-01 1.537935691885650158e-03 -6.584452837705612183e-02 7.875744253396987915e-02 -7.182258367538452148e-02 1.321732401847839355e-01 -1.954030245542526245e-01 1.370964944362640381e-01 3.052163682878017426e-02 -1.791398376226425171e-01 1.299685388803482056e-01 -1.983222551643848419e-02 1.841856986284255981e-01 1.279908269643783569e-01 5.117698013782501221e-02 -1.716862916946411133e-01 1.141939908266067505e-01 1.277663707733154297e-01 6.750827282667160034e-02 -1.692354828119277954e-01 4.572108387947082520e-03 -1.187209039926528931e-02 1.802064180374145508e-01 -4.445117339491844177e-02 -9.472719579935073853e-02 -1.724274605512619019e-01 -2.044139504432678223e-01 -1.028508096933364868e-01 -9.317871183156967163e-02 1.299342811107635498e-01 -1.673939637839794159e-02 2.297627776861190796e-01
-3.520703315734863281e-02 -3.594892844557762146e-02 1.064529940485954285e-01 -2.548998966813087463e-02 -2.140782214701175690e-02 1.062964648008346558e-01 -3.873017057776451111e-02 -3.077124804258346558e-02 -1.373496800661087036e-01 -4.141501151025295258e-03 2.196562662720680237e-02 1.298892498016357422e-01 9.690388292074203491e-02 3.931809589266777039e-02 -1.353282332420349121e-01 -1.975008249282836914e-01 -5.197621136903762817e-02 -1.582579165697097778e-01 1.040934473276138306e-01 4.108322784304618835e-02 -1.021256111562252045e-02 1.974030435085296631e-01 4.777547717094421387e-02 -1.176513209939002991e-01 4.358568787574768066e-02 1.132300794124603271e-01 -1.626051813364028931e-01 -2.095462679862976074e-01 -8.901684731245040894e-02 8.173225820064544678e-02 -2.901663482189178467e-01 -5.699290335178375244e-02 -8.922219276428222656e-02 -1.462137699127197266e-01 -1.460135634988546371e-02 -5.612448975443840027e-02 3.902693837881088257e-02 7.101570069789886475e-02 6.485506147146224976e-02 1.077968031167984009e-01 -1.184311434626579285e-01 1.153970137238502502e-01 1.081287711858749390e-01 -2.383186481893062592e-02 1.236739978194236755e-01 -1.063182577490806580e-01 -1.304484009742736816e-01 -2.550302147865295410e-01 -1.810332983732223511e-01 1.612049490213394165e-01 -2.799859829246997833e-02 6.541150808334350586e-02 7.514062523841857910e-02 1.206948682665824890e-01 -1.349693536758422852e-01 -1.651510149240493774e-01 -1.120959445834159851e-01 -1.311849206686019897e-01 -5.929898843169212341e-02 5.954368412494659424e-02 1.228566467761993408e-01 -1.188511848449707031e-01 -1.698384732007980347e-01 -2.091303467750549316e-01 6.490557640790939331e-02 6.608836352825164795e-02 -4.324924945831298828e-02 1.456226855516433716e-01 1.843312680721282959e-01 7.643605023622512817e-02 9.573794901371002197e-02 -1.278749555349349976e-01 -8.709056675434112549e-02 4.428085684776306152e-02 1.055451929569244385e-01 7.499836385250091553e-02 -1.675259321928024292e-01 -1.516141444444656372e-01 1.009289994835853577e-01 3.158150613307952881e-01 1.350021660327911377e-01 1.175658218562602997e-02 5.533723905682563782e-02 -1.176620349287986755e-01 8.206240087747573853e-02 -1.743769459426403046e-02 -2.665572613477706909e-02 -2.479869313538074493e-02 2.371940575540065765e-02 -1.014215052127838135e-01 -8.142745494842529297e-02 -1.077873632311820984e-01 1.141398847103118896e-01 -6.445322185754776001e-02 -1.147540006786584854e-02 -5.450255796313285828e-02 -3.292683139443397522e-02 -1.507927328348159790e-01 -1.276322901248931885e-01 2.215666323900222778e-01 1.464561671018600464e-01 1.146062314510345459e-01 -5.596148967742919922e-02 -1.158771961927413940e-01 7.528440561145544052e-03 6.529311090707778931e-02 -1.202276945114135742e-01 -7.443973422050476074e-02 8.960655331611633301e-02
1.528132800012826920e-02 6.822190433740615845e-02 -2.671962045133113861e-02 2.066600769758224487e-01 -1.530063152313232422e-02 2.967127226293087006e-02 -1.780869662761688232e-01 -4.170041531324386597e-02 1.710464060306549072e-01 3.367625549435615540e-02 8.263586461544036865e-02 1.442266255617141724e-01 8.775798231363296509e-02 -1.561725139617919922e-02 -7.828788459300994873e-02 -1.273403316736221313e-01 1.046293154358863831e-01 6.092318519949913025e-02 1.515408605337142944e-01 -7.418812811374664307e-02 -1.737982630729675293e-01 9.661703556776046753e-02 -4.735993221402168274e-03 -1.665408164262771606e-01 -1.204505935311317444e-02 4.540861397981643677e-02 9.564433991909027100e-02 -1.476054936647415161e-01 -1.674653440713882446e-01 5.221720784902572632e-02 2.588989585638046265e-02 4.026206582784652710e-02 7.638828456401824951e-02 -1.047602370381355286e-01 -1.027748584747314453e-01 -6.484097987413406372e-02 -4.368459433317184448e-02 -4.649600386619567871e-02 1.270047426223754883e-01 -1.842260733246803284e-02 -1.401599049568176270e-01 1.855329871177673340e-01 -1.549885869026184082e-01 1.695325523614883423e-01 -2.613111212849617004e-02 -8.558963239192962646e-02 -1.039293110370635986e-01 5.990058183670043945e-03 -3.251436352729797363e-02 1.991249471902847290e-01 -1.368933469057083130e-01 3.871477395296096802e-02 5.144598335027694702e-02 7.777939899824559689e-04 7.885255664587020874e-02 2.898117899894714355e-02 1.321280896663665771e-01 2.149510532617568970e-01 -5.399725958704948425e-02 7.482879608869552612e-02 1.992523297667503357e-02 -9.119490534067153931e-02 1.261334121227264404e-01 -5.848295614123344421e-02 -4.994602059014141560e-04 1.042826846241950989e-01 -6.747696548700332642e-02 -2.323347516357898712e-02 1.462245732545852661e-01 6.153644993901252747e-02 -1.220451965928077698e-01 1.295507997274398804e-01 -1.936240792274475098e-01 1.526368856430053711e-01 -1.452419906854629517e-01 9.883539378643035889e-02 -1.894336007535457611e-02 -1.354062929749488831e-02 -2.636245079338550568e-02 1.609177887439727783e-01 -1.546199172735214233e-01 -5.986207723617553711e-02 -3.855472803115844727e-02 -3.259050892665982246e-03 1.914860457181930542e-01 9.057548642158508301e-02 -1.762994825839996338e-01 -3.845929726958274841e-02 -2.114031091332435608e-02 3.963684663176536560e-03 -4.500383883714675903e-02 1.960252374410629272e-01 1.165245398879051208e-01 -1.007323712110519409e-01 -1.395608931779861450e-01 1.525402367115020752e-01 -1.803572289645671844e-02 -3.286919742822647095e-02 -1.607460677623748779e-01 2.084913477301597595e-02 -9.328605979681015015e-02 -6.796300411224365234e-02 -5.974466726183891296e-02 -3.739438205957412720e-02 -1.454149931669235229e-01 -1.392048448324203491e-01 9.498286992311477661e-02 -3.227590024471282959e-02 1.354288011789321899e-01
3.749742731451988220e-02 1.036297306418418884e-01 -1.355741173028945923e-01 -1.058047860860824585e-01 1.899263560771942139e-01 -1.076533272862434387e-01 9.020183980464935303e-02 -1.631392687559127808e-01 -4.914976656436920166e-02 -1.420933287590742111e-02 8.421964943408966064e-02 5.542677268385887146e-02 -7.136941701173782349e-02 -1.426326185464859009e-01 7.755083590745925903e-02 -3.437718003988265991e-02 4.615041613578796387e-02 -7.511664927005767822e-02 3.008860163390636444e-02 4.432509467005729675e-02 -7.205279171466827393e-02 1.003012806177139282e-01 -1.448041945695877075e-01 9.666668623685836792e-02 8.712256699800491333e-02 -7.371736317873001099e-02 1.560743898153305054e-01 -5.445504561066627502e-03 1.161384508013725281e-01 -5.298068001866340637e-02 -1.111118122935295105e-01 -6.164753437042236328e-02 1.365227103233337402e-01 5.031620338559150696e-02 -5.221016705036163330e-02 -2.315460331737995148e-02 9.581971913576126099e-02 -1.410206556320190430e-01 -1.280930489301681519e-01 -1.615178585052490234e-01 1.459369361400604248e-01 -1.951780542731285095e-02 -8.151022344827651978e-02 -6.245006620883941650e-02 2.439297363162040710e-02 4.867340624332427979e-02 5.513066798448562622e-02 2.387142367660999298e-02 1.907673031091690063e-01 1.207033097743988037e-01 9.474552422761917114e-02 1.103196013718843460e-02 6.434873491525650024e-02 -6.053027138113975525e-02 6.059975828975439072e-03 9.839249402284622192e-02 -2.139392681419849396e-02 -1.510928720235824585e-01 2.921693958342075348e-02 -1.302556842565536499e-01 1.509846001863479614e-01 1.559304147958755493e-01 -4.422395955771207809e-03 7.879493385553359985e-02 -7.569646090269088745e-02 -4.927587509155273438e-02 -8.315244317054748535e-02 1.287641525268554688e-01 1.236882293596863747e-03 -2.215282320976257324e-01 -1.004985421895980835e-01 4.666705057024955750e-02 1.685450971126556396e-01 -9.161483496427536011e-02 -1.339614689350128174e-01 -1.782437115907669067e-01 1.623242534697055817e-02 1.433154940605163574e-01 -1.564340889453887939e-01 -3.624889254570007324e-02 5.727197602391242981e-02 1.230025431141257286e-03 1.363252103328704834e-01 9.710149466991424561e-02 -8.082217723131179810e-02 -1.827406138181686401e-01 -1.174962818622589111e-01 1.620774269104003906e-01 8.873069286346435547e-02 -4.892482236027717590e-02 1.312499046325683594e-01 -8.006263524293899536e-02 9.305256605148315430e-02 -3.427739255130290985e-03 -1.294305026531219482e-01 -1.042650733143091202e-02 1.105054467916488647e-02 -1.220168992877006531e-01 7.733425498008728027e-02 9.324550628662109375e-02 -1.389871239662170410e-01 3.912137448787689209e-02 -8.415209501981735229e-02 -1.664616018533706665e-01 1.143394112586975098e-01 -2.461727894842624664e-02 -5.314456066116690636e-04 8.880854398012161255e-02 -3.728561475872993469e-02
1.159834712743759155e-01 1.315128244459629059e-02 -9.548649936914443970e-02 1.456867158412933350e-01 2.046178281307220459e-02 -1.176953837275505066e-01 1.709287017583847046e-01 -8.850131183862686157e-02 -5.088957399129867554e-02 3.352256491780281067e-02 -1.494257152080535889e-01 3.299735486507415771e-02 1.702800765633583069e-02 -5.213928222656250000e-02 2.416270971298217773e-02 1.139550432562828064e-01 -8.960118889808654785e-02 8.927215635776519775e-02 -3.640510141849517822e-02 5.062175542116165161e-02 -6.442733854055404663e-02 -1.050740014761686325e-02 -2.065149135887622833e-02 2.618163265287876129e-02 -4.290382191538810730e-02 -1.390244960784912109e-01 -7.272781431674957275e-02 -1.817678958177566528e-01 -5.521661788225173950e-02 1.361266374588012695e-01 -2.841739654541015625e-01 6.893112510442733765e-02 -9.161268919706344604e-02 8.623971045017242432e-02 8.613415062427520752e-02 9.727287292480468750e-02 1.571684703230857849e-02 4.154257476329803467e-02 1.236957088112831116e-01 -8.391132205724716187e-02 -1.574719101190567017e-01 2.017921954393386841e-01 -1.652737408876419067e-01 1.382583081722259521e-01 -1.541052311658859253e-01 -4.004900157451629639e-02 1.355791240930557251e-01 6.934199016541242599e-03 1.187765505164861679e-02 9.629049897193908691e-02 -1.196268247440457344e-03 -1.730185747146606445e-01 1.238652318716049194e-01 2.503311261534690857e-03 1.691979765892028809e-01 -1.827302128076553345e-01 9.257584810256958008e-02 -4.723909124732017517e-02 -1.736930459737777710e-01 1.621596664190292358e-01 4.789119213819503784e-02 -1.056047305464744568e-01 -1.402898132801055908e-01 -6.206433102488517761e-02 1.560859084129333496e-01 3.959994018077850342e-02 -8.442419022321701050e-02 6.394012272357940674e-02 1.200068444013595581e-01 4.401308670639991760e-02 -3.134363144636154175e-02 2.409324795007705688e-01 -8.127981424331665039e-02 4.891413450241088867e-02 1.564453989267349243e-01 -7.662776112556457520e-02 -1.405541151762008667e-01 -6.126423925161361694e-02 -4.690190777182579041e-02 7.443355023860931396e-02 -6.841639429330825806e-02 6.838538497686386108e-02 -1.730951294302940369e-02 -1.626430153846740723e-01 1.561290174722671509e-01 -1.325825303792953491e-01 -8.956457674503326416e-02 1.485392302274703979e-01 -3.763392567634582520e-02 6.153034046292304993e-02 -1.467865258455276489e-01 1.849944144487380981e-01 -1.023868620395660400e-01 -7.283119112253189087e-02 -8.551175147294998169e-02 7.408559322357177734e-02 -1.737254112958908081e-01 -1.072546690702438354e-01 5.969019606709480286e-02 3.425405174493789673e-02 -2.037895843386650085e-02 1.132165268063545227e-01 -6.153674423694610596e-02 -1.436642259359359741e-01 -1.345970481634140015e-01 -8.839179575443267822e-02 3.505231067538261414e-02 -1.542517989873886108e-01 3.406047821044921875e-02
9.831295907497406006e-02 9.707117080688476562e-02 -9.509836882352828979e-02 1.514602825045585632e-02 -2.758366754278540611e-04 5.664520338177680969e-02 -7.897386699914932251e-02 -1.970174908638000488e-02 1.704592704772949219e-01 9.115903824567794800e-02 -1.549147907644510269e-02 7.297376543283462524e-02 1.429174933582544327e-02 1.268298476934432983e-01 -1.615619659423828125e-02 -1.547619998455047607e-01 -1.407245546579360962e-01 -1.847602874040603638e-01 3.190785273909568787e-02 1.801572442054748535e-01 -3.979365900158882141e-02 9.662826359272003174e-02 -1.214843988418579102e-01 -3.643797244876623154e-03 -2.075437828898429871e-02 3.215660899877548218e-02 7.065407931804656982e-02 -1.544939875602722168e-01 2.172685787081718445e-02 -4.263345152139663696e-02 -1.527086496353149414e-01 -1.003900691866874695e-01 -1.034597214311361313e-02 7.510703988373279572e-03 1.442274916917085648e-02 -7.656128704547882080e-02 6.618788093328475952e-02 -4.677697643637657166e-02 -1.413567066192626953e-01 -1.442774683237075806e-01 -6.808949261903762817e-02 2.150027751922607422e-01 -6.334248930215835571e-02 -1.777111738920211792e-02 1.277408450841903687e-01 -5.438668280839920044e-02 -1.823538728058338165e-02 1.143261641263961792e-01 -2.106509804725646973e-01 2.562879920005798340e-01 3.151660785079002380e-02 1.732071489095687866e-02 -9.472347050905227661e-02 1.708579659461975098e-01 -3.048306144773960114e-02 1.435300856828689575e-01 1.420802623033523560e-01 -1.366996169090270996e-01 9.895564988255500793e-03 -1.533306092023849487e-01 1.058800518512725830e-01 1.341439783573150635e-01 -1.089537143707275391e-01 -7.016600668430328369e-02 1.011829674243927002e-01 -1.320140659809112549e-01 1.072146072983741760e-01 2.813019789755344391e-02 7.032937556505203247e-02 -1.872633025050163269e-02 -1.327602565288543701e-01 7.114829029887914658e-03 1.275777518749237061e-01 1.836456805467605591e-01 5.978680029511451721e-02 -1.280344128608703613e-01 1.734425425529479980e-01 -4.956284165382385254e-02 1.684897392988204956e-01 1.459429413080215454e-01 -1.202205196022987366e-01 6.401752680540084839e-02 1.301466524600982666e-01 -1.346656978130340576e-01 -9.417638182640075684e-02 -8.917054533958435059e-02 2.499611116945743561e-02 1.603755950927734375e-01 7.490023970603942871e-02 1.686404943466186523e-01 1.582436114549636841e-01 -1.051401048898696899e-01 5.549493059515953064e-02 -1.245729550719261169e-01 6.605739891529083252e-02 1.262411028146743774e-01 -4.611252993345260620e-02 -9.521611966192722321e-03 1.117914840579032898e-01 1.478601098060607910e-01 -7.558970898389816284e-02 -2.296482399106025696e-02 1.368304491043090820e-01 -1.050058379769325256e-02 -1.381484121084213257e-01 1.884884238243103027e-01 -1.778033673763275146e-01 1.981045305728912354e-02 4.516482725739479065e-02
1.443133801221847534e-01 1.044316515326499939e-01 -1.817390136420726776e-02 1.045290455222129822e-01 1.694814674556255341e-02 -1.075788065791130066e-01 3.624789044260978699e-02 7.452572882175445557e-02 -1.215779632329940796e-01 1.283299326896667480e-01 2.789293974637985229e-02 -1.074039787054061890e-01 -9.527586400508880615e-03 1.375236660242080688e-01 -5.525543913245201111e-02 1.013983860611915588e-01 -1.038163229823112488e-01 1.274848878383636475e-01 1.340547502040863037e-01 1.374282836914062500e-01 -1.515085548162460327e-01 7.259439677000045776e-02 1.219392046332359314e-01 -4.417915642261505127e-02 1.636146456003189087e-01 -1.358066499233245850e-01 9.921464323997497559e-02 1.193190142512321472e-01 2.020483165979385376e-01 9.227479994297027588e-02 3.627851307392120361e-01 9.971168823540210724e-03 -8.130226284265518188e-02 1.220992654561996460e-01 1.387310773134231567e-01 7.469817250967025757e-02 -3.243338689208030701e-02 5.286278203129768372e-02 4.223389178514480591e-02 -4.403407871723175049e-02 -5.922081321477890015e-02 -1.748388707637786865e-01 -5.808441340923309326e-02 1.326623558998107910e-01 2.964474633336067200e-02 1.454469114542007446e-01 6.548244506120681763e-02 3.225926682353019714e-02 -1.397728323936462402e-01 1.207992583513259888e-01 -4.266454279422760010e-02 -1.218215450644493103e-01 4.162204265594482422e-02 -6.064532324671745300e-02 -2.683144994080066681e-02 1.066242977976799011e-01 -1.485602408647537231e-01 6.148652359843254089e-02 1.399480104446411133e-01 -3.287854045629501343e-02 3.938651084899902344e-02 -9.750233590602874756e-02 1.409510672092437744e-01 -3.682759404182434082e-02 1.208657324314117432e-01 -3.660107031464576721e-02 1.296186596155166626e-01 -1.599293947219848633e-01 -1.527826040983200073e-01 8.786477893590927124e-02 -4.178450256586074829e-02 1.812414452433586121e-02 -1.117232441902160645e-01 8.596020191907882690e-02 6.195779144763946533e-02 8.171091228723526001e-02 -5.651935935020446777e-02 6.049827206879854202e-03 1.127518564462661743e-01 -5.297438055276870728e-02 -1.429973840713500977e-01 8.353378623723983765e-02 -1.275867372751235962e-01 1.076264008879661560e-01 6.419098377227783203e-02 -4.416574724018573761e-03 7.491394877433776855e-02 8.943448215723037720e-02 7.687394390814006329e-04 -7.741295546293258667e-02 1.235865503549575806e-01 -1.781313307583332062e-02 -3.373829275369644165e-02 -1.173799275420606136e-03 -1.718111038208007812e-01 -3.501126170158386230e-02 1.246367543935775757e-01 -8.758969604969024658e-02 3.723014518618583679e-02 1.101529225707054138e-01 1.187042370438575745e-01 -2.301490679383277893e-02 -5.897001922130584717e-02 1.402976959943771362e-01 -1.686467602849006653e-02 8.695159852504730225e-02 1.105126962065696716e-01 5.420480668544769287e-02 2.100595645606517792e-02
-2.068528719246387482e-02 9.403134137392044067e-02 1.133904159069061279e-01 1.122275888919830322e-01 -7.363637536764144897e-02 8.548458665609359741e-02 2.618536353111267090e-02 1.086980551481246948e-01 -6.625518947839736938e-02 2.112236060202121735e-02 1.319220960140228271e-01 1.426181793212890625e-01 2.672851644456386566e-02 -1.674325764179229736e-01 -1.213023662567138672e-01 7.628646492958068848e-02 -6.323188543319702148e-02 1.764120720326900482e-02 3.031832352280616760e-02 9.969933331012725830e-02 8.262203633785247803e-02 -1.825989633798599243e-01 -5.137140676379203796e-02 -1.764708571135997772e-02 -1.561500430107116699e-01 1.584534347057342529e-01 1.448989361524581909e-01 1.698925197124481201e-01 -1.359599828720092773e-02 -1.958283782005310059e-01 2.538505792617797852e-01 1.515331864356994629e-01 8.722165971994400024e-02 -5.644983053207397461e-02 -4.304692521691322327e-02 1.060847342014312744e-01 1.574763655662536621e-01 1.409065574407577515e-01 -5.569710582494735718e-02 -1.640845239162445068e-01 -7.012555748224258423e-02 -9.071376919746398926e-02 6.433415412902832031e-02 -9.766328334808349609e-02 1.332165151834487915e-01 -4.358293116092681885e-02 -8.315779268741607666e-02 1.562914066016674042e-02 -6.078860606066882610e-04 1.098444387316703796e-01 -1.420816034078598022e-01 6.311621051281690598e-03 1.205590739846229553e-01 -1.436294466257095337e-01 -9.716571122407913208e-02 4.912596568465232849e-02 1.400678157806396484e-01 -5.790605768561363220e-02 1.269229203462600708e-01 1.320577859878540039e-01 -1.802694797515869141e-01 5.347129330039024353e-02 1.397862583398818970e-01 -3.657517954707145691e-02 -6.546624004840850830e-02 -1.215538978576660156e-01 -7.397727668285369873e-02 -1.731348186731338501e-01 1.105908900499343872e-01 1.056710854172706604e-01 1.473583132028579712e-01 9.555631875991821289e-02 5.601130425930023193e-02 -1.799085587263107300e-01 1.645759120583534241e-02 -2.977766841650009155e-02 -8.797303587198257446e-02 -1.184583082795143127e-01 -3.833936527371406555e-02 -3.102669119834899902e-01 1.011206582188606262e-01 2.362969517707824707e-02 8.155293762683868408e-03 1.067203134298324585e-01 -1.928843371570110321e-02 7.515747845172882080e-02 -1.254022717475891113e-01 5.179679393768310547e-02 8.745874464511871338e-02 3.452631458640098572e-02 -2.401794306933879852e-02 -4.055169224739074707e-02 -6.301934272050857544e-02 5.243922770023345947e-02 2.023554295301437378e-01 -1.464757472276687622e-01 -3.214913606643676758e-02 -1.098737195134162903e-01 1.781396865844726562e-01 -7.729315012693405151e-02 -7.618391513824462891e-02 -3.493714705109596252e-02 -1.225694492459297180e-01 7.025495916604995728e-02 1.845402293838560581e-03 1.743277311325073242e-01 -2.359167300164699554e-02 9.593869745731353760e-02 6.417153775691986084e-02
