-1.344506889581680298e-01
3.920790553092956543e-02
1.021614447236061096e-01
-1.992627084255218506e-01
-2.172052115201950073e-01
-4.021796956658363342e-02
2.656154036521911621e-01
-5.697753280401229858e-02
-2.419766783714294434e-01
-7.172339409589767456e-02
-1.239522248506546021e-01
-1.001342236995697021e-01
-1.840553618967533112e-02
-2.428332157433032990e-02
-6.554128229618072510e-02
-1.888259798288345337e-01
-1.325199604034423828e-01
6.651764735579490662e-03
2.231056541204452515e-01
2.345111221075057983e-01
-8.987303823232650757e-02
1.688963919878005981e-01
-2.181726992130279541e-01
9.225364774465560913e-02
-5.176714621484279633e-04
2.102973610162734985e-01
1.973828673362731934e-01
-7.623758912086486816e-02
2.560713291168212891e-01
-2.005361318588256836e-01
1.285050064325332642e-01
-1.422786563634872437e-01
5.585940554738044739e-02
5.684636905789375305e-02
-7.224863767623901367e-02
3.144879937171936035e-01
-1.822814047336578369e-01
-1.900257766246795654e-01
2.526977658271789551e-01
1.926186680793762207e-01
-2.424310296773910522e-01
-1.404284387826919556e-01
-2.919663675129413605e-02
-1.594519764184951782e-01
-4.233130440115928650e-02
1.841953992843627930e-01
7.815283536911010742e-02
8.171343943104147911e-04
-2.137270942330360413e-02
7.982356846332550049e-02
-2.784889042377471924e-01
2.490694168955087662e-03
-1.187629252672195435e-01
2.253755629062652588e-01
-3.617139533162117004e-02
-1.806773692369461060e-01
3.880816977471113205e-03
1.505154967308044434e-01
1.531684547662734985e-01
-2.126425951719284058e-01
-6.443082541227340698e-02
-7.364150136709213257e-02
1.016477793455123901e-01
-2.248894423246383667e-01
1.930301040410995483e-01
3.377750981599092484e-03
1.143927574157714844e-01
-2.186191827058792114e-01
-2.098624855279922485e-01
5.522312596440315247e-03
-1.097685098648071289e-01
8.527120947837829590e-02
4.127083718776702881e-02
7.694152742624282837e-02
-7.478104531764984131e-02
9.633867442607879639e-02
-6.362569332122802734e-02
1.305019557476043701e-01
-1.855634897947311401e-01
-1.973393410444259644e-01
1.755677461624145508e-01
-1.282607018947601318e-01
-1.509737670421600342e-01
1.497725695371627808e-01
-1.549183577299118042e-01
1.258082687854766846e-01
-9.287078678607940674e-02
6.423661112785339355e-02
4.316772148013114929e-02
1.460883170366287231e-01
1.836537569761276245e-01
8.705183863639831543e-02
2.278741449117660522e-01
1.751316338777542114e-01
3.085508244112133980e-03
-1.083174441009759903e-02
-1.376579701900482178e-01
5.020886659622192383e-02
2.073555290699005127e-01
-2.257558852434158325e-01
1.453073173761367798e-01
9.234392642974853516e-02
1.727481782436370850e-01
1.297550201416015625e-01
-1.604956686496734619e-01
-2.102473825216293335e-01
4.606593772768974304e-02
-1.284906119108200073e-01
1.629071086645126343e-01
