-7.207520306110382080e-02 2.089160084724426270e-01 2.127829045057296753e-01 -2.172176912426948547e-02 1.313167363405227661e-01 2.108877897262573242e-01 -7.847350090742111206e-02 -2.432560026645660400e-01 -2.106519788503646851e-01 1.407762020826339722e-01 -1.598414778709411621e-01 -6.105663627386093140e-02 -5.260492861270904541e-02 -2.483562082052230835e-01 -1.876721531152725220e-01 2.491299659013748169e-01 -2.659907639026641846e-01 -1.911410689353942871e-01 1.553667336702346802e-01 5.913259088993072510e-02 1.309284120798110962e-01 -1.735498458147048950e-01 5.681918188929557800e-02 -8.915338665246963501e-02 -7.062052935361862183e-02 2.256485819816589355e-02 -8.866169489920139313e-03 2.278374135494232178e-01 1.460432559251785278e-01 -1.129790320992469788e-01 1.915947049856185913e-01 2.458276152610778809e-01 2.585219740867614746e-01 -1.578007340431213379e-01 -2.247177660465240479e-01 2.401332259178161621e-01 2.404096885584294796e-04 1.841112226247787476e-01 -2.012728303670883179e-01 -2.059216350317001343e-01 6.015654187649488449e-03 1.909514069557189941e-01 -3.488022834062576294e-02 -8.064553141593933105e-02 2.058600932359695435e-01 -1.623452901840209961e-01 -2.467648535966873169e-01 2.308097779750823975e-01 -2.520906925201416016e-01 1.204248517751693726e-01 4.076883569359779358e-02 1.953195333480834961e-01 -1.848157942295074463e-01 -1.792969852685928345e-01 9.420353174209594727e-02 1.683012768626213074e-02 6.110127270221710205e-02 -1.834400147199630737e-01 5.629544332623481750e-02 7.437860965728759766e-02 3.469983860850334167e-02 9.957461804151535034e-02 -1.424490213394165039e-01 1.928151696920394897e-01 1.848442256450653076e-01 -1.878065466880798340e-01 8.278928697109222412e-03 1.550119221210479736e-01 -1.798109114170074463e-01 1.156659051775932312e-01 2.399110943078994751e-01 1.916315853595733643e-01 2.550556361675262451e-01 1.810414046049118042e-01 1.340381205081939697e-01 1.287758946418762207e-01 -1.354639069177210331e-03 1.736555546522140503e-01 2.292661368846893311e-01 1.313783526420593262e-01 3.909527510404586792e-02 1.334122270345687866e-01 7.502038776874542236e-02 1.555647253990173340e-01 -2.415757924318313599e-01 4.082271084189414978e-02 -1.342959403991699219e-01 2.232893109321594238e-01 -1.648002415895462036e-01 1.582214087247848511e-01 2.558334171772003174e-01 2.410035580396652222e-01 1.891341209411621094e-01 1.666631251573562622e-01 2.340373992919921875e-01 8.964501321315765381e-02 -1.847420483827590942e-01 1.516727060079574585e-01 1.205229684710502625e-01 2.861756682395935059e-01 -2.193914055824279785e-01 -2.052268385887145996e-01 1.519879102706909180e-01 2.141591012477874756e-01 2.358397394418716431e-01 5.094260349869728088e-02 2.139043435454368591e-02 -6.330598145723342896e-02 -8.549732714891433716e-02
-1.237168684601783752e-01 1.668190956115722656e-01 1.045315805822610855e-02 -2.344199717044830322e-01 -2.139956690371036530e-02 1.335294946329668164e-04 1.710153967142105103e-01 1.750812679529190063e-01 7.544501125812530518e-02 -2.335311621427536011e-01 -1.390387117862701416e-01 1.616650521755218506e-01 3.877431899309158325e-02 -7.736453320831060410e-03 1.118615269660949707e-01 -1.048823669552803040e-01 2.864587903022766113e-01 -2.287645637989044189e-02 -7.892177999019622803e-02 -7.409712299704551697e-03 -1.464711129665374756e-01 2.043622136116027832e-01 1.386074125766754150e-01 1.543539911508560181e-01 1.091079637408256531e-01 -1.193777173757553101e-01 -9.110587835311889648e-02 -1.110851392149925232e-01 6.645163893699645996e-02 -1.777938008308410645e-01 -8.713455498218536377e-02 -2.357850968837738037e-01 -2.023631036281585693e-01 1.595304012298583984e-01 -7.523984462022781372e-02 1.238837391138076782e-01 -6.936226971447467804e-03 2.421540170907974243e-01 1.800434291362762451e-01 -3.179648146033287048e-02 2.584388852119445801e-02 -5.938637629151344299e-02 -9.437327273190021515e-03 7.190215587615966797e-02 -2.635654509067535400e-01 -8.111660182476043701e-02 1.275426745414733887e-01 2.310198992490768433e-01 -2.019807398319244385e-01 2.208415120840072632e-01 -1.479873061180114746e-01 1.581981331110000610e-01 -1.673491150140762329e-01 -3.147843182086944580e-01 -2.644292712211608887e-01 -1.131105273962020874e-01 -8.056055009365081787e-02 -1.739221997559070587e-02 -1.719318628311157227e-01 -1.774321496486663818e-01 -6.400026381015777588e-02 -2.515588104724884033e-01 1.252149511128664017e-02 8.265365660190582275e-02 -1.241662576794624329e-01 -1.872696131467819214e-01 2.385637164115905762e-01 1.676159650087356567e-01 -1.468493491411209106e-01 -1.379836052656173706e-01 -1.858914494514465332e-01 -2.222469896078109741e-01 9.103431552648544312e-02 1.779473274946212769e-01 -1.629580855369567871e-01 8.748269081115722656e-02 5.642931908369064331e-02 -1.015450060367584229e-01 -1.530250310897827148e-01 -2.494270503520965576e-01 -2.891892194747924805e-02 2.366083487868309021e-02 -8.719817548990249634e-02 1.528836637735366821e-01 2.145431190729141235e-01 -2.360349893569946289e-01 -2.643744461238384247e-02 1.124324500560760498e-01 2.113646268844604492e-01 -1.650846302509307861e-01 -1.763082891702651978e-01 -6.968329846858978271e-02 -7.713052630424499512e-02 2.014582008123397827e-01 2.108006328344345093e-01 1.575150340795516968e-01 1.357801407575607300e-01 -7.642507553100585938e-02 8.059385418891906738e-02 -2.134464085102081299e-01 -1.308525167405605316e-02 -1.459047645330429077e-01 4.560783877968788147e-02 -2.224553376436233521e-01 -4.161523282527923584e-02 -1.196364033967256546e-02 1.927449852228164673e-01 1.305843144655227661e-01 -2.341519445180892944e-01
2.095259577035903931e-01 -2.292328327894210815e-01 -1.488595604896545410e-01 8.198769390583038330e-02 -2.685231566429138184e-01 -1.401496082544326782e-01 1.509273350238800049e-01 -2.244850397109985352e-01 5.942209810018539429e-02 6.191471964120864868e-02 9.948871284723281860e-02 4.172997549176216125e-02 -5.747119337320327759e-02 6.332400441169738770e-02 1.778699755668640137e-01 -9.217853657901287079e-03 -2.221121639013290405e-01 -1.064762920141220093e-01 6.540906429290771484e-02 7.256775349378585815e-02 1.526300162076950073e-01 5.640495941042900085e-02 -1.407909989356994629e-01 2.347315400838851929e-01 -8.560928702354431152e-02 4.872960504144430161e-03 -2.678361907601356506e-02 -2.516197562217712402e-01 -1.893343329429626465e-01 -2.184836268424987793e-01 1.862390935420989990e-01 -2.193390950560569763e-02 -1.759772896766662598e-01 9.420731663703918457e-02 1.050953269004821777e-01 -6.966677494347095490e-03 -1.408998817205429077e-01 6.219648197293281555e-02 -2.331434749066829681e-03 -5.308944359421730042e-02 -2.306776344776153564e-01 6.076514720916748047e-02 9.462554752826690674e-02 6.014656275510787964e-02 -1.499616503715515137e-01 1.345374584197998047e-01 -2.685340642929077148e-01 -7.938240468502044678e-02 9.910563379526138306e-02 -2.394073009490966797e-01 1.720412969589233398e-01 -1.324981451034545898e-01 -1.227419674396514893e-01 5.906897410750389099e-02 -4.862528294324874878e-02 1.276918500661849976e-01 -1.843717396259307861e-01 -1.173344030976295471e-01 1.419230699539184570e-01 1.118637695908546448e-01 2.510943114757537842e-01 2.421716004610061646e-01 -2.142216116189956665e-01 7.257679849863052368e-02 -1.966893672943115234e-01 -1.079145520925521851e-01 2.588870525360107422e-01 -1.605378650128841400e-02 -3.230535984039306641e-02 1.549438983201980591e-01 7.602979987859725952e-02 -1.214236021041870117e-01 -9.785905480384826660e-02 6.277524679899215698e-02 -5.885795690119266510e-03 -8.548507466912269592e-04 -6.420519202947616577e-02 8.801548182964324951e-02 -1.918191462755203247e-01 8.938688784837722778e-03 2.373623847961425781e-01 2.317935414612293243e-02 9.556004405021667480e-02 -3.842889890074729919e-02 2.955803573131561279e-01 -2.250927835702896118e-01 -4.348931461572647095e-02 -2.622473984956741333e-02 -2.017444372177124023e-01 1.563851237297058105e-01 3.404258564114570618e-02 -1.473834812641143799e-01 8.433449268341064453e-02 -2.172411084175109863e-01 -6.076243519783020020e-02 6.383110582828521729e-02 2.189488559961318970e-01 1.944757439196109772e-02 6.601730734109878540e-02 -2.063094228506088257e-01 -2.824208438396453857e-01 3.842113167047500610e-02 -1.527746617794036865e-01 -1.512977778911590576e-01 6.336242705583572388e-02 3.316530957818031311e-02 -1.675257533788681030e-01 -1.916978210210800171e-01 -1.717379987239837646e-01
-4.342598840594291687e-02 -1.412497311830520630e-01 -1.357214525341987610e-02 2.579022943973541260e-01 -2.209792286157608032e-01 1.872653840109705925e-03 1.235692948102951050e-01 7.572573423385620117e-02 2.115041464567184448e-01 1.309695243835449219e-01 1.868329197168350220e-01 -1.102458909153938293e-01 -1.023857891559600830e-01 2.153875827789306641e-01 -4.401515051722526550e-02 4.501854255795478821e-02 -1.559759378433227539e-01 6.795764714479446411e-02 1.155040115118026733e-01 1.749921739101409912e-01 1.446987092494964600e-01 -2.003868073225021362e-01 -1.266637146472930908e-01 -2.450525909662246704e-01 -6.544642895460128784e-02 1.623695939779281616e-01 2.285558432340621948e-01 -1.154986098408699036e-01 1.774287670850753784e-01 2.186190187931060791e-01 -2.276881784200668335e-01 1.466547884047031403e-02 8.820134215056896210e-03 5.900159850716590881e-02 -1.706386357545852661e-01 -2.560322582721710205e-01 1.028732582926750183e-01 1.594830751419067383e-01 2.160776853561401367e-01 5.473854765295982361e-02 5.604114755988121033e-02 -2.206627875566482544e-01 1.172811537981033325e-01 -2.298652231693267822e-01 -1.889672875404357910e-01 -5.276288837194442749e-03 -5.255307257175445557e-02 1.528664082288742065e-01 1.652031689882278442e-01 -4.483510181307792664e-02 1.297070980072021484e-01 5.480692163109779358e-02 1.810999214649200439e-01 -2.398615926504135132e-01 -1.744134426116943359e-01 1.521472930908203125e-01 2.148183584213256836e-01 -1.098156943917274475e-01 2.210447341203689575e-01 -2.826217003166675568e-02 -1.852007210254669189e-01 -6.286972761154174805e-02 -2.197521328926086426e-01 1.187971308827400208e-01 6.060475111007690430e-02 9.873460233211517334e-02 -1.235952898859977722e-01 -1.186191961169242859e-01 -2.441562479361891747e-03 8.562668412923812866e-02 1.100800186395645142e-01 1.202250830829143524e-02 1.449712067842483521e-01 -2.276154458522796631e-01 -2.366630584001541138e-01 -2.351925969123840332e-01 -6.271495670080184937e-02 6.822195718996226788e-04 -1.497421562671661377e-01 -5.402755364775657654e-02 -2.111359536647796631e-01 1.678763031959533691e-01 -8.690424263477325439e-02 2.000337988138198853e-01 -4.630589112639427185e-02 -1.176611334085464478e-01 -4.550934955477714539e-02 -1.633654348552227020e-02 -1.215919107198715210e-01 3.071855567395687103e-02 1.426527500152587891e-01 2.159029692411422729e-01 1.716339141130447388e-01 -9.816318005323410034e-02 1.059458255767822266e-01 1.709344238042831421e-01 1.111557856202125549e-01 8.861036598682403564e-02 6.731949001550674438e-02 -1.552670747041702271e-01 -8.813179284334182739e-02 1.578353196382522583e-01 -1.069946493953466415e-02 4.944384843111038208e-02 -1.975382119417190552e-01 1.564263552427291870e-01 3.318802639842033386e-02 8.630319684743881226e-02 -4.349406342953443527e-03
1.907845288515090942e-01 4.414583370089530945e-02 3.566808765754103661e-03 -8.112648129463195801e-02 -2.747135469689965248e-03 -6.074005737900733948e-02 -1.217369511723518372e-01 -1.496158689260482788e-01 -2.250341176986694336e-01 -2.321484982967376709e-01 -1.718263179063796997e-01 -7.147930562496185303e-03 7.551099359989166260e-02 -1.201269924640655518e-01 -2.281664758920669556e-01 1.631813496351242065e-01 -2.286646366119384766e-01 -1.557955890893936157e-01 1.223162487149238586e-01 -2.192374318838119507e-01 -1.492672562599182129e-01 -3.300380334258079529e-02 -1.654761582612991333e-01 -4.152880236506462097e-02 -1.465271133929491043e-02 -3.484579175710678101e-02 -2.417953498661518097e-02 1.027427017688751221e-01 3.846747335046529770e-03 -1.392933279275894165e-01 -1.197412237524986267e-01 -2.025026381015777588e-01 1.784567534923553467e-02 1.209415569901466370e-01 1.071778982877731323e-01 -2.649988047778606415e-03 -1.244470551609992981e-01 4.587539657950401306e-02 1.494175344705581665e-01 -7.348225265741348267e-02 2.068402171134948730e-01 1.455626785755157471e-01 -1.765559166669845581e-01 -1.156085357069969177e-01 -1.773532032966613770e-01 -1.642402857542037964e-01 -9.558246284723281860e-02 -1.611755490303039551e-01 8.741959929466247559e-02 -2.144038304686546326e-02 7.063265889883041382e-02 -1.595147550106048584e-01 -7.435227185487747192e-02 -1.259136348962783813e-01 -1.118109151721000671e-01 -2.113611400127410889e-01 -1.709292382001876831e-01 7.621379941701889038e-02 5.784689262509346008e-02 7.690391689538955688e-02 -2.356268912553787231e-01 1.327693462371826172e-01 -1.589396446943283081e-01 -7.093448191881179810e-02 -2.120004594326019287e-01 -2.185539901256561279e-01 -1.225425526499748230e-01 -1.595935970544815063e-01 1.208134964108467102e-01 -1.525349467992782593e-01 2.077311575412750244e-01 -4.438797477632761002e-03 -1.624944657087326050e-01 -7.341901957988739014e-02 1.580360233783721924e-01 -1.947422772645950317e-01 1.717694550752639771e-01 1.512055248022079468e-01 -8.727518469095230103e-02 -3.381781280040740967e-02 -2.961661666631698608e-02 -4.371398687362670898e-02 -8.447793871164321899e-02 8.215457201004028320e-02 6.951452232897281647e-03 -1.501123905181884766e-01 -2.130382359027862549e-01 -1.493736952543258667e-01 1.106729581952095032e-01 -3.382818400859832764e-02 2.098803222179412842e-01 -9.488961100578308105e-02 3.731933608651161194e-02 -8.751167356967926025e-02 -1.695145852863788605e-03 -2.017300575971603394e-01 1.547486037015914917e-01 -2.072442471981048584e-01 3.715579584240913391e-02 4.895159974694252014e-02 1.662519387900829315e-02 9.244090318679809570e-02 -2.655230090022087097e-02 4.152840003371238708e-02 1.010490804910659790e-01 1.127003282308578491e-01 3.391762450337409973e-02 6.738955527544021606e-02 -1.620817780494689941e-01
