-1.403339207172393799e-02 4.429980181157588959e-03 1.730921566486358643e-01 1.399819850921630859e-01 1.011125594377517700e-01 1.465766280889511108e-01 8.300475776195526123e-02 1.304824799299240112e-01 1.122290864586830139e-01 -9.503746777772903442e-02 -1.754293888807296753e-01 -3.975184261798858643e-02 4.951808974146842957e-02 9.095487743616104126e-02 8.310689032077789307e-02 -1.666123867034912109e-01 -9.054285474121570587e-03 7.954647392034530640e-02 -1.087553985416889191e-02 3.619772940874099731e-02 9.090980887413024902e-02 2.471708133816719055e-02 -2.684985473752021790e-02 1.863058470189571381e-02 9.613484889268875122e-02 -1.450289785861968994e-01 -8.185540139675140381e-02 1.981683820486068726e-02 3.366447985172271729e-02 6.914199888706207275e-02 6.745730340480804443e-02 4.172681272029876709e-02 -1.158663704991340637e-01 1.251517385244369507e-01 9.052642434835433960e-02 7.084143906831741333e-02 -7.624793797731399536e-02 1.296032369136810303e-01 1.485301256179809570e-01 6.589926034212112427e-02 1.612731218338012695e-01 -5.517226085066795349e-02 -1.026479303836822510e-01 -1.363285481929779053e-01 1.584255397319793701e-01 -1.782787218689918518e-02 3.872419521212577820e-02 9.577460587024688721e-02 -9.236443042755126953e-02 1.267322301864624023e-01 1.232651919126510620e-01 3.649775311350822449e-02 9.496828168630599976e-02 -1.424284875392913818e-01 1.519728600978851318e-01 2.713409252464771271e-02 -1.792158745229244232e-02 1.223647966980934143e-01 2.041923627257347107e-02 1.106704100966453552e-01 -1.158900931477546692e-01 -9.168178588151931763e-02 -3.548614215105772018e-03 -6.248382106423377991e-02 9.898071736097335815e-02 1.252735108137130737e-01 3.084687888622283936e-02 1.012295410037040710e-01 -9.026578813791275024e-02 -1.166366692632436752e-02 1.252847015857696533e-01 1.803955286741256714e-01 -4.837702959775924683e-02 1.279344111680984497e-01 1.079109385609626770e-01 -9.812260419130325317e-02 1.042139437049627304e-02 -1.028555184602737427e-01 1.534982174634933472e-01 -1.158384680747985840e-01 -8.051294833421707153e-02 1.573759764432907104e-01 -2.166165225207805634e-02 1.265947967767715454e-01 -1.525179743766784668e-01 -8.237595111131668091e-02 1.448382437229156494e-01 -7.450592517852783203e-02 -1.428339183330535889e-01 6.882996112108230591e-02 1.296360343694686890e-01 -7.849703729152679443e-02 -5.793197825551033020e-02 -6.940852850675582886e-02 -1.209002360701560974e-01 -1.251512318849563599e-01 -7.925663143396377563e-02 -1.142508536577224731e-01 9.092811495065689087e-02 -1.452308446168899536e-01 -4.388510808348655701e-02 -1.439380198717117310e-01 -1.121926773339509964e-02 -1.275544315576553345e-01 -2.992346882820129395e-02 -1.214364692568778992e-01 3.522464074194431305e-03 2.449797652661800385e-02 5.896367877721786499e-02
-3.325121477246284485e-02 -7.409261912107467651e-02 -6.177630741149187088e-03 8.311507105827331543e-02 3.807575255632400513e-02 -1.156487315893173218e-01 1.336167901754379272e-01 2.525936253368854523e-02 6.754892319440841675e-02 1.214112788438796997e-01 1.333052366971969604e-01 3.010055050253868103e-02 -1.476283669471740723e-01 1.638958454132080078e-01 -8.927878225222229958e-04 -2.140107899904251099e-01 -1.249982640147209167e-01 1.705297678709030151e-01 -2.765282290056347847e-03 -7.795498520135879517e-02 -1.187402606010437012e-01 1.288781128823757172e-02 -4.317342245485633612e-04 5.828393250703811646e-02 -3.836159780621528625e-02 5.786313116550445557e-02 8.909762650728225708e-02 6.732527911663055420e-02 3.316032513976097107e-02 -4.970255866646766663e-02 1.933931373059749603e-02 -1.337140053510665894e-02 1.241865754127502441e-01 1.717353463172912598e-01 -5.141070857644081116e-02 2.081801444292068481e-01 9.794910997152328491e-02 1.300582736730575562e-01 -1.615258902311325073e-01 8.859913051128387451e-02 -1.673711538314819336e-01 6.797842681407928467e-02 4.745889082551002502e-02 3.988707065582275391e-02 1.347415596246719360e-01 -1.146803144365549088e-02 1.132672652602195740e-01 1.060666963458061218e-01 7.748350501060485840e-02 1.876624226570129395e-01 -1.219178363680839539e-01 9.999638795852661133e-02 -8.768269419670104980e-02 8.364832401275634766e-02 -1.434389501810073853e-01 4.912527650594711304e-02 2.661368437111377716e-02 -2.610238455235958099e-02 -1.430479884147644043e-01 -1.719376891851425171e-01 9.989647567272186279e-02 -1.276929676532745361e-01 1.816774308681488037e-01 1.330480128526687622e-01 1.235121712088584900e-01 9.323579818010330200e-02 -6.497059017419815063e-02 -8.506881445646286011e-02 1.706024557352066040e-01 5.514211580157279968e-02 -1.597619988024234772e-02 5.212702602148056030e-02 1.248068735003471375e-01 -3.462070599198341370e-02 -2.967101708054542542e-02 5.412963032722473145e-02 -1.608307957649230957e-01 -3.431231528520584106e-02 3.274968266487121582e-02 8.031199127435684204e-02 7.905492931604385376e-02 -1.114811003208160400e-01 -6.398835778236389160e-02 5.648136138916015625e-02 1.333764344453811646e-01 2.792320447042584419e-03 1.298103034496307373e-01 -6.456920504570007324e-02 9.898500889539718628e-02 6.049724668264389038e-02 -6.572955101728439331e-02 -1.187063679099082947e-01 -1.757965981960296631e-02 1.993655227124691010e-02 3.050760552287101746e-02 -6.582484394311904907e-02 8.120561391115188599e-02 1.854335814714431763e-01 -8.374322205781936646e-02 -1.235566884279251099e-01 1.161253526806831360e-01 1.418097168207168579e-01 -3.661436960101127625e-02 -2.345493435859680176e-02 1.190482899546623230e-01 3.651100769639015198e-02 -3.357103839516639709e-02 1.050733253359794617e-01 1.334542185068130493e-01
-7.816341519355773926e-02 -1.806245893239974976e-01 1.293321549892425537e-01 4.998224601149559021e-02 1.441109832376241684e-02 -7.144684344530105591e-02 1.016046255826950073e-01 -7.679212093353271484e-02 3.388199955224990845e-03 6.150338798761367798e-02 1.235761120915412903e-01 -8.328524231910705566e-02 -4.462151974439620972e-02 1.200464665889739990e-01 9.230536222457885742e-02 -3.864005580544471741e-02 -2.102006226778030396e-02 1.350941658020019531e-01 8.209712058305740356e-02 -1.635306030511856079e-01 -1.393027156591415405e-01 -9.301999211311340332e-02 6.189448013901710510e-02 9.151697158813476562e-02 2.391093410551548004e-02 -1.612995862960815430e-01 -3.928607329726219177e-02 1.157364398241043091e-01 -2.717228420078754425e-02 -1.140780746936798096e-01 -7.744659483432769775e-02 -2.849244885146617889e-02 -1.354582011699676514e-01 -1.499057710170745850e-01 2.022800967097282410e-02 -9.940581023693084717e-02 -8.978329598903656006e-02 -8.591732010245323181e-03 -1.331867999397218227e-03 -1.436029560863971710e-02 -8.656912832520902157e-04 -5.902816355228424072e-02 1.190275996923446655e-01 -1.073490828275680542e-01 5.380764231085777283e-02 -3.255512937903404236e-02 5.687652155756950378e-03 -1.214664205908775330e-01 1.519454526714980602e-03 -8.865169435739517212e-02 1.439714729785919189e-01 1.492967829108238220e-02 5.060061067342758179e-02 -1.571400463581085205e-02 6.745215505361557007e-02 -6.205970793962478638e-02 1.018688827753067017e-01 -1.055847555398941040e-01 2.594282478094100952e-02 1.090322658419609070e-01 -8.747534453868865967e-02 -1.726210564374923706e-01 -4.287780076265335083e-02 1.330372989177703857e-01 3.744609188288450241e-03 1.639183908700942993e-01 8.763222396373748779e-02 9.737093746662139893e-02 -1.188778132200241089e-01 -4.586458951234817505e-02 -8.992403745651245117e-02 -8.924125134944915771e-02 4.453509300947189331e-02 1.651836484670639038e-01 4.992640390992164612e-02 3.317582234740257263e-02 -1.380938142538070679e-01 1.276113986968994141e-01 6.719169765710830688e-02 -1.347044557332992554e-01 1.214141920208930969e-01 -1.345746964216232300e-01 1.271539628505706787e-01 3.909858316183090210e-02 -1.405444443225860596e-01 -1.528779696673154831e-02 -1.845018379390239716e-02 -2.113511227071285248e-02 -5.241648480296134949e-02 -1.614059358835220337e-01 1.043974831700325012e-01 1.431687325239181519e-01 -7.386209815740585327e-02 -1.066768541932106018e-02 -1.238786149770021439e-02 1.420645862817764282e-01 3.886321932077407837e-02 -1.570502817630767822e-01 1.131302714347839355e-01 -8.288174122571945190e-02 -5.760949105024337769e-02 -1.877197064459323883e-02 8.143219351768493652e-02 -1.176318619400262833e-02 -1.938180997967720032e-02 -3.831617906689643860e-02 1.496508419513702393e-01 3.785343840718269348e-02 3.351062908768653870e-02
1.546855419874191284e-01 3.686696290969848633e-02 4.907597228884696960e-02 3.903895150870084763e-03 -4.298608750104904175e-02 -7.042870670557022095e-02 -7.722238451242446899e-02 1.480622440576553345e-01 -8.834011852741241455e-02 9.983392059803009033e-02 1.469037979841232300e-01 -1.510786414146423340e-01 -1.193194985389709473e-01 1.327111124992370605e-01 -7.161080837249755859e-02 -2.021855413913726807e-01 2.231333591043949127e-02 1.740236133337020874e-01 1.556870043277740479e-01 6.090682372450828552e-02 7.895178347826004028e-02 1.588471531867980957e-01 -9.663239121437072754e-02 6.753048393875360489e-03 -1.092423796653747559e-01 -7.916915416717529297e-02 -4.609571024775505066e-02 -1.640687733888626099e-01 1.292810738086700439e-01 -1.622353196144104004e-01 1.447037458419799805e-01 -1.037697345018386841e-01 -6.668151170015335083e-02 -7.259673904627561569e-03 6.764167547225952148e-02 1.856990605592727661e-01 -7.706265896558761597e-02 -2.820153534412384033e-02 -8.180551975965499878e-02 -1.364475190639495850e-01 -1.594487763941287994e-02 1.012095063924789429e-01 1.361485570669174194e-01 -1.358171999454498291e-01 4.812574014067649841e-02 1.401378363370895386e-01 4.473891481757164001e-02 -1.919212006032466888e-02 -5.732326302677392960e-03 6.118503957986831665e-02 -5.697337910532951355e-02 2.963680587708950043e-02 3.242934495210647583e-02 -4.073062911629676819e-02 1.155834719538688660e-01 -9.993606805801391602e-02 -5.516064539551734924e-02 -4.628081806004047394e-03 2.388548292219638824e-02 -1.796121746301651001e-01 6.587933003902435303e-02 1.293789744377136230e-01 8.245969563722610474e-02 1.712334752082824707e-01 -5.000653490424156189e-02 5.370996147394180298e-02 4.307394474744796753e-02 -1.372845917940139771e-01 -4.995508119463920593e-02 -1.201866120100021362e-01 -7.640935014933347702e-03 1.417317241430282593e-01 9.579797089099884033e-02 2.080180216580629349e-03 4.036829993128776550e-02 -7.877671718597412109e-02 -2.900489978492259979e-02 -7.585683465003967285e-02 6.516169756650924683e-02 -1.802996546030044556e-02 1.631219983100891113e-01 -1.359115820378065109e-02 2.918164804577827454e-02 -6.362029165029525757e-02 8.976874500513076782e-02 1.541817560791969299e-03 7.754376530647277832e-02 1.281951218843460083e-01 -1.050373315811157227e-01 -1.104184165596961975e-01 1.127955392003059387e-01 1.657084822654724121e-01 8.449953794479370117e-02 1.529406756162643433e-01 7.119331508874893188e-02 4.258004948496818542e-02 1.620466113090515137e-01 -4.181993380188941956e-02 -6.649167835712432861e-02 6.091448664665222168e-02 9.980949759483337402e-02 -9.511921554803848267e-02 1.995799541473388672e-01 -9.378417395055294037e-03 -8.171272277832031250e-02 -1.455458849668502808e-01 6.069681420922279358e-02 -1.343261897563934326e-01 -1.015757620334625244e-01
9.639609605073928833e-02 7.681406289339065552e-02 -3.534855321049690247e-03 1.024971976876258850e-01 1.888222843408584595e-01 -1.673830151557922363e-01 1.205567866563796997e-01 6.580960005521774292e-02 -9.065825492143630981e-02 -1.312796771526336670e-01 1.904753223061561584e-02 1.157527565956115723e-01 -1.904618926346302032e-02 1.016997545957565308e-01 -3.113735874649137259e-05 6.978735327720642090e-02 -1.319212317466735840e-01 1.147579774260520935e-01 -3.927317634224891663e-02 5.502414703369140625e-02 9.331332892179489136e-02 6.762018054723739624e-02 2.006006240844726562e-02 1.190406084060668945e-01 1.334318071603775024e-01 -8.953466266393661499e-02 7.553606480360031128e-02 5.751867592334747314e-02 -5.507760122418403625e-02 1.082672849297523499e-01 -1.165647357702255249e-01 4.595701396465301514e-02 -1.484310477972030640e-01 1.071898490190505981e-01 1.352287232875823975e-01 -8.624517917633056641e-02 -1.453130543231964111e-01 8.504202589392662048e-03 -3.538816422224044800e-02 -1.203373745083808899e-01 -1.278776824474334717e-01 1.141179949045181274e-01 7.017505168914794922e-02 -3.473725169897079468e-02 -1.634696871042251587e-01 -1.155079528689384460e-02 -1.226315423846244812e-01 -4.097800701856613159e-03 -4.337017983198165894e-02 3.998659178614616394e-02 -3.384934039786458015e-03 1.632249653339385986e-01 -1.753319352865219116e-01 1.363923251628875732e-01 -1.582135707139968872e-01 7.790398597717285156e-02 1.697374433279037476e-01 1.808816045522689819e-01 1.124575957655906677e-01 -6.545507907867431641e-02 -8.462016470730304718e-03 -1.319741010665893555e-01 -2.387347258627414703e-02 -1.220030188560485840e-01 -1.455640941858291626e-01 1.435972750186920166e-01 -2.246009744703769684e-02 -6.617344170808792114e-02 1.690262183547019958e-02 -1.337817907333374023e-01 7.920583337545394897e-02 1.588034778833389282e-01 1.517301648855209351e-01 9.534621238708496094e-02 3.123232722282409668e-02 5.914959684014320374e-02 -1.565756350755691528e-01 -7.547558844089508057e-02 -1.380641162395477295e-01 8.881429582834243774e-02 -1.922558546066284180e-01 -4.003387689590454102e-02 1.394879072904586792e-01 -3.299196437001228333e-02 8.535225689411163330e-02 1.417391002178192139e-01 8.858629316091537476e-02 5.997886136174201965e-02 -5.112633854150772095e-02 -6.457736343145370483e-02 1.261852383613586426e-01 1.201182454824447632e-01 -1.632551699876785278e-01 3.744990751147270203e-02 -9.379757940769195557e-02 1.241128742694854736e-01 6.901080906391143799e-02 -1.821484044194221497e-02 1.572814434766769409e-01 1.638177037239074707e-01 9.576836228370666504e-02 8.759114891290664673e-03 -1.041643470525741577e-01 -1.734736748039722443e-02 1.364724487066268921e-01 -1.164580285549163818e-01 1.731893122196197510e-01 5.607305839657783508e-02 -1.098264008760452271e-01
9.643650799989700317e-02 1.808838546276092529e-01 -1.194863766431808472e-01 5.161238461732864380e-02 1.440188102424144745e-02 1.104575619101524353e-01 -6.749112159013748169e-02 1.190845072269439697e-01 1.671639233827590942e-01 -1.137701049447059631e-01 -1.000461429357528687e-01 -1.492772549390792847e-01 -3.924088925123214722e-02 -1.572393476963043213e-01 -7.202412188053131104e-02 6.504324078559875488e-02 1.572608947753906250e-01 6.631241738796234131e-02 -9.803176671266555786e-02 5.111062899231910706e-02 -1.195398941636085510e-01 3.982064500451087952e-02 1.181547194719314575e-01 1.455359607934951782e-01 -1.057338342070579529e-01 -1.851138658821582794e-02 -4.536052420735359192e-02 -1.713554561138153076e-01 1.237831488251686096e-01 1.235242635011672974e-01 -1.110924407839775085e-03 -6.844749301671981812e-02 -3.459106385707855225e-02 -1.626367680728435516e-02 -2.063152380287647247e-02 -5.019461363554000854e-02 -3.748473897576332092e-02 -1.354390084743499756e-01 1.629683524370193481e-01 1.776274144649505615e-01 -8.894121646881103516e-02 7.960855960845947266e-02 -1.729917675256729126e-01 1.031080335378646851e-01 6.546086072921752930e-02 7.479982450604438782e-03 7.695119082927703857e-02 -1.326486170291900635e-01 4.226982593536376953e-02 1.767836362123489380e-01 1.233585104346275330e-01 5.046252533793449402e-02 -6.716691888868808746e-03 -1.362093389034271240e-01 -8.410623669624328613e-02 6.359820812940597534e-02 -5.149037390947341919e-02 1.590385735034942627e-01 -5.969592928886413574e-02 -5.639356747269630432e-02 -1.551028788089752197e-01 1.331025511026382446e-01 1.330170035362243652e-01 -6.940014660358428955e-02 -4.596626013517379761e-02 1.098477020859718323e-01 1.375195533037185669e-01 4.054924845695495605e-02 -2.561678923666477203e-02 1.263484507799148560e-01 -1.588665693998336792e-01 -6.996195763349533081e-02 2.300172671675682068e-02 -1.587126404047012329e-01 1.259143650531768799e-01 -7.257066667079925537e-02 1.456159949302673340e-01 1.781837344169616699e-01 3.212238848209381104e-02 1.203708127140998840e-01 1.028910279273986816e-01 1.122128739953041077e-01 -8.577953279018402100e-02 5.893778987228870392e-03 6.463372707366943359e-02 -1.317437440156936646e-01 -4.966755956411361694e-02 -6.879853457212448120e-02 -2.871757559478282928e-02 -1.019183918833732605e-01 1.482244729995727539e-01 1.479711499996483326e-07 3.809359297156333923e-02 4.467837978154420853e-03 8.662618696689605713e-02 -1.335033774375915527e-01 7.917628437280654907e-02 1.000609025359153748e-01 1.062822341918945312e-01 -1.439295113086700439e-01 -1.165143996477127075e-01 -1.396812051534652710e-01 8.311533927917480469e-02 -1.398610603064298630e-02 5.811705440282821655e-02 5.205025896430015564e-02 -8.091409504413604736e-02 5.906670703552663326e-04 -3.087930940091609955e-02
9.424475580453872681e-02 6.602515280246734619e-02 6.887879222631454468e-02 7.860659807920455933e-02 4.991279169917106628e-02 1.042772382497787476e-01 1.823176741600036621e-01 -9.794384241104125977e-02 1.602113991975784302e-01 -1.149047538638114929e-02 -1.724139153957366943e-01 1.345473229885101318e-01 8.634840697050094604e-02 -1.571545563638210297e-02 -1.363792866468429565e-01 8.262818306684494019e-02 -1.246929541230201721e-01 3.786260960623621941e-03 -1.231738552451133728e-01 3.186360374093055725e-02 7.848241925239562988e-02 -1.292107105255126953e-01 1.085868924856185913e-01 -8.210294693708419800e-02 -2.383131906390190125e-02 1.277765631675720215e-01 7.129560410976409912e-02 -1.047659739851951599e-01 -4.991855472326278687e-02 -2.222854085266590118e-02 1.347330212593078613e-01 1.452193111181259155e-01 -1.236210092902183533e-01 -6.592405587434768677e-02 -1.528508812189102173e-01 -1.749646966345608234e-03 1.088842749595642090e-01 9.051736444234848022e-02 -2.745940536260604858e-02 -1.775127649307250977e-01 1.513338927179574966e-02 -3.821564838290214539e-02 5.293718352913856506e-02 -1.307370364665985107e-01 1.875898987054824829e-02 6.871816702187061310e-03 -1.415446698665618896e-01 3.487767279148101807e-02 1.473902631551027298e-02 -1.351425796747207642e-01 1.229243949055671692e-01 6.391361355781555176e-02 -1.240614801645278931e-01 5.142964050173759460e-02 1.088644713163375854e-01 -8.562382310628890991e-02 1.068850904703140259e-01 8.389274775981903076e-02 -2.242333814501762390e-02 6.971387192606925964e-03 -1.762442886829376221e-01 1.185707598924636841e-01 9.110157191753387451e-02 5.179569870233535767e-02 1.236703395843505859e-01 -1.766899377107620239e-01 2.111352235078811646e-02 1.490008234977722168e-01 -4.784011468291282654e-02 -3.124396130442619324e-02 5.027342587709426880e-02 -1.239621788263320923e-01 -1.046668365597724915e-01 -1.197889745235443115e-01 -4.509893432259559631e-02 1.432007402181625366e-01 1.537200808525085449e-02 1.357507705688476562e-02 -2.658124268054962158e-02 1.614551395177841187e-01 -1.119271591305732727e-01 1.448815762996673584e-01 8.245053142309188843e-02 9.467290341854095459e-02 -8.184139430522918701e-02 -6.317715160548686981e-03 -4.837947338819503784e-02 3.200316056609153748e-02 -1.421565711498260498e-01 -1.169324070215225220e-01 5.611442402005195618e-02 -7.520715892314910889e-02 -1.135948002338409424e-01 -8.883312344551086426e-03 -2.636785805225372314e-02 -1.580728292465209961e-01 1.319584902375936508e-02 1.193581074476242065e-01 1.223351731896400452e-01 6.410640664398670197e-03 -6.899959407746791840e-03 -1.365060061216354370e-01 -1.024816632270812988e-01 -7.983651012182235718e-02 3.875326365232467651e-02 2.150770276784896851e-02 1.156272366642951965e-01 1.150548681616783142e-01 -7.337268907576799393e-03
-3.024051897227764130e-02 6.369646638631820679e-02 -1.260921508073806763e-01 1.565214246511459351e-01 2.521824464201927185e-02 1.864597550593316555e-03 5.324031040072441101e-02 -2.358916215598583221e-03 1.354382336139678955e-01 9.312598407268524170e-02 6.640363484621047974e-02 -1.189142838120460510e-01 -6.574731320142745972e-02 -4.432218149304389954e-02 1.263503730297088623e-01 7.465676218271255493e-02 -6.220603734254837036e-02 1.094897687435150146e-01 1.158600971102714539e-01 1.620600670576095581e-01 -2.564247511327266693e-02 1.219621896743774414e-01 1.051069982349872589e-02 -4.805387184023857117e-02 -6.892013549804687500e-02 -1.332328766584396362e-01 -6.897859275341033936e-02 9.667263925075531006e-02 -9.935223497450351715e-03 1.119493097066879272e-01 8.726203441619873047e-02 1.690285354852676392e-01 -9.266290068626403809e-02 7.733449339866638184e-02 -7.055343687534332275e-02 -3.109377576038241386e-03 6.847023498266935349e-03 -2.185255661606788635e-02 1.126184836030006409e-01 1.435373127460479736e-01 -1.419765949249267578e-01 -1.286186557263135910e-02 8.679713308811187744e-02 -2.619254402816295624e-02 -7.239226251840591431e-02 -1.277813613414764404e-01 -1.307136714458465576e-01 -1.252454966306686401e-01 1.157430782914161682e-01 -1.253447867929935455e-02 1.481969356536865234e-01 4.146996885538101196e-02 -8.198957890272140503e-02 1.791112124919891357e-01 1.648941487073898315e-01 1.117616519331932068e-02 -5.276078358292579651e-02 3.545253723859786987e-02 -1.297674179077148438e-01 1.294414997100830078e-01 1.049888655543327332e-01 -8.010051399469375610e-02 1.603745520114898682e-01 -1.463098376989364624e-01 -7.638309150934219360e-02 -1.772164851427078247e-01 1.550575494766235352e-01 4.397938027977943420e-03 9.391811490058898926e-02 -5.961826071143150330e-02 -1.192981675267219543e-01 -1.376999765634536743e-01 8.834028244018554688e-02 -7.605159282684326172e-02 1.386798322200775146e-01 -1.317550390958786011e-01 -1.252753734588623047e-01 -1.439133137464523315e-01 7.445758581161499023e-02 9.734546393156051636e-02 1.565808206796646118e-01 -1.521519720554351807e-01 -1.492197364568710327e-01 -8.158979564905166626e-02 3.173788264393806458e-02 -3.600147552788257599e-03 5.269319564104080200e-02 3.518822789192199707e-02 -1.060907244682312012e-01 -1.494449079036712646e-01 8.776585757732391357e-02 5.265103187412023544e-03 6.202410161495208740e-02 1.572171747684478760e-01 -1.707284711301326752e-02 7.135814428329467773e-02 -3.376298770308494568e-02 9.843745827674865723e-02 -2.907132357358932495e-02 1.273225545883178711e-01 -1.276164501905441284e-01 3.711777506396174431e-03 1.039249449968338013e-01 -1.084537245333194733e-02 -8.100070804357528687e-02 4.687349498271942139e-02 1.243639886379241943e-01 -2.295975759625434875e-02 1.342813968658447266e-01
-5.458619445562362671e-02 -9.350572526454925537e-02 2.090595476329326630e-02 5.493256263434886932e-03 1.612445861101150513e-01 1.459956914186477661e-01 -2.003141343593597412e-01 3.790064156055450439e-02 -1.491110175848007202e-01 -7.420146465301513672e-02 1.577055901288986206e-01 7.906462252140045166e-02 1.007074713706970215e-01 -1.700444668531417847e-01 6.241232529282569885e-02 8.885711431503295898e-03 -3.233401849865913391e-02 2.377724833786487579e-02 4.587106406688690186e-02 5.890787392854690552e-02 2.430675737559795380e-02 -2.671048417687416077e-02 -4.422304034233093262e-02 9.338232874870300293e-02 -1.069837361574172974e-01 -1.821408867835998535e-01 5.649050325155258179e-02 1.139674559235572815e-01 -8.323683287017047405e-04 7.121561467647552490e-02 1.682276129722595215e-01 -9.545764327049255371e-02 1.759187728166580200e-01 -9.037404507398605347e-02 1.145632788538932800e-01 -1.161573827266693115e-02 3.531688079237937927e-02 -8.036406338214874268e-02 6.068279966711997986e-02 1.395235955715179443e-01 -6.567963212728500366e-02 -6.369709223508834839e-02 1.432143151760101318e-01 8.430502563714981079e-02 1.356251090764999390e-01 7.603567093610763550e-02 -1.254684180021286011e-01 4.916359670460224152e-03 6.363674998283386230e-02 1.396425515413284302e-01 -5.621038749814033508e-02 6.114938482642173767e-02 -1.002999991178512573e-01 -6.505861878395080566e-02 8.783074468374252319e-02 -4.085623100399971008e-02 -1.268096566200256348e-01 -8.691742084920406342e-03 -1.697444170713424683e-02 4.879754781723022461e-02 -9.078613482415676117e-03 7.083508186042308807e-03 9.305570274591445923e-02 -5.450141802430152893e-02 1.080552116036415100e-01 -1.048783659934997559e-01 -7.081585377454757690e-02 1.006614342331886292e-01 3.672296879813075066e-03 1.208463218063116074e-02 8.058822900056838989e-02 1.635794341564178467e-01 -5.347575619816780090e-02 6.273370981216430664e-02 -1.341543495655059814e-01 1.393893617205321789e-03 -6.917309015989303589e-02 -1.147400364279747009e-01 -7.089173048734664917e-02 -1.561868637800216675e-01 -9.396832436323165894e-02 1.006162390112876892e-01 3.170553967356681824e-02 -1.148340553045272827e-01 1.473070234060287476e-01 1.432488262653350830e-01 -1.212698519229888916e-01 1.384808570146560669e-01 1.953086853027343750e-01 1.090046484023332596e-02 -1.326808929443359375e-01 -5.640578642487525940e-02 -9.872417896986007690e-02 2.502305060625076294e-02 2.119337877957150340e-04 -1.155068874359130859e-01 2.637685649096965790e-02 1.190229877829551697e-01 7.932454347610473633e-02 9.675389528274536133e-02 7.014605402946472168e-02 -1.608887910842895508e-01 1.776306629180908203e-01 -2.364132553339004517e-02 -8.296681195497512817e-02 9.693213552236557007e-02 -1.583880037069320679e-01 5.366335436701774597e-02 2.709703706204891205e-02
1.333166193217039108e-02 1.514883786439895630e-01 5.970600992441177368e-02 3.478315845131874084e-02 1.312079429626464844e-01 1.421526372432708740e-01 -1.068266779184341431e-01 -8.826597779989242554e-02 5.104225501418113708e-02 2.624597772955894470e-02 9.892827272415161133e-02 5.921303853392601013e-02 -6.307724118232727051e-02 7.818169891834259033e-02 1.309546232223510742e-01 1.925557702779769897e-01 -1.193282529711723328e-01 1.420282870531082153e-01 -8.588223904371261597e-02 1.374517083168029785e-01 -1.291099935770034790e-01 1.146663874387741089e-01 -8.101195842027664185e-02 -1.390346884727478027e-01 9.505007416009902954e-02 1.501614451408386230e-01 1.477837711572647095e-01 -1.096745580434799194e-02 -3.574554994702339172e-02 -3.468559682369232178e-02 -7.466251403093338013e-02 -3.626574948430061340e-02 -1.347729265689849854e-01 -1.233006492257118225e-01 -4.227761551737785339e-02 -1.599348932504653931e-01 -8.560353517532348633e-02 8.236386626958847046e-02 2.101056277751922607e-01 -1.088962405920028687e-01 1.436177790164947510e-01 -5.992343649268150330e-03 9.965524822473526001e-02 -7.620623707771301270e-02 -4.731783270835876465e-02 -1.161831766366958618e-01 -6.794345378875732422e-02 1.448909640312194824e-01 1.100933924317359924e-01 -8.085360378026962280e-02 1.381586045026779175e-01 -6.767373532056808472e-02 4.062809422612190247e-02 1.672645509243011475e-01 8.920422941446304321e-02 -1.354767829179763794e-01 4.344817623496055603e-02 6.956440955400466919e-02 1.268583387136459351e-01 1.109866201877593994e-01 -5.584539845585823059e-02 -1.105481833219528198e-01 -1.534031182527542114e-01 -1.294661015272140503e-01 1.276481598615646362e-01 -1.640461683273315430e-01 5.773440375924110413e-02 -1.644763536751270294e-02 -2.320876158773899078e-02 5.501817911863327026e-02 1.037556678056716919e-01 -1.483533382415771484e-01 -6.760552525520324707e-02 7.905046641826629639e-02 -5.839279666543006897e-02 -3.003560006618499756e-03 -1.402782201766967773e-01 -1.059607192873954773e-01 -1.042291447520256042e-01 -8.684231340885162354e-02 6.856068968772888184e-02 -1.467310637235641479e-01 2.927525155246257782e-02 -8.462603203952312469e-03 -7.777069509029388428e-02 -6.189937889575958252e-02 1.815785467624664307e-01 -1.718177348375320435e-01 -1.278779506683349609e-01 -1.849706843495368958e-02 6.712612509727478027e-02 1.462327837944030762e-01 -1.105556413531303406e-01 -7.550901174545288086e-02 1.509523987770080566e-01 9.308371692895889282e-02 -5.414181388914585114e-03 7.784374058246612549e-02 1.026596426963806152e-01 -8.651258796453475952e-02 -9.645220637321472168e-02 -1.005693376064300537e-01 9.947046637535095215e-02 1.235792115330696106e-01 1.518563274294137955e-02 1.279293596744537354e-01 1.428454071283340454e-01 1.681177169084548950e-01 1.455961465835571289e-01
4.809246957302093506e-02 -3.070941567420959473e-02 -4.438849538564682007e-02 1.267130672931671143e-01 -8.808644860982894897e-02 -5.607429519295692444e-02 -2.029967159032821655e-01 -8.592490851879119873e-02 7.687312364578247070e-02 8.417280763387680054e-02 3.304138034582138062e-02 -6.410539150238037109e-02 1.939090155065059662e-02 -9.170833230018615723e-02 -1.673394143581390381e-01 1.256833076477050781e-01 -1.470355391502380371e-01 1.333210021257400513e-01 6.932992488145828247e-03 1.636082530021667480e-01 5.531795322895050049e-02 2.948759123682975769e-02 -1.455006003379821777e-01 3.860171511769294739e-02 -1.035743728280067444e-01 -1.636642217636108398e-02 3.786316514015197754e-02 7.825607061386108398e-02 4.288964346051216125e-02 -2.313200384378433228e-02 -3.581878170371055603e-02 1.369315981864929199e-01 -1.874639466404914856e-02 -1.556223183870315552e-01 -1.243478804826736450e-01 -1.864617466926574707e-01 -9.510049968957901001e-02 -1.064966693520545959e-01 2.440746501088142395e-02 -1.639341004192829132e-02 4.875294864177703857e-03 -1.480246037244796753e-01 2.751113614067435265e-03 1.302187442779541016e-01 7.943453639745712280e-02 1.106552407145500183e-02 -2.715837024152278900e-02 1.188507005572319031e-01 1.590514369308948517e-02 3.263413906097412109e-02 -1.061798632144927979e-01 -8.656022138893604279e-03 -7.895607501268386841e-02 -1.369830816984176636e-01 1.135197952389717102e-01 9.228575974702835083e-02 1.092446371912956238e-01 6.999897211790084839e-02 1.943439804017543793e-02 1.562966406345367432e-01 -7.347355782985687256e-02 -1.271103173494338989e-01 -1.014082729816436768e-01 -1.541226059198379517e-01 -4.777957126498222351e-02 -1.063557863235473633e-01 1.903756409883499146e-01 -6.951852142810821533e-02 4.238435626029968262e-02 1.060912013053894043e-01 3.285520523786544800e-02 1.622453331947326660e-01 -7.299326360225677490e-02 -2.186881601810455322e-01 1.217238306999206543e-01 9.906840324401855469e-02 4.827754944562911987e-02 -9.467471390962600708e-04 -1.449670940637588501e-01 1.392281800508499146e-01 1.584265828132629395e-01 8.610786870121955872e-03 -4.373273812234401703e-03 -4.144799336791038513e-02 2.292786166071891785e-02 -5.577193573117256165e-02 7.670405320823192596e-03 1.012512594461441040e-01 7.212723046541213989e-02 7.420450448989868164e-02 7.907143235206604004e-02 1.801661103963851929e-01 -1.149307191371917725e-02 -8.273083716630935669e-02 6.768462061882019043e-02 -1.914466917514801025e-01 1.553622484207153320e-01 1.076764613389968872e-01 7.487545162439346313e-02 -9.995321184396743774e-02 2.626195177435874939e-02 -3.561281785368919373e-02 1.459701061248779297e-01 -3.685953095555305481e-02 -1.679593622684478760e-01 -1.134005859494209290e-01 1.640014201402664185e-01 2.222844213247299194e-02 1.772443056106567383e-01
-3.703285008668899536e-03 -1.164094731211662292e-01 -1.406528800725936890e-01 -9.359728544950485229e-02 1.608952134847640991e-01 9.837599098682403564e-02 2.470454014837741852e-02 -1.181513667106628418e-01 1.461598090827465057e-02 1.231029927730560303e-01 -2.753366157412528992e-02 5.560463294386863708e-02 -6.446623057126998901e-02 2.708491636440157890e-03 -1.606612466275691986e-02 -7.077029347419738770e-02 -9.527986496686935425e-02 1.529439538717269897e-01 1.128504946827888489e-01 9.863659739494323730e-02 4.839544743299484253e-02 -7.442325353622436523e-02 1.972097307443618774e-01 -1.470018923282623291e-01 1.583479195833206177e-01 -1.308622062206268311e-01 -4.435155168175697327e-02 1.270992755889892578e-01 1.674206703901290894e-01 1.194123402237892151e-01 1.073192730545997620e-01 1.582788676023483276e-01 3.634081035852432251e-02 6.905576586723327637e-02 1.066125184297561646e-01 8.129507303237915039e-02 1.569477608427405357e-04 -9.129999577999114990e-02 1.448210924863815308e-01 1.209164932370185852e-01 4.265602305531501770e-02 2.065599150955677032e-02 9.882631897926330566e-02 1.180970147252082825e-01 8.075987547636032104e-02 -1.164807602763175964e-01 -1.211237460374832153e-01 -6.065800786018371582e-02 1.499202549457550049e-01 1.268947124481201172e-01 -1.570349931716918945e-01 7.717603445053100586e-02 1.369736790657043457e-01 1.425270587205886841e-01 8.750215917825698853e-02 -4.782652854919433594e-02 -1.670694909989833832e-02 -1.528747752308845520e-02 -1.263953000307083130e-01 1.174391433596611023e-01 -6.804750859737396240e-02 4.586081951856613159e-02 2.038793079555034637e-02 1.271029412746429443e-01 1.439957469701766968e-01 5.122194811701774597e-02 1.292786896228790283e-01 1.942475140094757080e-01 4.718561656773090363e-03 3.229958936572074890e-02 9.634002298116683960e-02 9.930831193923950195e-02 -6.072093546390533447e-02 -1.281548589468002319e-01 -8.335661143064498901e-02 4.150754958391189575e-02 2.561165019869804382e-02 5.631483625620603561e-03 -1.051129549741744995e-01 1.412751823663711548e-01 -3.816222399473190308e-02 2.268114313483238220e-02 3.571464866399765015e-02 -3.770314902067184448e-02 5.774895101785659790e-02 -9.669424034655094147e-03 1.189496517181396484e-01 1.449715625494718552e-02 7.593232393264770508e-02 5.885523185133934021e-02 -3.411972895264625549e-02 8.289531618356704712e-02 1.031637117266654968e-01 9.050831198692321777e-03 -1.277131885290145874e-01 2.415406703948974609e-02 1.339326500892639160e-01 -3.187664225697517395e-02 -2.464114315807819366e-02 1.740293502807617188e-01 4.080502316355705261e-02 -5.673318170011043549e-03 8.505224436521530151e-02 -1.069247350096702576e-01 1.699454039335250854e-01 8.209188282489776611e-02 -1.707585155963897705e-01 8.153588324785232544e-02 8.563531935214996338e-02
-8.045709691941738129e-03 -7.534570526331663132e-03 3.172960132360458374e-02 -6.015747413039207458e-02 1.829907298088073730e-01 -1.930780857801437378e-01 -3.396759182214736938e-02 -1.791624873876571655e-01 -1.538630723953247070e-01 -3.011987358331680298e-02 1.464599221944808960e-01 -7.285996526479721069e-02 -5.160073284059762955e-03 1.781418621540069580e-01 7.570894435048103333e-03 2.777376398444175720e-02 -6.418739259243011475e-02 6.955422461032867432e-02 -2.294377796351909637e-02 1.459023654460906982e-01 1.699169725179672241e-01 6.919862329959869385e-02 1.890142261981964111e-01 -6.370910257101058960e-02 -1.245867237448692322e-01 2.372060529887676239e-02 -1.534427106380462646e-01 -6.404175609350204468e-02 -5.478575825691223145e-02 -4.145145043730735779e-02 -1.367030590772628784e-01 3.468798473477363586e-02 1.601776033639907837e-01 -1.557021439075469971e-01 -1.480218321084976196e-01 1.639126241207122803e-01 -3.190131857991218567e-02 -1.738364994525909424e-01 1.601158678531646729e-01 -9.252839535474777222e-02 6.584350764751434326e-02 -1.068144813179969788e-01 6.062980741262435913e-02 -1.416502594947814941e-01 -3.370050340890884399e-02 1.552367210388183594e-01 1.225560344755649567e-02 -1.188380047678947449e-01 1.056799143552780151e-01 -1.559924483299255371e-01 -3.592709545046091080e-03 7.000427693128585815e-02 1.496536433696746826e-01 -4.262825474143028259e-02 1.945498734712600708e-01 5.173540487885475159e-02 -5.827805399894714355e-02 1.157759036868810654e-02 -1.328765600919723511e-01 6.929273158311843872e-02 1.004195660352706909e-01 3.952504321932792664e-02 3.172989562153816223e-02 1.476215273141860962e-01 -2.545837871730327606e-02 8.398757874965667725e-02 1.203080080449581146e-02 9.774165600538253784e-02 -5.817333981394767761e-02 -1.488041132688522339e-01 3.569184616208076477e-02 -3.414692357182502747e-03 -1.188903898000717163e-01 -6.402478367090225220e-02 4.103901609778404236e-02 9.076974540948867798e-02 -1.106341034173965454e-01 -1.775437407195568085e-02 1.743814945220947266e-01 -5.138304084539413452e-02 2.503499388694763184e-02 1.793367713689804077e-01 1.248611137270927429e-01 3.805670514702796936e-02 -2.285529673099517822e-02 3.782688826322555542e-02 1.759587675333023071e-01 -8.709157817065715790e-03 2.948263660073280334e-02 -5.398977547883987427e-02 7.427965849637985229e-02 -1.135434806346893311e-01 1.262488663196563721e-01 -1.744935661554336548e-01 -7.010939717292785645e-02 7.302463799715042114e-02 6.635347753763198853e-02 1.469731181859970093e-01 -8.747304230928421021e-02 2.058422565460205078e-01 1.090110540390014648e-01 -2.155678160488605499e-02 6.494164466857910156e-02 1.001228019595146179e-01 -4.628117009997367859e-02 -1.044713035225868225e-01 -4.748438484966754913e-03 -4.943756014108657837e-02 -2.954360842704772949e-02
-6.963914632797241211e-02 1.079969555139541626e-01 1.611133515834808350e-01 9.767381846904754639e-02 -4.872858896851539612e-02 -8.825708180665969849e-03 -1.261631250381469727e-01 -2.913370169699192047e-02 8.780249208211898804e-02 -1.711514145135879517e-01 -1.191870942711830139e-01 -1.337994933128356934e-01 -1.482996344566345215e-01 1.247468516230583191e-01 8.721625804901123047e-02 -2.013536244630813599e-01 -1.211911812424659729e-01 -1.320142894983291626e-01 -9.566368162631988525e-02 -7.850798964500427246e-02 1.009437441825866699e-01 -5.595431849360466003e-02 -5.299670621752738953e-02 5.511965602636337280e-02 7.090011984109878540e-02 -8.194072544574737549e-02 -9.196742624044418335e-02 -1.589237749576568604e-01 -4.380643740296363831e-02 -6.815960258245468140e-02 -1.134906411170959473e-01 -8.835925906896591187e-02 -8.885364234447479248e-02 -1.413467079401016235e-01 -1.695873886346817017e-01 2.672452107071876526e-02 -6.242388114333152771e-02 5.955073237419128418e-02 -6.538385897874832153e-02 5.266930907964706421e-02 -5.293445196002721786e-03 -1.953514665365219116e-01 -7.647761702537536621e-02 3.699865192174911499e-02 4.084001854062080383e-02 -1.162099745124578476e-02 1.917423307895660400e-02 6.821195781230926514e-02 1.083776876330375671e-01 -6.009916774928569794e-03 3.327331319451332092e-02 -1.068518683314323425e-02 -1.117330566048622131e-01 1.360662132501602173e-01 1.364206075668334961e-01 -5.168260633945465088e-02 -1.623810678720474243e-01 -1.035812497138977051e-01 -9.737987816333770752e-02 1.585297472774982452e-02 -1.622019894421100616e-02 1.121617183089256287e-01 -1.168465390801429749e-01 -8.993450552225112915e-02 3.157834336161613464e-02 7.787894457578659058e-02 -5.175492912530899048e-02 -7.367607206106185913e-02 9.633453935384750366e-02 -1.130839362740516663e-01 1.511911898851394653e-01 -5.264476314187049866e-02 5.562830716371536255e-02 5.705522745847702026e-02 1.096979603171348572e-01 1.785461455583572388e-01 -1.594140380620956421e-01 1.696375608444213867e-01 7.413835823535919189e-02 4.078544676303863525e-02 9.207973629236221313e-02 -8.753519505262374878e-03 -1.090718880295753479e-01 -1.070727482438087463e-01 1.350391805171966553e-01 1.569207906723022461e-01 6.583696231245994568e-03 -1.186012700200080872e-01 2.852570079267024994e-02 6.377130001783370972e-02 -1.014771498739719391e-02 -1.352186203002929688e-01 1.756002157926559448e-01 -1.200704723596572876e-01 3.398005291819572449e-02 1.122367829084396362e-01 5.595277622342109680e-02 7.025987841188907623e-03 8.385331183671951294e-02 2.697295509278774261e-02 1.753007024526596069e-01 7.439350336790084839e-02 -9.342645853757858276e-02 -1.111174449324607849e-01 1.396258920431137085e-01 5.824221670627593994e-02 1.117394641041755676e-01 -1.183469444513320923e-01 -2.384899929165840149e-02
-7.921157032251358032e-02 -5.010402575135231018e-02 1.182889789342880249e-01 -2.137606218457221985e-02 -9.225249290466308594e-03 -1.005616933107376099e-01 1.064897999167442322e-01 3.773709014058113098e-02 1.591859161853790283e-01 5.279534030705690384e-03 -4.353338386863470078e-03 8.507125824689865112e-02 -2.128141187131404877e-02 8.907182514667510986e-02 5.542221665382385254e-02 -1.662693321704864502e-01 -1.206484436988830566e-01 6.829346716403961182e-02 -6.150792166590690613e-02 1.358517073094844818e-02 -2.976895868778228760e-02 1.090550273656845093e-01 -1.108584254980087280e-01 3.900080174207687378e-02 -1.562458425760269165e-01 -1.412410587072372437e-01 1.596594303846359253e-01 -1.002598181366920471e-01 1.031731292605400085e-01 1.069456934928894043e-01 -1.513275206089019775e-01 -1.366652995347976685e-01 1.081882119178771973e-01 -5.051158741116523743e-02 -6.059654802083969116e-02 1.086970791220664978e-02 9.775280207395553589e-02 3.740295069292187691e-03 -1.240087896585464478e-01 -1.391133815050125122e-01 9.446358680725097656e-02 1.203745901584625244e-01 7.939686626195907593e-02 -1.353437602519989014e-01 -3.672045096755027771e-02 1.413136422634124756e-01 -7.489392161369323730e-02 -1.160845533013343811e-01 -2.381086535751819611e-02 1.249475181102752686e-01 -4.912712424993515015e-02 -4.332726448774337769e-02 6.544861197471618652e-02 9.692689403891563416e-03 -1.727352738380432129e-01 3.618980571627616882e-02 9.481992572546005249e-02 -1.455977112054824829e-01 1.473387032747268677e-01 1.750092022120952606e-02 -1.471747756004333496e-01 1.159777864813804626e-01 -1.519557237625122070e-01 5.076383054256439209e-02 -9.807971864938735962e-02 5.058313906192779541e-02 1.765809059143066406e-01 -1.339882761240005493e-01 -1.224341616034507751e-02 -6.171369552612304688e-02 1.426169872283935547e-01 8.362811058759689331e-02 -5.380242317914962769e-02 -1.711379885673522949e-01 7.681288756430149078e-03 -6.614354997873306274e-02 1.172175556421279907e-01 1.013996675610542297e-01 3.784745931625366211e-02 -6.775302463211119175e-04 -1.417881697416305542e-01 4.996207356452941895e-02 5.965118482708930969e-02 7.955219596624374390e-02 1.487457007169723511e-01 -2.949473261833190918e-02 -5.365147069096565247e-02 -6.609425693750381470e-02 -8.809374272823333740e-02 -1.071942597627639771e-02 1.406553089618682861e-01 1.274138092994689941e-01 -4.716805368661880493e-02 -1.410015821456909180e-01 2.883920818567276001e-02 3.346169367432594299e-02 -1.018851846456527710e-01 5.661838129162788391e-02 8.255109935998916626e-02 -1.500702947378158569e-01 -5.248691886663436890e-02 -7.144413143396377563e-02 1.560946553945541382e-01 -1.867578737437725067e-02 -2.255200035870075226e-02 -2.842274261638522148e-03 -5.699852854013442993e-02 9.057731181383132935e-02 -1.212790012359619141e-01
2.804229967296123505e-03 -1.482541859149932861e-01 2.868004515767097473e-02 7.403566688299179077e-02 -1.479345560073852539e-01 8.252401649951934814e-02 3.797922749072313309e-03 -1.685454845428466797e-01 1.072417646646499634e-01 9.442253410816192627e-02 -1.189590319991111755e-01 1.712074875831604004e-02 1.142198443412780762e-01 -5.266381800174713135e-02 -4.041626676917076111e-02 9.052476286888122559e-02 1.075969412922859192e-01 -9.412611275911331177e-02 7.216173410415649414e-02 -2.201310843229293823e-01 1.253626942634582520e-01 -1.269566733390092850e-02 -1.615199595689773560e-01 -9.400468319654464722e-02 5.770087242126464844e-02 -5.916226655244827271e-02 -9.751896560192108154e-02 -1.059677451848983765e-02 -1.228710189461708069e-01 7.251355797052383423e-02 1.094292253255844116e-01 6.575580686330795288e-02 -8.429904282093048096e-02 5.191943794488906860e-02 1.069193407893180847e-01 1.768682152032852173e-01 -1.725225001573562622e-01 -9.946739673614501953e-02 1.212707832455635071e-01 1.190026663243770599e-02 -1.890489012002944946e-01 -1.225055456161499023e-01 -2.201197743415832520e-01 2.176328375935554504e-02 -1.761611737310886383e-02 -3.071628138422966003e-02 -9.876123070716857910e-02 -1.298217177391052246e-01 -6.585727632045745850e-02 1.430655270814895630e-01 -6.311567127704620361e-02 -1.070630252361297607e-01 -4.858295246958732605e-02 -1.493345573544502258e-02 5.284105613827705383e-02 -1.462403088808059692e-01 4.768298193812370300e-02 8.209239691495895386e-02 6.867917627096176147e-02 5.575138330459594727e-02 -1.239786520600318909e-01 -6.560330837965011597e-02 1.765429601073265076e-02 3.778284415602684021e-02 -6.003235280513763428e-02 -1.112316399812698364e-01 -1.883781552314758301e-01 8.557665161788463593e-03 -4.882113635540008545e-02 -6.301980465650558472e-02 -7.421270757913589478e-02 2.720913104712963104e-02 -1.675039827823638916e-01 1.211888566613197327e-01 1.111920326948165894e-01 1.215339638292789459e-03 -1.980831287801265717e-02 -1.554978340864181519e-01 -6.507451832294464111e-02 -3.603355213999748230e-02 5.078836530447006226e-02 -7.343076914548873901e-02 2.818085812032222748e-02 2.475506160408258438e-03 -2.050672657787799835e-02 3.189957886934280396e-02 8.153435587882995605e-02 2.577914297580718994e-02 -6.344344466924667358e-02 8.724062889814376831e-02 -1.102881431579589844e-01 5.911859124898910522e-02 7.508124411106109619e-02 4.430556297302246094e-02 -4.606525227427482605e-02 -1.974068731069564819e-01 -8.560594171285629272e-02 -4.220550134778022766e-02 8.800681680440902710e-02 1.307071298360824585e-01 7.191202789545059204e-02 -1.310540884733200073e-01 -3.535836562514305115e-02 1.646894514560699463e-01 -9.093141555786132812e-02 1.506478786468505859e-01 2.337126433849334717e-02 -1.350658088922500610e-01 -4.856462590396404266e-03
9.440375119447708130e-02 -5.968292430043220520e-02 1.522532850503921509e-01 -1.121446564793586731e-01 -1.602267771959304810e-01 1.304333955049514771e-01 -1.203339621424674988e-01 -1.163218244910240173e-01 1.251258552074432373e-01 -5.975211039185523987e-02 7.021263241767883301e-02 -5.619288235902786255e-02 -8.773138374090194702e-02 6.383244693279266357e-02 -1.162850260734558105e-01 -9.593115746974945068e-02 -1.297175735235214233e-01 5.009645968675613403e-02 -7.073428481817245483e-02 -1.297159194946289062e-01 -5.224018916487693787e-02 -4.640736058354377747e-02 -6.432259082794189453e-02 -1.859255321323871613e-02 -1.477464586496353149e-01 -1.303439587354660034e-01 1.256033778190612793e-01 -1.333325207233428955e-01 -1.310070455074310303e-01 -1.151347160339355469e-01 4.102298989892005920e-03 2.920696325600147247e-02 1.032889112830162048e-01 -3.705742955207824707e-02 -1.218667626380920410e-01 -8.575145155191421509e-02 -1.229226291179656982e-01 -1.446761339902877808e-01 7.300180196762084961e-02 5.350430682301521301e-02 -1.212252527475357056e-01 -4.845708608627319336e-02 1.190687343478202820e-01 -1.319956630468368530e-01 -6.164223700761795044e-02 -3.749066963791847229e-02 -7.144827395677566528e-02 -1.223230287432670593e-01 7.537691295146942139e-02 2.278872020542621613e-02 -5.269404128193855286e-02 1.348280757665634155e-01 -7.886873185634613037e-02 3.242804110050201416e-02 -1.110942736268043518e-01 6.621760129928588867e-02 -1.647673845291137695e-01 -1.554529666900634766e-01 5.340817198157310486e-02 1.491029560565948486e-01 3.005672805011272430e-02 -2.496144361793994904e-02 -8.868395537137985229e-02 -5.149998888373374939e-02 -3.967808932065963745e-02 4.317352920770645142e-02 4.554989561438560486e-02 3.588169813156127930e-02 -1.172367203980684280e-02 -5.407458916306495667e-02 2.100005373358726501e-02 -1.348935812711715698e-01 -1.181080043315887451e-01 -1.108782663941383362e-01 2.748254500329494476e-02 2.625445649027824402e-02 9.001671522855758667e-02 -1.578090526163578033e-02 -5.236596614122390747e-02 -1.564452499151229858e-01 -5.689582228660583496e-02 1.183901280164718628e-01 -1.120335459709167480e-01 -1.332945823669433594e-01 -1.207829453051090240e-02 1.103702783584594727e-01 -9.853364527225494385e-02 -1.265064328908920288e-01 -2.375501394271850586e-02 -2.523073926568031311e-02 1.454530209302902222e-01 -7.457691431045532227e-02 -1.186430826783180237e-01 -1.229208782315254211e-01 -1.646724343299865723e-01 7.730403542518615723e-02 6.015130784362554550e-03 1.424396336078643799e-01 -5.626433342695236206e-02 2.113254368305206299e-02 1.192925125360488892e-01 -1.544772535562515259e-01 9.175945818424224854e-02 7.175923138856887817e-02 1.181904599070549011e-01 4.750049859285354614e-02 2.296864241361618042e-02 1.400145739316940308e-01 -1.398722529411315918e-01
-7.872847467660903931e-02 -8.390084654092788696e-02 1.729900687932968140e-01 -1.595363020896911621e-02 1.029605343937873840e-01 -2.078597620129585266e-02 6.880840752273797989e-03 -2.117772027850151062e-02 5.015378817915916443e-03 -1.101777926087379456e-01 -1.353302448987960815e-01 -5.272296071052551270e-02 -1.200311779975891113e-01 -5.629900842905044556e-03 7.741909474134445190e-02 8.207245171070098877e-02 -1.603653468191623688e-02 -1.280717402696609497e-01 9.317243844270706177e-02 -4.849383980035781860e-02 -5.882527213543653488e-03 -7.294087111949920654e-02 -1.694919764995574951e-01 -1.837054789066314697e-01 -1.709454320371150970e-02 2.047966867685317993e-01 1.357230842113494873e-01 -3.456536214798688889e-03 2.261434793472290039e-01 1.325490511953830719e-02 8.112992346286773682e-02 -6.297139916568994522e-03 -4.216054454445838928e-02 1.587411612272262573e-01 1.160130277276039124e-01 -1.755517423152923584e-01 -4.090207442641258240e-02 -3.554103523492813110e-02 -1.546168178319931030e-01 -1.595057547092437744e-01 -4.272876307368278503e-02 -9.878247976303100586e-02 9.445920586585998535e-02 -1.620675772428512573e-01 -2.841585315763950348e-02 3.582938015460968018e-02 9.357494860887527466e-02 -1.229069232940673828e-01 -1.455449908971786499e-01 1.088841110467910767e-01 6.820424646139144897e-02 -1.125262081623077393e-01 -6.989488750696182251e-02 -9.006844460964202881e-02 -7.005667686462402344e-02 -2.766403183341026306e-02 -1.777694374322891235e-01 1.955520957708358765e-01 1.166361570358276367e-01 -2.768723107874393463e-02 -4.824953153729438782e-02 -1.076205000281333923e-01 -3.497580066323280334e-02 -1.158472429960966110e-02 -9.348136186599731445e-02 1.724978834390640259e-01 9.613720327615737915e-02 -1.360821872949600220e-01 5.512404441833496094e-02 6.564391404390335083e-02 -1.052405163645744324e-01 1.367868483066558838e-01 1.742613762617111206e-01 -2.150923311710357666e-01 -9.434548020362854004e-02 1.755769364535808563e-02 -7.402586936950683594e-02 -5.247167497873306274e-02 3.189376741647720337e-02 -1.097575202584266663e-01 1.507614552974700928e-01 -6.959542632102966309e-02 7.578220218420028687e-02 -1.580199450254440308e-01 1.172156035900115967e-01 1.815662831068038940e-01 8.710955083370208740e-02 -1.361157279461622238e-02 -1.225105300545692444e-01 -1.055673509836196899e-01 -6.537941098213195801e-02 -6.603029370307922363e-02 -1.767086982727050781e-01 2.145165503025054932e-01 9.310100972652435303e-02 -1.995395570993423462e-01 1.750762015581130981e-01 3.124061785638332367e-02 -9.624483436346054077e-02 -5.728372372686862946e-03 6.947006285190582275e-02 -1.096458137035369873e-01 1.229836717247962952e-01 -1.074497103691101074e-01 7.197585701942443848e-02 -3.597472980618476868e-02 6.495577096939086914e-02 8.551538735628128052e-02 -1.240542605519294739e-01
5.310760810971260071e-02 3.003529459238052368e-02 8.335404843091964722e-02 1.632554382085800171e-01 -4.753917083144187927e-02 5.657400563359260559e-02 -5.916427448391914368e-02 -1.162139028310775757e-01 -2.291664481163024902e-03 5.525020416826009750e-03 -7.646231353282928467e-02 -1.166881471872329712e-01 8.190368115901947021e-02 3.420907258987426758e-02 8.579225838184356689e-02 -6.410676985979080200e-02 -6.174070388078689575e-02 -1.253381371498107910e-01 5.250213667750358582e-02 3.496018052101135254e-02 9.323531389236450195e-02 -3.338908310979604721e-03 5.894993245601654053e-02 -5.372400954365730286e-02 -4.009306058287620544e-02 6.885247677564620972e-02 1.076240912079811096e-01 1.627661883831024170e-01 1.042231917381286621e-01 3.869404271245002747e-02 -5.015071853995323181e-02 1.768164522945880890e-02 -2.304971776902675629e-02 4.010166507214307785e-03 1.510882228612899780e-01 1.659592837095260620e-01 4.320456460118293762e-02 -2.180138975381851196e-01 1.355393826961517334e-01 4.815946146845817566e-02 -4.949658364057540894e-02 -1.210777088999748230e-01 -8.428279310464859009e-03 4.088614508509635925e-02 8.810264617204666138e-02 1.704786121845245361e-01 -9.573932737112045288e-02 -9.801321476697921753e-02 6.190185248851776123e-02 -7.321668416261672974e-02 -1.954994052648544312e-01 9.080640226602554321e-02 -9.353647381067276001e-02 -1.453152205795049667e-02 -9.190920740365982056e-02 1.094997394829988480e-02 3.061840869486331940e-02 -1.231700107455253601e-01 1.004932820796966553e-02 1.488121002912521362e-01 1.422126591205596924e-01 -1.154555901885032654e-01 -3.966604173183441162e-02 6.385833024978637695e-02 -1.267149746417999268e-01 6.458117067813873291e-02 2.150964178144931793e-02 1.439279168844223022e-01 -6.039853766560554504e-02 -4.061668738722801208e-02 5.656960234045982361e-02 -2.074581570923328400e-04 2.228128351271152496e-02 -1.692274361848831177e-01 8.297713100910186768e-02 -1.325146853923797607e-01 4.068034514784812927e-02 1.802709512412548065e-02 -1.236309483647346497e-01 1.197090595960617065e-01 -9.543991833925247192e-02 1.597898304462432861e-01 -1.101646795868873596e-01 8.540669828653335571e-02 1.660628989338874817e-02 -4.324341937899589539e-02 8.314417302608489990e-02 -6.794787198305130005e-02 1.424035280942916870e-01 2.118950486183166504e-01 -9.368207305669784546e-02 -1.021040976047515869e-01 9.687716513872146606e-02 -1.564749479293823242e-01 9.637296944856643677e-02 -1.355928033590316772e-01 7.169795036315917969e-02 -7.736882567405700684e-02 -1.514177769422531128e-01 1.116603165864944458e-01 -1.437283754348754883e-01 -4.025080427527427673e-02 -1.247895732522010803e-01 1.515260189771652222e-01 -1.793984882533550262e-02 -9.395924955606460571e-02 -9.781349450349807739e-02 1.170535534620285034e-01 8.169143646955490112e-02
4.024892672896385193e-02 3.252099826931953430e-02 1.690377742052078247e-01 1.377717554569244385e-01 8.715532720088958740e-02 3.316331654787063599e-02 1.427831780165433884e-02 9.622147679328918457e-02 -9.424643218517303467e-02 -9.258476644754409790e-02 9.920638799667358398e-02 -6.668637692928314209e-02 1.763157360255718231e-02 -1.494375020265579224e-01 -6.181389465928077698e-02 -1.622955650091171265e-01 -9.801479429006576538e-02 1.700268238782882690e-01 1.067240759730339050e-01 -1.347426772117614746e-01 9.963292628526687622e-02 -1.946164667606353760e-02 6.447900086641311646e-02 1.705780625343322754e-01 -3.984991088509559631e-02 9.150758385658264160e-02 -1.199568733572959900e-01 3.271935135126113892e-02 6.686451286077499390e-02 -3.436714038252830505e-02 6.298016011714935303e-02 -3.224755451083183289e-02 -1.032648310065269470e-01 -1.016300022602081299e-01 8.261274546384811401e-02 -8.369174320250749588e-04 7.588644046336412430e-03 -3.077663667500019073e-02 4.775002971291542053e-02 2.300610020756721497e-02 -7.802141457796096802e-02 -7.155875861644744873e-02 -1.236804276704788208e-01 -4.034874960780143738e-02 1.113562807440757751e-01 -1.433211266994476318e-01 3.936684876680374146e-02 1.107612848281860352e-01 -1.258079260587692261e-01 -2.516727149486541748e-02 -1.047927141189575195e-01 1.355824023485183716e-01 1.605350971221923828e-01 2.089988440275192261e-02 1.276665925979614258e-01 9.275285899639129639e-02 1.428087800741195679e-02 -1.414953917264938354e-01 1.508457958698272705e-01 -8.680590242147445679e-02 -2.102510817348957062e-02 9.650645405054092407e-02 -6.805306673049926758e-02 7.993908599019050598e-03 -5.619849637150764465e-02 1.137410625815391541e-01 1.630111485719680786e-01 1.547597795724868774e-01 -3.210915625095367432e-02 3.312190994620323181e-02 -3.941863775253295898e-02 2.011895412579178810e-03 2.062137052416801453e-02 -9.783068671822547913e-03 7.296192646026611328e-02 9.748166054487228394e-02 -4.935421422123908997e-02 5.242697522044181824e-02 1.317210197448730469e-01 1.501045078039169312e-01 -1.334778517484664917e-01 5.411826074123382568e-02 -1.520868837833404541e-01 8.643690496683120728e-03 -1.282106786966323853e-01 -1.150579452514648438e-01 -1.627031713724136353e-02 -8.670432120561599731e-02 -1.401536762714385986e-01 -3.544652462005615234e-02 1.419497281312942505e-01 1.412928686477243900e-03 1.059602051973342896e-01 -3.114233911037445068e-02 1.602662503719329834e-01 -3.062280267477035522e-02 -1.026942580938339233e-01 7.393585145473480225e-02 4.174403101205825806e-02 1.631772145628929138e-02 -4.221352934837341309e-02 -2.108786068856716156e-02 -3.500620275735855103e-02 -1.016148850321769714e-01 1.638288497924804688e-01 -1.690723747014999390e-01 -1.459512114524841309e-01 1.336933523416519165e-01 -1.357076168060302734e-01
1.828498579561710358e-02 -1.038508564233779907e-01 5.196344479918479919e-02 4.767619445919990540e-02 -4.129267483949661255e-02 8.765694685280323029e-03 -4.479115083813667297e-02 -1.513307541608810425e-01 1.711905151605606079e-01 7.456278055906295776e-02 6.305226683616638184e-02 1.947458833456039429e-02 -1.010744050145149231e-01 1.821096702769864351e-06 1.192485541105270386e-01 -8.519230782985687256e-02 -8.947510272264480591e-02 1.620302796363830566e-01 -9.051085263490676880e-02 1.467525213956832886e-01 1.653620749711990356e-01 1.109220683574676514e-01 7.794626802206039429e-02 7.324099540710449219e-02 1.591894626617431641e-01 1.523138284683227539e-01 -1.136495694518089294e-01 -6.199065595865249634e-02 -1.206597909331321716e-01 -2.578083798289299011e-02 -5.537515506148338318e-02 -1.039445996284484863e-01 3.254257887601852417e-02 9.124305099248886108e-02 -1.939675025641918182e-02 -6.696673482656478882e-02 -1.531098037958145142e-01 1.623588651418685913e-01 9.973484277725219727e-02 -5.095081776380538940e-02 1.688351333141326904e-01 5.133517086505889893e-02 1.827208697795867920e-02 -1.180030256509780884e-01 1.285041719675064087e-01 1.339345425367355347e-01 8.019239455461502075e-02 -1.220815405249595642e-01 5.574547871947288513e-02 3.487804904580116272e-02 1.918576806783676147e-01 5.327025055885314941e-02 1.340129040181636810e-02 -3.640663996338844299e-02 4.919276386499404907e-02 -1.097119525074958801e-01 -4.319845885038375854e-02 9.695377200841903687e-02 -8.589584380388259888e-02 6.373059749603271484e-02 -1.616454869508743286e-01 -1.016233935952186584e-01 -7.455139607191085815e-02 1.874404251575469971e-01 -4.482390731573104858e-02 -1.292636096477508545e-01 4.200669005513191223e-02 -6.254129856824874878e-02 8.704176545143127441e-02 8.842436224222183228e-02 -6.423970311880111694e-02 -9.051743894815444946e-02 1.099372431635856628e-01 1.645511835813522339e-01 -8.907319605350494385e-02 9.088889509439468384e-02 1.109803393483161926e-01 1.797971427440643311e-01 7.202864438295364380e-02 1.078507974743843079e-01 -6.785894930362701416e-02 9.356524050235748291e-02 1.712129563093185425e-01 -1.202524639666080475e-02 -1.471989452838897705e-01 -1.416167169809341431e-01 1.197308078408241272e-01 -5.446645617485046387e-02 -5.386938899755477905e-02 -1.270643919706344604e-01 3.121840953826904297e-02 -6.994193047285079956e-02 -1.260348856449127197e-01 -1.166321113705635071e-01 -5.880712717771530151e-02 1.177641004323959351e-01 -1.103126928210258484e-01 -4.528894275426864624e-02 1.038968265056610107e-01 8.709431439638137817e-02 5.055446177721023560e-02 -1.373506635427474976e-01 -8.400429785251617432e-02 -6.706353276968002319e-03 1.117044761776924133e-01 2.054628133773803711e-01 1.381474584341049194e-01 4.645934794098138809e-03 -1.681764051318168640e-02
-1.951853930950164795e-02 -1.926394924521446228e-02 1.781124970875680447e-03 -1.170815899968147278e-01 1.490940898656845093e-01 7.468587905168533325e-02 -1.333904117345809937e-01 -2.206807136535644531e-01 -8.067759126424789429e-02 1.200425624847412109e-01 1.649874895811080933e-01 1.449621617794036865e-01 -1.411922182887792587e-02 -6.926385685801506042e-03 7.363402098417282104e-02 -1.333899050951004028e-01 -1.707553267478942871e-01 -9.927622973918914795e-02 -6.212160363793373108e-02 -1.240197867155075073e-01 1.238428056240081787e-01 -1.673910170793533325e-01 1.169414520263671875e-01 -1.507693715393543243e-02 -9.975264221429824829e-02 -1.119084283709526062e-01 9.544555097818374634e-02 2.057848684489727020e-02 1.176008060574531555e-01 1.433153301477432251e-01 1.673308163881301880e-01 -2.840992435812950134e-02 3.617126867175102234e-02 8.816985785961151123e-02 1.256182342767715454e-01 2.042756974697113037e-01 4.571377858519554138e-02 1.495916098356246948e-01 -8.041555434465408325e-02 1.363793164491653442e-01 -1.560373008251190186e-01 -3.942242264747619629e-02 -1.580705940723419189e-01 -8.223354071378707886e-02 -1.068520471453666687e-01 7.285363227128982544e-02 1.003505140542984009e-01 -1.421922743320465088e-01 -1.910342425107955933e-01 -1.083372626453638077e-02 -8.455024659633636475e-02 9.305391460657119751e-02 1.738273501396179199e-01 -2.538623288273811340e-02 1.307080537080764771e-01 -1.365540772676467896e-01 -5.524570494890213013e-02 7.289685308933258057e-02 -1.446871608495712280e-01 -1.414933651685714722e-01 1.709420084953308105e-01 6.256285589188337326e-03 -1.183414310216903687e-01 -2.273441404104232788e-01 -1.314086318016052246e-01 1.786665022373199463e-01 1.238082647323608398e-01 -7.210356742143630981e-02 -2.167983911931514740e-02 -6.101422011852264404e-02 -1.534713152796030045e-02 -1.143044531345367432e-01 -6.522656232118606567e-02 -1.338101178407669067e-02 -5.953414738178253174e-02 1.276378333568572998e-01 -1.516321748495101929e-01 2.305661328136920929e-02 -1.188360974192619324e-01 7.034421712160110474e-02 -4.820455983281135559e-02 -7.865651696920394897e-02 -2.093321830034255981e-02 3.562616184353828430e-02 -9.967929124832153320e-02 -6.351914256811141968e-02 -2.518634200096130371e-01 -1.472656875848770142e-01 8.176512271165847778e-02 -9.625732153654098511e-02 1.082070842385292053e-01 -5.023375153541564941e-02 -4.823958128690719604e-02 9.652332216501235962e-02 1.406135857105255127e-01 -1.146745458245277405e-01 -1.416384428739547729e-01 -1.216968446969985962e-01 9.370827674865722656e-02 -8.249313384294509888e-02 -1.258380115032196045e-01 -8.050858974456787109e-03 -1.024215668439865112e-01 1.485774368047714233e-01 5.555196106433868408e-02 1.425240188837051392e-01 1.497353911399841309e-01 -1.837071478366851807e-01 1.101905480027198792e-01
4.967235401272773743e-02 -1.122775450348854065e-01 -1.660037934780120850e-01 -3.985726088285446167e-02 -5.384857952594757080e-02 3.379881754517555237e-02 -6.498832255601882935e-02 4.887623712420463562e-02 5.750492960214614868e-02 1.533155292272567749e-01 -1.106541678309440613e-01 4.454401507973670959e-02 1.500048041343688965e-01 4.784168675541877747e-02 -4.680829495191574097e-02 -7.744276523590087891e-02 7.718094438314437866e-02 9.131521731615066528e-02 -1.484193205833435059e-01 -1.080667674541473389e-01 -5.577453970909118652e-02 -1.429375261068344116e-02 -1.040191669017076492e-02 1.420861184597015381e-01 -1.451249718666076660e-01 -1.472557783126831055e-01 -1.323423534631729126e-01 1.534104347229003906e-01 -6.843155622482299805e-02 3.854620456695556641e-02 2.224465832114219666e-02 1.436250954866409302e-01 -1.114856228232383728e-01 -1.374846696853637695e-01 -1.037472672760486603e-02 4.333885014057159424e-02 -1.240136772394180298e-01 -1.089116632938385010e-01 1.455280035734176636e-01 -1.802871078252792358e-01 -5.232499912381172180e-02 -7.946088165044784546e-02 3.545104339718818665e-02 -3.126871213316917419e-02 1.180445030331611633e-01 4.183351621031761169e-02 -1.182299852371215820e-01 1.164233833551406860e-01 1.011690497398376465e-01 3.035573102533817291e-02 6.805408000946044922e-02 -6.336273998022079468e-02 1.152717620134353638e-01 -4.869814217090606689e-02 1.047782450914382935e-01 1.504518091678619385e-01 -1.030310988426208496e-01 -8.986098319292068481e-02 5.373033136129379272e-02 -7.735450053587555885e-04 1.511376798152923584e-01 9.758269041776657104e-02 -8.721146732568740845e-02 1.779558956623077393e-01 -6.067413836717605591e-03 -1.283912211656570435e-01 6.865499913692474365e-02 -1.109913289546966553e-01 1.252858489751815796e-01 7.728802412748336792e-02 1.979907900094985962e-01 1.039412096142768860e-01 -2.091141492128372192e-01 3.886399418115615845e-02 1.266912221908569336e-01 -1.631835550069808960e-01 -1.319622248411178589e-01 1.161642596125602722e-01 -1.836123131215572357e-02 -5.097071453928947449e-02 1.054772809147834778e-01 1.021056398749351501e-01 1.980187185108661652e-02 -1.471101641654968262e-01 9.375508874654769897e-02 -4.909599944949150085e-02 -4.370033368468284607e-02 1.379656344652175903e-01 -1.554339379072189331e-01 1.612534523010253906e-01 -1.230057924985885620e-01 -1.109991893172264099e-01 -4.395299032330513000e-02 3.180785849690437317e-02 -2.345774881541728973e-02 1.040291264653205872e-01 1.663150340318679810e-01 1.313372254371643066e-01 8.257222175598144531e-02 1.445301920175552368e-01 3.441028669476509094e-02 -8.385799825191497803e-02 -1.119898110628128052e-01 2.377886325120925903e-02 -1.149050798267126083e-02 6.096578389406204224e-02 1.194923296570777893e-01 1.632259041070938110e-01 1.238002330064773560e-01
-1.493155360221862793e-01 3.406297042965888977e-02 4.826363176107406616e-02 -1.668577641248703003e-01 -1.307992730289697647e-02 -2.558735199272632599e-02 -1.795883625745773315e-01 1.505035310983657837e-01 -4.956475645303726196e-02 9.850357659161090851e-03 7.592467963695526123e-02 -1.432011723518371582e-01 1.244143322110176086e-01 -4.717330262064933777e-02 -5.040602758526802063e-02 -4.482132568955421448e-02 -7.940656691789627075e-02 -7.910533249378204346e-02 -1.480155736207962036e-01 -1.465582102537155151e-02 1.082035899162292480e-01 1.013493388891220093e-01 -1.485716104507446289e-01 -2.296410873532295227e-02 1.174059957265853882e-01 -4.551461711525917053e-02 7.385937869548797607e-02 1.372479647397994995e-01 -1.563067287206649780e-01 1.405715942382812500e-02 1.067104469984769821e-02 -1.129754707217216492e-01 -1.238160580396652222e-01 1.577121913433074951e-01 9.331037849187850952e-02 -3.646101802587509155e-02 1.320988535881042480e-01 -5.644657090306282043e-02 1.034548729658126831e-01 -8.016498386859893799e-02 -1.684216707944869995e-01 -1.111486181616783142e-01 3.798617795109748840e-02 -9.096395969390869141e-02 -8.022695779800415039e-02 -1.276433374732732773e-02 -1.920218020677566528e-01 8.573888987302780151e-02 -1.484302133321762085e-01 -3.610260784626007080e-02 -7.167447358369827271e-02 -1.676506251096725464e-01 -1.117941588163375854e-01 -1.417322754859924316e-01 -1.712960302829742432e-01 -1.344378292560577393e-01 3.803950920701026917e-02 1.423269063234329224e-01 -2.913636155426502228e-02 5.450441967695951462e-03 1.521503329277038574e-01 1.278469711542129517e-01 -1.196180284023284912e-02 -3.390312194824218750e-02 7.013037800788879395e-02 6.102758273482322693e-02 -6.424837280064821243e-03 3.769259899854660034e-02 1.240780279040336609e-01 7.300660759210586548e-02 9.568889439105987549e-02 4.991023615002632141e-02 7.195179164409637451e-02 -8.378857374191284180e-02 1.263611316680908203e-01 -1.688240021467208862e-01 1.461068838834762573e-01 9.313132613897323608e-02 1.311869919300079346e-01 1.394519954919815063e-01 -5.697735399007797241e-02 3.860093280673027039e-02 2.647986263036727905e-02 -1.460916697978973389e-01 -6.981550157070159912e-02 -5.715027451515197754e-02 6.707169860601425171e-02 -1.549384444952011108e-01 1.284079849720001221e-01 -1.042542792856693268e-02 -2.511494606733322144e-02 -8.785749971866607666e-02 -1.828533262014389038e-01 -7.285603880882263184e-02 -1.468619853258132935e-01 -8.921929635107517242e-03 2.743498235940933228e-02 -3.444258868694305420e-02 -2.732296660542488098e-02 7.306791841983795166e-02 1.255596280097961426e-01 1.031685993075370789e-01 7.554755359888076782e-02 -7.830855250358581543e-02 -9.974593669176101685e-02 -1.092233881354331970e-01 3.445659950375556946e-02 -1.591790020465850830e-01 1.084330007433891296e-01
-9.654322266578674316e-02 -1.400393545627593994e-01 -4.239334538578987122e-02 1.528602689504623413e-01 -2.212258987128734589e-02 1.390977352857589722e-01 -5.215717479586601257e-02 -5.810085311532020569e-02 -1.076751127839088440e-01 4.832047969102859497e-02 -1.949948631227016449e-02 3.252008697018027306e-03 -1.523065119981765747e-01 2.655985578894615173e-02 -3.949272632598876953e-02 -2.353701740503311157e-01 -7.946730405092239380e-02 -1.414417922496795654e-01 8.304992318153381348e-02 9.357187896966934204e-02 -5.795656517148017883e-02 -1.677217707037925720e-02 -7.044262439012527466e-02 7.793715596199035645e-02 -5.705398321151733398e-02 3.176996111869812012e-02 1.100233718752861023e-01 7.913056015968322754e-02 -1.450973004102706909e-01 3.985676914453506470e-03 -4.759852588176727295e-02 -5.263230204582214355e-02 1.080992668867111206e-01 -1.009099278599023819e-02 -1.316175051033496857e-02 1.342427581548690796e-01 1.250229477882385254e-01 -8.955373615026473999e-02 -4.379088431596755981e-02 -1.090248823165893555e-01 8.896000683307647705e-03 -1.976927518844604492e-01 -6.837522145360708237e-03 4.748883098363876343e-02 -8.308638632297515869e-02 -1.366706490516662598e-01 -1.328179240226745605e-01 1.091042384505271912e-01 3.656001761555671692e-02 1.586168855428695679e-01 1.585427522659301758e-01 -1.136562451720237732e-01 -1.342008411884307861e-01 -1.889843493700027466e-01 2.374512143433094025e-02 3.842178732156753540e-02 3.242292255163192749e-02 3.028938546776771545e-02 -2.003170922398567200e-02 3.044232912361621857e-02 -7.618227601051330566e-02 -1.136888414621353149e-01 6.170004140585660934e-03 7.221075147390365601e-02 7.293488085269927979e-02 -1.087287515401840210e-01 -4.393588006496429443e-02 -1.473015993833541870e-01 2.627889625728130341e-03 4.475230351090431213e-02 8.853046596050262451e-02 -7.957168668508529663e-02 1.443182080984115601e-01 -1.270470675081014633e-02 8.896028250455856323e-02 7.285945117473602295e-02 -1.251985877752304077e-01 -1.510978341102600098e-01 1.118702664971351624e-01 -1.179350726306438446e-02 -1.389187425374984741e-01 -4.863145574927330017e-02 1.792582310736179352e-02 2.629963681101799011e-02 1.690896227955818176e-02 -1.484999656677246094e-01 -1.262833029031753540e-01 2.221523225307464600e-02 4.609268531203269958e-02 -1.103023737668991089e-01 -6.030679121613502502e-02 -3.666133061051368713e-02 7.218767702579498291e-02 1.270782351493835449e-01 -1.398897022008895874e-01 1.161794289946556091e-01 -1.191259846091270447e-01 1.564022302627563477e-01 -4.567118361592292786e-02 1.158404424786567688e-01 2.101323939859867096e-02 7.186461240053176880e-02 1.476765424013137817e-01 -3.878715634346008301e-02 -1.042053773999214172e-01 1.537472903728485107e-01 9.390532970428466797e-02 -1.633774638175964355e-01 -7.378931343555450439e-02
8.728318661451339722e-02 2.606423385441303253e-02 -1.465538050979375839e-02 -8.283101022243499756e-02 -7.793212682008743286e-02 4.738494008779525757e-02 1.070179715752601624e-01 -8.942081034183502197e-02 -4.337563645094633102e-03 7.039503008127212524e-02 1.467359364032745361e-01 -7.324519753456115723e-02 2.650363929569721222e-02 4.463699832558631897e-02 1.199605017900466919e-01 -1.664543002843856812e-01 1.254379153251647949e-01 -1.699757128953933716e-01 1.581542193889617920e-01 9.277051687240600586e-02 -8.090028166770935059e-02 -5.153748765587806702e-02 1.022778730839490891e-02 -6.444616615772247314e-02 -6.136411428451538086e-02 8.327323198318481445e-02 1.239840686321258545e-01 -5.774106457829475403e-02 1.531373411417007446e-01 -8.507230132818222046e-02 1.581486463546752930e-01 -5.164070054888725281e-02 3.293379396200180054e-02 -1.129727810621261597e-01 -4.402125719934701920e-03 5.532952025532722473e-03 -1.272543966770172119e-01 -4.434934817254543304e-03 -2.893628552556037903e-02 -1.330399215221405029e-01 -3.187437728047370911e-02 3.604878485202789307e-02 2.719346433877944946e-02 1.261456608772277832e-01 9.191535413265228271e-02 1.116507872939109802e-01 1.497314572334289551e-01 1.190150454640388489e-01 -9.178084321320056915e-03 1.565390266478061676e-02 1.031962633132934570e-01 -1.645563691854476929e-01 -6.842427700757980347e-02 -2.089171856641769409e-02 -2.041736058890819550e-02 1.305798292160034180e-01 3.885363042354583740e-02 1.139012724161148071e-01 1.977130211889743805e-02 -2.858273871243000031e-02 9.663000702857971191e-02 2.174665918573737144e-03 1.166035979986190796e-01 -8.880605548620223999e-02 -1.899054497480392456e-01 -2.725578378885984421e-03 -5.643089860677719116e-02 1.299255639314651489e-01 6.450951844453811646e-02 -1.070165187120437622e-01 -1.969196274876594543e-02 -5.026023462414741516e-02 8.568684011697769165e-02 -1.703517884016036987e-01 -9.388574212789535522e-02 1.167581602931022644e-01 -8.678928017616271973e-02 -4.514183849096298218e-02 -1.160035207867622375e-01 1.736391335725784302e-01 1.391989439725875854e-01 1.115047931671142578e-01 -7.183343917131423950e-02 -1.061358675360679626e-01 1.779688149690628052e-01 4.615712910890579224e-02 1.250133961439132690e-01 1.664237678050994873e-01 9.979233890771865845e-02 -2.462370693683624268e-02 -4.184956103563308716e-02 -6.651820242404937744e-02 -6.468470394611358643e-02 1.602707058191299438e-01 -1.174564063549041748e-01 8.644813299179077148e-02 -2.385508082807064056e-02 1.477049887180328369e-01 -1.456219106912612915e-01 1.624888032674789429e-01 -9.290799498558044434e-03 -1.339171379804611206e-01 7.162249833345413208e-02 -1.162352263927459717e-01 -6.082848086953163147e-02 -1.301687508821487427e-01 1.108744926750659943e-02 1.134835481643676758e-01 -2.362427487969398499e-02
1.792374551296234131e-01 -1.457651853561401367e-01 3.232971206307411194e-02 -8.882466703653335571e-02 -1.556243896484375000e-01 -4.788453690707683563e-03 -1.190535798668861389e-01 -1.625526100397109985e-01 1.353798955678939819e-01 -3.989993035793304443e-02 -1.673205494880676270e-01 9.366570413112640381e-02 -3.601598739624023438e-02 -1.323306709527969360e-01 -4.030432552099227905e-02 -1.734348833560943604e-01 2.635123580694198608e-02 -9.946607053279876709e-02 -8.807288855314254761e-02 -6.361734867095947266e-02 -7.277160137891769409e-02 -1.473885178565979004e-01 1.225920990109443665e-01 8.296610414981842041e-02 -6.070674210786819458e-02 -3.856587782502174377e-02 8.516229689121246338e-02 -5.278798285871744156e-03 1.591759622097015381e-01 1.690389066934585571e-01 1.469069421291351318e-01 -3.676493838429450989e-02 2.241058275103569031e-03 1.524771936237812042e-02 -1.878977566957473755e-01 -5.482039973139762878e-02 -8.092188835144042969e-02 1.699242740869522095e-01 -1.310420036315917969e-01 3.488926962018013000e-02 1.897267848253250122e-01 -5.760698765516281128e-02 -1.019541695713996887e-01 5.542429536581039429e-02 -6.274826079607009888e-02 5.165695399045944214e-02 -9.740058332681655884e-03 -9.303366392850875854e-02 8.990169316530227661e-02 6.720215082168579102e-02 1.184298396110534668e-01 5.162315815687179565e-02 -6.144524086266756058e-03 1.202683448791503906e-01 1.541152447462081909e-01 7.028391212224960327e-02 5.218371376395225525e-02 1.270447075366973877e-01 -1.357306241989135742e-01 1.338696777820587158e-01 2.363029494881629944e-02 6.483237445354461670e-02 3.940281644463539124e-02 3.683165833353996277e-02 -1.218217611312866211e-01 2.412753924727439880e-02 4.635609686374664307e-02 -8.006485551595687866e-02 8.978239446878433228e-02 -9.561105817556381226e-02 -1.330754607915878296e-01 -1.482310146093368530e-01 6.403319537639617920e-02 -3.011948801577091217e-02 -1.684086620807647705e-01 -7.762032747268676758e-02 -6.353679299354553223e-02 2.035253308713436127e-02 -1.032568961381912231e-01 1.184954657219350338e-03 7.818475365638732910e-03 1.515651643276214600e-01 7.347633689641952515e-02 2.152588404715061188e-02 -1.372860968112945557e-01 -1.380790919065475464e-01 1.239843219518661499e-01 -1.330249477177858353e-02 3.471931070089340210e-02 2.140686288475990295e-02 -8.061674982309341431e-02 -9.763443470001220703e-02 -5.382016673684120178e-02 -2.070192806422710419e-02 -1.520287841558456421e-01 -6.372090429067611694e-02 -5.119820311665534973e-02 -6.897411495447158813e-02 -2.240920811891555786e-02 -7.243491243571043015e-03 2.651470154523849487e-02 8.343356102705001831e-02 7.105744630098342896e-02 -1.793873757123947144e-01 -8.467077463865280151e-02 1.917130351066589355e-01 -3.573654964566230774e-02 9.491679072380065918e-02 -1.095305904746055603e-01
-3.581367805600166321e-02 1.989672034978866577e-01 -1.983911730349063873e-03 1.408549249172210693e-01 -9.832360595464706421e-02 5.197705468162894249e-04 -4.864874109625816345e-02 -1.925186663866043091e-01 -1.535127460956573486e-01 -3.190328925848007202e-02 2.145323529839515686e-02 -5.738642811775207520e-02 -1.435334086418151855e-01 4.233662411570549011e-02 -1.359406411647796631e-01 7.043912261724472046e-02 -7.417078129947185516e-03 1.121127158403396606e-01 4.276971891522407532e-02 6.522514671087265015e-02 -3.053240478038787842e-02 7.534684985876083374e-02 -1.292271725833415985e-02 -1.598887592554092407e-01 -2.729578688740730286e-02 -6.612795591354370117e-02 4.156265407800674438e-02 -1.606092751026153564e-01 5.026393383741378784e-02 5.366533994674682617e-02 1.000548079609870911e-01 -1.551347435452044010e-03 -1.559891253709793091e-01 -9.556110203266143799e-02 -1.410975158214569092e-01 -1.522902250289916992e-01 -1.311612874269485474e-01 1.376272141933441162e-01 -1.834918260574340820e-01 -5.361428111791610718e-02 -1.912128366529941559e-02 -5.517865717411041260e-02 -9.601695090532302856e-02 -1.325235664844512939e-01 5.523552373051643372e-02 -2.107648700475692749e-01 3.647093474864959717e-02 -1.095272600650787354e-01 -1.495712101459503174e-01 -1.024108082056045532e-01 2.912495471537113190e-02 -6.011768803000450134e-02 -1.339590698480606079e-01 -1.473621875047683716e-01 -3.237934783101081848e-02 5.189613997936248779e-02 -5.880034063011407852e-03 5.681984126567840576e-02 1.759490072727203369e-01 1.294774413108825684e-01 -2.081936411559581757e-02 -1.364722698926925659e-01 1.529339998960494995e-01 -4.913001880049705505e-02 -2.828376134857535362e-03 1.224684044718742371e-01 2.021697163581848145e-01 4.965139552950859070e-02 -1.629923731088638306e-01 3.745659813284873962e-02 1.823969371616840363e-02 7.857027649879455566e-02 4.311603307723999023e-02 -2.114364802837371826e-01 1.414925754070281982e-01 -6.842067092657089233e-02 8.432450145483016968e-02 1.991072297096252441e-01 -7.041437178850173950e-02 -1.480122506618499756e-01 -6.056506559252738953e-02 7.426671683788299561e-02 -1.872566491365432739e-01 -1.885178685188293457e-01 -1.551192020997405052e-03 1.717905551195144653e-01 -1.743669658899307251e-01 -8.411136269569396973e-02 -8.362851291894912720e-02 -1.438373029232025146e-01 5.566434189677238464e-02 1.778005622327327728e-02 5.037834867835044861e-02 1.394226551055908203e-01 -1.600217968225479126e-01 -3.009896911680698395e-02 1.656051725149154663e-01 1.987750679254531860e-01 2.675695717334747314e-02 2.818761765956878662e-02 3.183155879378318787e-02 1.961465477943420410e-01 -4.853833839297294617e-02 -1.212316155433654785e-01 -1.668411493301391602e-01 7.827984541654586792e-02 -1.078490018844604492e-01 -6.215026229619979858e-02 1.521208584308624268e-01
-1.438172161579132080e-02 -1.056283414363861084e-01 -9.608523547649383545e-02 -3.643063455820083618e-02 1.520364359021186829e-02 -7.425559312105178833e-02 9.481218643486499786e-03 1.793798953294754028e-01 1.110122203826904297e-01 1.322154849767684937e-01 1.019919104874134064e-02 -7.251976057887077332e-03 4.936308786273002625e-02 4.438997060060501099e-02 1.447179540991783142e-02 1.159629374742507935e-01 1.274390518665313721e-01 -5.559057742357254028e-02 2.654324658215045929e-02 4.297167062759399414e-02 -7.880774140357971191e-02 -5.768555030226707458e-02 4.534579813480377197e-02 4.196806624531745911e-02 8.237299323081970215e-02 5.100067704916000366e-02 -1.594020426273345947e-01 1.042694970965385437e-01 6.437133252620697021e-02 7.679788023233413696e-02 2.754642814397811890e-02 1.018923241645097733e-02 6.718138232827186584e-03 1.584747880697250366e-01 -1.331491917371749878e-01 2.245188653469085693e-01 9.831172227859497070e-02 9.396502375602722168e-02 5.767044052481651306e-02 -1.853648573160171509e-01 3.893283009529113770e-02 1.035940051078796387e-01 -8.477149531245231628e-03 -2.038715034723281860e-02 9.995240718126296997e-02 6.577982008457183838e-02 1.217151731252670288e-01 -1.983737386763095856e-02 -6.911404430866241455e-02 8.171895146369934082e-02 -1.477656960487365723e-01 3.316377848386764526e-02 -3.225263580679893494e-02 8.979832753539085388e-03 4.789223521947860718e-02 1.101635619997978210e-01 2.564905583858489990e-02 7.691539824008941650e-02 2.836456894874572754e-02 -1.692869812250137329e-01 9.910567104816436768e-02 -7.752227038145065308e-02 1.523730158805847168e-01 -1.263220459222793579e-01 -2.061620503664016724e-01 1.146089956164360046e-01 1.330813299864530563e-02 -1.417494714260101318e-01 -8.633221499621868134e-03 1.088581904768943787e-01 -7.552503794431686401e-02 -4.516868665814399719e-02 6.052875518798828125e-02 1.048436388373374939e-01 2.770127542316913605e-02 4.697250667959451675e-03 -9.452725946903228760e-02 -2.472312748432159424e-01 1.475802063941955566e-01 1.182296276092529297e-01 -1.216499134898185730e-01 -1.297380179166793823e-01 7.887620478868484497e-02 -3.001275360584259033e-01 1.352199912071228027e-01 -1.985021382570266724e-01 8.129801601171493530e-02 -2.163504511117935181e-01 -9.917699545621871948e-02 -2.076969742774963379e-01 -2.158911675214767456e-01 5.651406478136777878e-03 -2.799268960952758789e-01 2.830823510885238647e-02 -2.918958663940429688e-02 6.558813899755477905e-02 -2.116727828979492188e-02 7.799672335386276245e-02 -7.340914756059646606e-02 -1.557637453079223633e-01 1.783575862646102905e-01 -1.159110292792320251e-01 9.518460929393768311e-02 1.539376527070999146e-01 -2.087380969896912575e-03 -1.038779970258474350e-02 1.467653959989547729e-01 1.253376603126525879e-01 8.372820168733596802e-02
5.044504627585411072e-02 -1.708676815032958984e-01 3.359053656458854675e-02 -1.513211578130722046e-01 9.735686331987380981e-02 1.971892081201076508e-02 -4.933523386716842651e-02 9.252876788377761841e-02 -1.288766562938690186e-01 -1.926291966810822487e-03 6.832281500101089478e-02 2.169720269739627838e-02 1.486331969499588013e-01 1.506588608026504517e-01 1.522011905908584595e-01 1.250692605972290039e-01 9.262494742870330811e-02 -8.095744997262954712e-02 2.803756482899188995e-02 -1.140604466199874878e-01 -4.819729924201965332e-02 8.461507409811019897e-02 2.056863903999328613e-02 -7.803060114383697510e-02 1.461128741502761841e-01 -2.023499272763729095e-02 2.399722859263420105e-02 1.393710821866989136e-01 -1.398162096738815308e-01 6.007104367017745972e-02 -6.992044299840927124e-02 5.485561862587928772e-02 -3.814728185534477234e-02 -5.463391542434692383e-02 -1.092736274003982544e-01 -5.387779325246810913e-02 3.828749060630798340e-02 -1.169448792934417725e-01 -1.304305642843246460e-01 1.497530192136764526e-01 -2.434193529188632965e-02 -1.694979728199541569e-03 -5.565484613180160522e-02 -1.342520564794540405e-01 7.902307435870170593e-03 -8.927460759878158569e-03 -1.088083907961845398e-01 3.932219743728637695e-02 1.287111192941665649e-01 1.576916128396987915e-01 -1.070842742919921875e-01 3.218074887990951538e-02 6.987939774990081787e-02 8.337224274873733521e-02 -7.290869951248168945e-02 -1.398483961820602417e-01 -1.413956731557846069e-01 -1.678365468978881836e-01 -9.683094918727874756e-02 -7.158371154218912125e-04 -1.229941025376319885e-01 -4.885995388031005859e-02 -8.292426168918609619e-02 7.296971976757049561e-02 -1.465535461902618408e-01 1.030827239155769348e-01 -1.693315207958221436e-01 -7.020395249128341675e-02 6.817846745252609253e-02 -1.288529369048774242e-03 8.479293435811996460e-02 -9.906473755836486816e-02 2.603974007070064545e-02 -5.555116012692451477e-02 -1.797468774020671844e-02 1.151533201336860657e-01 -1.348634064197540283e-01 1.067435666918754578e-01 1.083958894014358521e-01 3.251074580475687981e-03 -1.036903336644172668e-01 -1.177383214235305786e-02 2.094850689172744751e-02 1.596245318651199341e-01 2.811102569103240967e-02 5.386069044470787048e-02 5.763050913810729980e-02 -1.501547843217849731e-01 1.601642370223999023e-01 6.988494098186492920e-02 -3.526626527309417725e-02 -2.284540794789791107e-02 7.474600523710250854e-02 5.325469747185707092e-02 3.097388334572315216e-02 1.564242690801620483e-01 -1.091941967606544495e-01 -1.548333764076232910e-01 1.451136469841003418e-01 -7.046799361705780029e-02 -1.211233660578727722e-01 -1.438238024711608887e-01 2.665811032056808472e-02 -1.571602225303649902e-01 1.046371087431907654e-02 -8.609150350093841553e-02 1.452995091676712036e-01 1.512487381696701050e-01 1.083217002451419830e-02
-4.556401818990707397e-02 1.815066486597061157e-01 -7.020181417465209961e-02 -4.437264427542686462e-02 -1.032647863030433655e-01 1.499586999416351318e-01 -3.987764120101928711e-01 -1.051032263785600662e-02 8.853388577699661255e-02 -1.112188994884490967e-01 1.595333665609359741e-01 1.355213299393653870e-02 9.814675897359848022e-02 -4.331192933022975922e-03 1.636743247509002686e-01 -1.413976307958364487e-03 -5.813210085034370422e-02 1.417734567075967789e-02 1.143942028284072876e-01 1.667608767747879028e-01 -5.062633659690618515e-03 -3.883348405361175537e-01 -9.652468375861644745e-03 -1.839902848005294800e-01 1.075542569160461426e-01 -1.011844724416732788e-01 2.102802991867065430e-01 1.295209378004074097e-01 1.551078855991363525e-01 -4.079571366310119629e-02 -2.056376934051513672e-01 7.840104401111602783e-03 1.841085031628608704e-02 -1.930781602859497070e-01 -4.429747536778450012e-02 -3.036834001541137695e-01 2.143783867359161377e-02 1.343278437852859497e-01 -3.637431263923645020e-01 -2.374822795391082764e-01 8.426076173782348633e-02 1.343222558498382568e-01 1.382901519536972046e-01 1.018366888165473938e-01 4.499857127666473389e-02 -7.003033906221389771e-02 4.830703139305114746e-02 -5.401103571057319641e-02 1.300696458201855421e-04 -3.134757280349731445e-01 5.882709473371505737e-02 -1.054837927222251892e-02 -9.055732935667037964e-02 -4.657402932643890381e-01 1.120430752635002136e-01 -6.883578747510910034e-02 1.268694996833801270e-01 7.431557029485702515e-02 1.519577652215957642e-01 -6.808616966009140015e-02 1.075856611132621765e-01 8.595018833875656128e-02 -5.917197838425636292e-02 1.550040952861309052e-02 -1.758370697498321533e-01 -2.318310551345348358e-02 1.828732341527938843e-01 7.402835786342620850e-02 6.732740998268127441e-02 -6.358344573527574539e-03 -6.298917531967163086e-02 3.845073282718658447e-02 1.418914347887039185e-01 -4.689993262290954590e-01 -1.079930365085601807e-02 -7.738215848803520203e-03 -4.286050796508789062e-02 1.772185862064361572e-01 -4.331490397453308105e-02 2.937638387084007263e-02 -1.248544454574584961e-01 7.183655351400375366e-02 9.970215708017349243e-02 -3.188042342662811279e-01 1.459877490997314453e-01 -2.817605808377265930e-02 -1.741330325603485107e-02 1.928226351737976074e-01 -1.163460910320281982e-01 -1.582221686840057373e-01 7.634010165929794312e-02 1.099354475736618042e-01 -4.237807393074035645e-01 1.049009189009666443e-01 1.729944534599781036e-02 1.175660341978073120e-01 -2.390425093472003937e-02 1.485937088727951050e-01 1.969679594039916992e-01 6.372205168008804321e-02 1.868772506713867188e-02 2.025849819183349609e-01 -8.574203401803970337e-02 -2.314435839653015137e-01 1.152082905173301697e-02 -1.791524514555931091e-02 1.294554919004440308e-01 -6.647261977195739746e-02 1.102188825607299805e-01
5.708475410938262939e-02 6.875570118427276611e-02 -6.284029036760330200e-02 -5.451944842934608459e-02 6.747594475746154785e-02 1.271985471248626709e-01 4.214493930339813232e-02 5.171893909573554993e-02 -4.422846436500549316e-02 -2.843251265585422516e-02 -6.542982906103134155e-02 -2.064417488873004913e-02 -1.659472584724426270e-01 -1.215531751513481140e-01 1.927918195724487305e-02 -7.473275065422058105e-02 7.503625750541687012e-02 2.315314859151840210e-02 1.204440072178840637e-01 -1.040671467781066895e-01 3.935480862855911255e-02 -3.921866416931152344e-02 -1.051602214574813843e-01 -8.380633592605590820e-02 7.003404945135116577e-02 9.741985052824020386e-02 1.758085042238235474e-01 1.090922132134437561e-01 -4.532436374574899673e-03 -1.141247302293777466e-01 -2.044114843010902405e-02 1.366504561156034470e-02 -1.159197464585304260e-02 -8.767889440059661865e-02 3.349198773503303528e-02 1.004821211099624634e-01 -1.758772432804107666e-01 7.631211727857589722e-02 -1.290907710790634155e-01 1.429811865091323853e-01 1.565630547702312469e-02 8.208730816841125488e-02 1.160388439893722534e-01 1.086994633078575134e-01 -1.250441223382949829e-01 -1.162917390465736389e-01 -6.830613710917532444e-04 -1.623464748263359070e-02 7.076810300350189209e-02 -4.478400945663452148e-02 8.718173205852508545e-02 -8.950779214501380920e-03 -5.204069241881370544e-02 1.234220415353775024e-01 4.534596204757690430e-02 1.366233825683593750e-01 -9.836090356111526489e-02 1.924786418676376343e-01 -2.976012788712978363e-02 -1.143730655312538147e-01 -3.096594847738742828e-02 -1.964858733117580414e-02 1.456451714038848877e-01 -3.471812605857849121e-02 4.429472610354423523e-02 1.845892071723937988e-01 1.873134374618530273e-01 -1.413947157561779022e-02 2.795766480267047882e-02 -4.126042127609252930e-02 -1.111247986555099487e-01 1.406345665454864502e-01 1.782574132084846497e-02 1.072695404291152954e-01 1.328934635967016220e-02 6.155249476432800293e-02 -1.503732055425643921e-01 -1.702548190951347351e-02 4.726479202508926392e-02 -1.700955182313919067e-01 2.168180979788303375e-02 -1.174559537321329117e-02 -5.169366672635078430e-02 -1.250810921192169189e-01 1.314411014318466187e-01 3.771348856389522552e-03 3.389212861657142639e-02 -2.639941871166229248e-03 9.208948351442813873e-03 -9.444446116685867310e-02 6.174334511160850525e-02 1.588925272226333618e-01 3.407369554042816162e-02 1.894082129001617432e-01 -3.297413885593414307e-02 9.171464480459690094e-03 -5.195493251085281372e-02 1.797767914831638336e-02 2.954871393740177155e-02 5.342273972928524017e-03 2.109818607568740845e-01 8.674564957618713379e-02 1.624925881624221802e-01 -6.908612698316574097e-02 -1.855200678110122681e-01 1.391825228929519653e-01 8.769519627094268799e-02 -1.004526168107986450e-01 9.714711457490921021e-02
-1.308808773756027222e-01 7.274796813726425171e-02 -3.093328513205051422e-02 -9.863289596978574991e-05 1.440794765949249268e-01 1.645271480083465576e-02 -2.217429876327514648e-02 5.139959603548049927e-02 -5.996033176779747009e-02 1.444854680448770523e-02 9.188772737979888916e-02 4.500484839081764221e-02 -5.966491997241973877e-02 1.092571765184402466e-01 6.411527097225189209e-02 1.264730393886566162e-01 -6.126593053340911865e-02 3.218830004334449768e-02 -9.856621176004409790e-02 9.435334056615829468e-02 4.865759611129760742e-02 2.754363231360912323e-02 -4.600313305854797363e-02 -1.270295083522796631e-01 4.907365143299102783e-02 -9.394749999046325684e-02 1.533434391021728516e-01 -1.289654672145843506e-01 -1.526205688714981079e-01 1.482115685939788818e-01 -5.418434739112854004e-02 1.326502412557601929e-01 1.433680951595306396e-01 -1.503414195030927658e-02 -2.422529086470603943e-02 2.593911252915859222e-02 4.566625133156776428e-02 3.934420645236968994e-03 6.076209247112274170e-02 7.225442677736282349e-03 -1.341516375541687012e-01 -1.109510809183120728e-01 9.896866977214813232e-02 4.351366311311721802e-03 -1.126134023070335388e-01 1.948947273194789886e-02 -2.473353222012519836e-02 1.599149703979492188e-01 -1.389187388122081757e-02 -5.110602825880050659e-02 -8.702638745307922363e-02 -4.261566791683435440e-03 -1.070324331521987915e-02 1.129365786910057068e-01 2.856111712753772736e-02 -1.394042670726776123e-01 -1.444725245237350464e-01 2.280659228563308716e-02 1.475756708532571793e-02 1.578705459833145142e-01 -2.012374624609947205e-02 1.733914762735366821e-01 3.100484982132911682e-02 1.741388738155364990e-01 -4.351921007037162781e-02 -3.352816030383110046e-02 -9.105776250362396240e-02 6.763321906328201294e-02 -4.335540905594825745e-02 -5.343047529458999634e-02 1.063663978129625320e-03 3.744900971651077271e-02 4.373108968138694763e-02 -1.573929004371166229e-02 -1.306876689195632935e-01 -4.943440482020378113e-02 -1.059625446796417236e-01 1.870129257440567017e-01 -2.179995412006974220e-03 1.104973554611206055e-01 9.073583036661148071e-02 -1.272307783365249634e-01 1.660118848085403442e-01 -7.920651882886886597e-02 -1.495484560728073120e-01 2.638252824544906616e-02 -1.023004874587059021e-01 -1.349632441997528076e-01 1.423066407442092896e-01 -6.137326359748840332e-02 2.134373784065246582e-01 -1.450657844543457031e-01 -1.417897492647171021e-01 1.886642575263977051e-01 6.594093888998031616e-02 5.091796442866325378e-02 -1.119275912642478943e-01 6.500443816184997559e-02 -1.346734464168548584e-01 1.895848214626312256e-01 -1.545158773660659790e-01 1.394217014312744141e-01 6.506724655628204346e-02 -1.100865453481674194e-01 1.218353062868118286e-01 -7.715871930122375488e-02 1.128097176551818848e-01 3.621737286448478699e-02 3.376535326242446899e-02
1.322751939296722412e-01 1.340146213769912720e-01 -8.440140634775161743e-02 7.232335209846496582e-02 -1.243794932961463928e-01 9.177934378385543823e-02 -1.473623961210250854e-01 -9.531164169311523438e-02 -1.462759226560592651e-01 -2.713053673505783081e-02 -1.764298081398010254e-01 -1.028818339109420776e-01 -1.022865250706672668e-01 1.050999239087104797e-01 -4.570002853870391846e-02 -7.523193955421447754e-02 4.581370949745178223e-02 1.643326366320252419e-03 5.561174452304840088e-02 -9.575140476226806641e-02 6.461396813392639160e-02 1.159622296690940857e-01 9.083166718482971191e-03 -1.077803894877433777e-01 -1.136891171336174011e-01 -7.208678871393203735e-02 1.399459317326545715e-02 -1.588878333568572998e-01 2.457131445407867432e-02 2.684899792075157166e-02 2.671709656715393066e-02 1.184422746300697327e-01 -1.569332778453826904e-01 1.078687608242034912e-01 -1.174652948975563049e-01 3.226795792579650879e-02 1.481477916240692139e-01 1.085224673151969910e-01 1.755981743335723877e-01 3.137643262743949890e-02 5.927114933729171753e-02 -6.532391905784606934e-02 -1.560718659311532974e-02 -1.777073591947555542e-01 -1.406605988740921021e-01 1.058258190751075745e-01 1.071762964129447937e-01 1.261380612850189209e-01 5.999973043799400330e-02 -2.235321328043937683e-02 8.394104987382888794e-02 5.314776301383972168e-02 -1.165472045540809631e-01 4.599544033408164978e-02 3.698206692934036255e-02 1.286773663014173508e-02 -5.764257162809371948e-03 1.235011368989944458e-01 1.408108323812484741e-01 -1.387940049171447754e-01 -1.087408810853958130e-01 1.410533338785171509e-01 -3.696857765316963196e-02 -4.535382241010665894e-02 -1.122225448489189148e-01 -4.010310769081115723e-02 -1.046345978975296021e-01 -4.698415100574493408e-02 -2.431181201245635748e-04 -1.114282906055450439e-01 1.489718854427337646e-01 -9.333492815494537354e-02 1.220490261912345886e-01 1.168823987245559692e-01 -2.336074225604534149e-02 1.093707978725433350e-01 6.408886611461639404e-02 7.120770215988159180e-02 1.332446783781051636e-01 7.936324924230575562e-02 6.615106016397476196e-02 -9.530322998762130737e-02 6.181677058339118958e-02 -1.352993994951248169e-01 1.589469164609909058e-01 -7.584819197654724121e-02 2.468213252723217010e-02 3.301454335451126099e-02 6.245047971606254578e-02 -7.547845691442489624e-02 -5.236217752099037170e-03 -1.356770247220993042e-01 -1.159421652555465698e-01 1.231293193995952606e-02 -1.316659748554229736e-01 1.191604733467102051e-01 -7.325886399485170841e-04 -8.285541832447052002e-02 -1.420991122722625732e-01 -3.061243146657943726e-02 -1.487264037132263184e-01 1.382759064435958862e-01 3.017248213291168213e-02 3.717387095093727112e-02 4.556066170334815979e-02 7.387275993824005127e-02 1.699475795030593872e-01 7.989812642335891724e-02 9.492214024066925049e-02
-1.779732853174209595e-01 -1.734557896852493286e-01 -1.694940775632858276e-01 1.540955901145935059e-01 4.072108119726181030e-02 4.946370795369148254e-02 -5.435385182499885559e-02 1.187288165092468262e-01 7.153617683798074722e-03 -9.635470062494277954e-02 7.539692521095275879e-02 1.470586061477661133e-01 -1.794229298830032349e-01 -2.671361900866031647e-02 1.125012487173080444e-01 1.086273118853569031e-01 1.199460625648498535e-01 1.136551946401596069e-01 1.528975218534469604e-01 6.718254834413528442e-02 -1.334550380706787109e-01 -1.327019333839416504e-01 -5.997245386242866516e-02 8.456674963235855103e-02 -1.134170889854431152e-01 4.995183646678924561e-02 1.127313002943992615e-01 -4.166088625788688660e-02 7.947221398353576660e-02 -3.780385851860046387e-02 -4.218862950801849365e-02 2.914910577237606049e-02 1.052344311028718948e-02 1.213429495692253113e-01 -1.233883723616600037e-01 -8.911114186048507690e-02 -7.110114395618438721e-02 -6.180141493678092957e-02 1.572349220514297485e-01 1.155889555811882019e-01 1.402281224727630615e-01 3.922734782099723816e-02 -1.369579881429672241e-01 6.486801803112030029e-02 -5.030141025781631470e-02 -1.097203791141510010e-01 -1.614778637886047363e-01 -1.260702610015869141e-01 -5.459289625287055969e-02 -7.377667725086212158e-02 -8.241546340286731720e-03 -1.489439010620117188e-01 -6.282413750886917114e-02 -1.073076128959655762e-01 -1.532374620437622070e-01 9.178075194358825684e-02 2.832206198945641518e-03 -1.613447815179824829e-02 -1.241322159767150879e-01 -6.593500822782516479e-02 -3.985958546400070190e-02 -5.617988109588623047e-02 1.622546315193176270e-01 1.349891424179077148e-01 -8.151789009571075439e-02 -3.149271756410598755e-02 8.815311640501022339e-02 -1.574224680662155151e-01 7.445748895406723022e-02 8.360083401203155518e-02 9.735672175884246826e-02 1.351490765810012817e-01 9.250191599130630493e-02 -1.260113865137100220e-01 -1.203905865550041199e-01 -5.693322420120239258e-02 -1.583359390497207642e-01 -1.462135016918182373e-01 -9.072638303041458130e-02 -4.590826854109764099e-02 -1.884371391497552395e-03 -8.693194389343261719e-02 -1.355167031288146973e-01 -9.031404554843902588e-02 7.926220446825027466e-02 2.538418397307395935e-02 6.405869126319885254e-02 -3.420301480218768120e-03 4.986279085278511047e-02 -2.263386733829975128e-02 3.224302828311920166e-02 -1.399190425872802734e-01 -5.187213048338890076e-02 -1.508576422929763794e-01 5.484152212738990784e-02 4.546194523572921753e-02 -1.453950554132461548e-01 -7.741249352693557739e-02 8.028668165206909180e-02 -3.069137688726186752e-03 -2.243169024586677551e-02 1.212015300989151001e-01 1.208168789744377136e-01 9.396417438983917236e-02 1.459171473979949951e-01 2.897315099835395813e-02 1.198854967951774597e-01 1.113947778940200806e-01 -1.395491659641265869e-01
